tree
version=v4
num_class=1
num_tree_per_iteration=1
label_index=0
max_feature_idx=25
objective=lambdarank
feature_names=speed_idx_weighted speed_idx_best speed_idx_last shrunk_win_rate shrunk_show_rate effective_starts same_distance_count same_surface_count same_venue_count same_going_count same_going_show_rate going_versatility best_time_at_target best_time_runs weight_kg_delta recent_form_score popularity_outperformance last3f_idx_recent days_since_last_run body_weight body_weight_diff big_weight_change jockey_change style_score pace_fit weight_kg
feature_infos=[0:105.84899999999999] [0:112.56999999999999] [-53.605000000000018:111.23] [0.027644444444444444:0.40610000000000002] [0.082933333333333331:0.64577777777777778] [0:5] [0:5] [0:5] [0:5] none none [0:1] [0:293.10000000000002] [0:5] [-7.6000000000000014:6] [0:3] [-17:15] [0:53.197094333663529] [0:1006] [0:604] [-47:59] [0:1] [0:1] [-1:1] [-1:1] [49:63]
tree_sizes=2738 2743 2745 2762 2758 2744 2753 2737 2755 2754 2751 2753 2748 2751 2743 2741 2748 2758 2751 2730 2749 2741 2751 2766 2754 2744 2744 2754 2735 2760 2756 2760 2747 2740 2759 2758 2751 2746 2748 2755 2732 2742 2744 2742 2751 2738 2749 2739 2755 2752 2747 2745 2743 2765 2744 2754 2748 2752 2747 2753 2761 2749 2750 2748 2755 2740 2738 2742 2747 2738 2762 2746 2747 2742 2755 2764 2757 2750 2737 2743 2738 2741 2737 2764 2739 2749 2753 2746 2732 2752 2720 2743 2741 2744 2754 2733 2732 2738 2735 2755 2744 2732 2749 2743 2753 2715 2742

Tree=0
num_leaves=24
num_cat=0
split_feature=15 15 16 16 8 2 15 16 19 15 25 2 3 17 18 19 7 16 22 3 7 23 7
split_gain=1005.63 194.808 124.471 75.7323 73.6494 43.8752 40.311 38.3991 23.0856 21.212 20.3963 19.4499 16.9496 17.2007 17.3446 16.2486 13.3147 12.8624 12.6226 10.736 10.5689 10.4125 9.97978
threshold=1.0000000180025095e-35 1.1666666666666667 -4.3666666666666663 -2.2916666666666665 1.0000000180025095e-35 67.753500000000017 1.8333333333333337 -1.4499999999999997 436.50000000000006 0.41666666666666669 53.500000000000007 74.46016250000001 0.09117255162696776 32.160162141779793 23.500000000000004 443.50000000000006 4.5000000000000009 -8.3666666666666654 1.0000000180025095e-35 0.086185941739317873 1.5000000000000002 0.66222999222999224 2.5000000000000004
decision_type=2 2 2 2 2 2 2 2 2 2 2 2 2 2 2 2 2 2 2 2 2 2 2
left_child=2 3 8 11 10 -5 15 -6 -1 -7 -4 16 13 -12 -15 -3 -2 -10 -8 -19 -11 -18 -16
right_child=1 6 4 5 7 9 18 -9 17 20 12 -13 -14 14 22 -17 21 19 -20 -21 -22 -23 -24
leaf_value=-0.025599377408673081 0.017849751849962587 0.0033269739645684438 -0.039131018840206033 -0.014483581648866827 -0.027284812180376729 -0.010501840599766514 0.036738865353441869 -0.043417360669067352 0.0049393285266088466 0.029329255634637549 -0.0026479738752750166 0.01726833926656245 0.0069528243702958537 -0.035304075287705759 -0.02768127769475591 0.020772167935150326 0.0056902913740816737 -0.01128417247295691 0.025278890748242959 0.00037084386677571087 0.0063250837366653203 -0.028017722419541327 -0.0054249444089492288
leaf_weight=58.10206078691408 89.502768099540845 54.841226274613291 25.19712042901665 195.29274914273992 436.98529432923533 70.671160580823198 215.10839836462401 190.75155209854711 85.834330052370206 19.697393409907818 73.061369317350909 322.04614801122807 40.46550792560447 47.424710190622136 26.706887726671994 388.1113629899919 336.45477164792828 253.34140598028898 144.68281127675436 98.899494840065017 205.507815435878 8.4549652864225191 56.477153404615819
leaf_count=1169 1056 704 546 2866 7758 1081 1680 3670 1240 193 1149 3699 548 836 560 4073 4276 4231 1513 1370 2566 130 799
internal_value=-0.000220876 0.0131429 -0.0198877 0.0057255 -0.0265565 -0.00344719 0.0246712 -0.032187 -0.00783084 0.00383737 -0.0134334 0.0116813 -0.0107812 -0.0143046 -0.0208252 0.0186123 0.00753947 -0.00547419 0.0321305 -0.00801177 0.00833713 0.00486399 -0.0125705
internal_weight=3443.62 2050.37 1393.25 1247.63 897.07 491.169 802.744 627.737 496.177 295.876 269.333 756.459 244.136 203.67 130.609 442.953 434.413 438.075 359.791 352.241 225.205 344.91 83.184
internal_count=47713 23837 23876 15867 15866 6706 7970 11428 8010 3840 4438 9161 3892 3344 2195 4777 5462 6841 3193 5601 2759 4406 1359
is_linear=0
shrinkage=0.03


Tree=1
num_leaves=24
num_cat=0
split_feature=15 4 16 4 17 8 15 0 17 4 5 16 17 19 16 4 7 16 5 5 3 15 19
split_gain=2160.69 333.86 296.894 232.813 172.547 150.518 141.37 103.535 84.8495 84.7861 71.3203 71.2124 67.4434 66.0012 62.6719 60.2332 57.4739 55.0707 58.9109 52.618 53.4578 46.4577 45.773
threshold=0.41666666666666669 0.31157925834176375 -4.3666666666666663 0.25183568517394822 35.585851724833084 1.0000000180025095e-35 2.5833333333333335 73.222937500000015 37.287193289269943 0.27502090923810363 0.16986698386595964 -1.2249999999999999 35.555871337723822 447.50000000000006 0.77500000000000013 0.2370967515925613 3.5000000000000004 -3.0999999999999996 1.4779693159215852 2.2886115844786787 0.086573810807803839 1.0000000180025095e-35 473.50000000000006
decision_type=2 2 2 2 2 2 2 2 2 2 2 2 2 2 2 2 2 2 2 2 2 2 2
left_child=2 4 7 5 10 -4 8 15 14 -6 -2 -7 -5 -12 16 -1 -3 -11 -19 -15 -21 -9 -20
right_child=1 6 3 12 9 11 -8 21 -10 17 13 -13 -14 19 -16 -17 -18 18 22 20 -22 -23 -24
leaf_value=-0.020105624133996993 -0.014425028749130504 0.032974686205251881 -0.013878912124034406 -0.00049889506664746821 -0.006202935383901328 -0.029442531691702325 0.032327087646494231 -0.0022417852438450137 0.004617277922111241 0.012016674752464807 -0.0025702848510909151 -0.046473656470336494 -0.015320513001023535 0.021228188621447298 0.00054009789308521398 -0.0060571064454662234 0.016837338697137071 0.02029199551441364 -0.0088670508098058053 0.016813140844505137 0.0028279994675702125 0.013394533812549535 0.0045902368988638004
leaf_weight=443.6664956305176 92.319015746936202 221.58005126565695 506.46853949991055 361.74828719208017 1222.5693667531013 1007.5211614719592 457.25667594000697 550.39019764121622 628.09601800143719 547.00224216282368 227.31659523956478 283.03021051362157 1169.8398803481832 660.60867858864367 190.23242852464318 721.11843220610172 1917.9270767178386 116.79701601713896 468.93888366594911 527.56973599642515 460.89332462660968 248.102842874825 441.77766314521432
leaf_count=2496 239 352 3144 1578 3652 6756 544 3219 1405 1236 693 2586 5573 1357 403 2888 3721 221 1391 1281 1266 655 1057
internal_value=-1.88501e-05 0.00964375 -0.0149566 -0.0204138 0.00451352 -0.0277385 0.016803 -0.00570409 0.0144032 -0.000275489 0.0113176 -0.0331776 -0.0118198 0.0125842 0.0170414 -0.0114082 0.0185086 0.00432701 0.000233383 0.0146731 0.0102923 0.00261664 -0.00233908
internal_weight=13472.8 8180.88 5291.89 3328.61 4765.79 1797.02 3415.09 1963.28 2957.84 2797.09 1968.71 1290.55 1531.59 1876.39 2329.74 1164.78 2139.51 1574.52 1027.51 1649.07 988.463 798.493 910.717
internal_count=47713 18818 28895 19637 12393 12486 6425 9258 5881 7557 4836 9342 7151 4597 4476 5384 4073 3905 2669 3904 2547 3874 2448
is_linear=0
shrinkage=0.03


Tree=2
num_leaves=24
num_cat=0
split_feature=15 15 16 4 23 8 15 2 19 4 19 17 15 19 17 3 16 8 16 8 5 23 20
split_gain=1819.02 363.791 248.315 160.92 116.104 114.142 97.4828 95.7356 85.5008 64.4171 69.8806 60.2254 58.8591 58.619 55.8786 53.3252 49.5605 48.7359 44.2143 42.2827 41.9075 40.5338 39.6879
threshold=0.41666666666666669 1.4166666666666667 -4.0999999999999988 0.25108401282713405 0.3540404040404041 1.0000000180025095e-35 1.0000000180025095e-35 59.162087500000005 455.50000000000006 0.27595311078464152 473.50000000000006 35.555871337723822 2.4166666666666674 436.50000000000006 36.72580779321671 0.084483145565557638 -1.4499999999999997 1.0000000180025095e-35 -1.8999999999999997 4.5000000000000009 1.7418972037011338 0.072831612831612852 13.500000000000002
decision_type=2 2 2 2 2 2 2 2 2 2 2 2 2 2 2 2 2 2 2 2 2 2 2
left_child=2 4 6 5 7 -4 13 -2 -3 14 18 -5 -10 -1 22 -14 -7 -15 -11 -6 -12 -16 -9
right_child=1 8 3 11 19 16 -8 9 12 10 20 -13 15 17 21 -17 -18 -19 -20 -21 -22 -23 -24
leaf_value=-0.027177088736931868 -0.010831334386503601 0.0060883785391869505 -0.014629905023576676 -0.0020836095157610104 -0.0038651659133016429 -0.028877017177444897 0.0051848500665557361 0.006319106898865964 0.017041882412185766 0.0090746257880619449 0.030537227521229022 -0.016582988843993944 -0.0073447151780425841 -0.00015823539912853557 -0.0032562791458060326 0.030555283139385197 -0.044009954375055414 -0.012193496475941616 -0.0032404735239484187 -0.022369266642314766 0.012680512691335835 -0.028149033776743781 -0.032797988304877811
leaf_weight=163.51459289435297 298.94077296555042 514.18804327212274 443.85211268556304 347.17844842514023 377.14732688851655 727.44565051002428 489.33796405047178 1040.5924317315221 1919.6734906341881 664.7482383903116 131.40496053546667 1001.7505848892033 35.702416490763426 455.14283269271255 333.192711411044 520.70752327144146 265.994645843748 904.80304639413953 433.47252851165831 157.57444319501519 1184.7418358586729 71.507448676973581 23.8792461194098
leaf_count=1275 980 1169 2968 1569 1183 5790 1404 3084 3519 1665 234 5543 74 2292 1130 697 3021 5033 1357 573 2781 280 92
internal_value=6.23648e-06 0.00903425 -0.0144932 -0.0202934 0.003845 -0.0272779 -0.00646435 0.00552787 0.0172204 0.00678715 0.00980114 -0.0128512 0.0195321 -0.0102061 0.00183409 0.0281234 -0.0329289 -0.00816557 0.0042138 -0.00931805 0.0144633 -0.00765464 0.00544159
internal_weight=12506.5 7707.47 4799.02 2786.22 4717.2 1437.29 2012.8 4182.48 2990.27 3883.54 2414.37 1348.93 2476.08 1523.46 1469.17 556.41 993.44 1359.95 1098.22 534.722 1316.15 404.7 1064.47
internal_count=47713 18818 28895 18891 13359 11779 10004 11603 5459 10623 6037 7112 4290 8600 4586 771 8811 7325 3022 1756 3015 1410 3176
is_linear=0
shrinkage=0.03


Tree=3
num_leaves=24
num_cat=0
split_feature=15 15 16 4 17 8 4 7 15 16 19 17 25 8 3 8 16 23 4 19 4 16 16
split_gain=1539.24 301.054 213.792 131.156 111.254 97.2774 80.8516 104.161 75.3295 65.2239 64.8319 63.1464 62.8861 52.0057 49.017 42.4357 38.9845 38.4709 35.6126 35.5464 35.4296 33.7247 33.0063
threshold=0.41666666666666669 1.8333333333333337 -4.0999999999999988 0.24945543548699403 37.144482138761319 1.0000000180025095e-35 0.24945543548699403 4.5000000000000009 1.0000000180025095e-35 -1.0999999999999999 491.50000000000006 34.520528703960743 55.750000000000007 1.5000000000000002 0.087749445782390245 1.0000000180025095e-35 -1.4499999999999997 0.41095959595959602 0.30657111028378553 449.50000000000006 0.28087511101358725 0.70833333333333337 -0.77499999999999991
decision_type=2 2 2 2 2 2 2 2 2 2 2 2 2 2 2 2 2 2 2 2 2 2 2
left_child=2 4 8 5 6 -4 11 -8 14 20 18 -2 15 -5 19 -3 -7 -15 22 -1 -6 -17 -9
right_child=1 12 3 13 9 16 7 10 -10 -11 -12 -13 -14 17 -16 21 -18 -19 -20 -21 -22 -23 -24
leaf_value=-0.023125910205764551 0.0069039174001915534 -0.0057175574550426319 -0.014234779451534681 -0.0057725246761541711 -0.0055987735984052251 -0.028307365733502912 0.018552388564300585 0.00033024651770409647 0.0040530547719244518 -0.012806492345465957 0.0128612534709112 -0.011094519116378836 0.022548782176831123 -0.014415410771212694 0.00090159739943212894 0.01732193683655317 -0.042847024486217383 -0.031037032002163664 0.0072186186390854213 -0.0099066167472906339 0.0053678990426299636 -0.0074212033115916122 -0.018626844111483448
leaf_weight=230.70860426593572 369.0695502627641 113.0058286935091 403.42586918571033 545.18012663954869 406.57836746796966 640.36430821334943 854.3522153198719 659.69027613848448 477.16194004192948 376.40315509214997 865.38559693843126 334.38909217342734 1277.0710945241153 587.9824378285557 306.80853517353535 452.16752012446523 224.03312122263014 159.26866762526333 739.89144941791892 886.63413372822106 762.08584908396006 55.682341754436493 94.501347489655018
leaf_count=1794 1107 266 2916 2811 1403 5653 1976 2180 1404 1323 2131 1273 2050 3479 1523 734 2952 1080 1898 5283 1947 143 387
internal_value=2.00481e-05 0.00844812 -0.0138838 -0.019543 0.00487172 -0.0263987 0.00756059 0.00957701 -0.0062632 -0.00194551 0.00632708 -0.00165164 0.0187412 -0.0128179 -0.00971966 0.0109092 -0.0320757 -0.0179581 0.00254242 -0.0126361 0.00155259 0.014609 -0.00204511
internal_weight=11821.8 7360.27 4461.57 2560.25 5462.35 1267.82 3917.28 3213.82 1901.31 1545.07 2359.47 703.459 1897.93 1292.43 1424.15 620.856 864.397 747.251 1494.08 1117.34 1168.66 507.85 754.192
internal_count=47713 18818 28895 18891 15625 11521 10952 8572 10004 4673 6596 2380 3193 7370 8600 1143 8605 4559 4465 7077 3350 877 2567
is_linear=0
shrinkage=0.03


Tree=4
num_leaves=24
num_cat=0
split_feature=15 15 17 4 1 16 19 4 8 24 19 16 4 15 22 19 16 15 17 8 8 19 1
split_gain=1330.87 264.813 191.702 123.153 104.47 82.5539 64.9285 63.2898 60.8757 55.7496 54.1927 53.7338 53.2777 43.5032 40.1951 37.9947 37.3538 35.8291 35.3623 34.3853 32.8633 32.0481 31.6696
threshold=0.41666666666666669 1.8333333333333337 35.726996762306918 0.2370967515925613 73.632500000000007 -2.7083333333333326 438.50000000000006 0.25516637032152079 4.5000000000000009 0.41852369852369858 500.50000000000006 -3.6333333333333329 0.30657111028378553 1.0000000180025095e-35 1.0000000180025095e-35 505.50000000000006 -2.8999999999999995 1.0000000180025095e-35 33.640718701799081 1.5000000000000002 1.0000000180025095e-35 462.50000000000006 94.146500000000017
decision_type=2 2 2 2 2 2 2 2 2 2 2 2 2 2 2 2 2 2 2 2 2 2 2
left_child=2 4 6 11 12 21 -1 18 15 17 14 -4 16 -7 -3 -9 -2 20 -6 -18 -8 -5 -20
right_child=1 10 3 5 7 13 9 8 -10 -11 -12 -13 -14 -15 -16 -17 19 -19 22 -21 -22 -23 -24
leaf_value=-0.019680361736750467 0.00039948706581802959 0.019053071686823252 -0.018932818057192512 -0.014848191947676181 0.01127042671887097 -0.027702250027669805 0.0016338866978468176 0.010161107984775134 0.0021736254251623235 -0.021351006227761961 0.025786478260437368 -0.033477618913970157 0.0051064775787449303 -0.012977579235420481 0.0082955592036761082 0.020210185909880864 0.00077925803967618954 0.0097986235021580194 -0.0027907098415629657 -0.015603317708819309 -0.010720658889152019 -0.0044326386788380925 -0.050627111114034465
leaf_weight=213.98906439496204 486.34546516276896 733.81222059577703 420.20565470308065 426.79655977059156 183.7653014883399 413.78055290691555 546.98667813814245 1630.0553159210831 731.7061406057328 118.46360509935766 542.51666837371886 501.33272818289697 673.69282907247543 320.41674688272178 544.60040595009923 427.40769810043275 161.22902911901474 270.4749693730846 559.6840689573437 404.81755522452295 300.08482497022487 705.16717945970595 12.739225614815949
leaf_count=1734 1516 1193 2853 2416 542 3540 2908 4413 2066 1154 841 5002 1786 1928 1159 942 548 1129 2071 1666 2704 3527 75
internal_value=3.10251e-05 0.00797874 -0.0132706 -0.0178724 0.00457171 -0.0134414 -0.00442332 0.00751852 0.00960559 -0.00178188 0.0178418 -0.0268454 -0.00148102 -0.0212761 0.0144704 0.0122487 -0.00569804 0.000292506 -0.000179522 -0.010937 -0.00274285 -0.00835973 -0.0038553
internal_weight=11330.1 7092.37 4237.7 2787.7 5271.44 1866.16 1450 3545.36 2789.17 1236.01 1820.93 921.538 1726.08 734.197 1278.41 2057.46 1052.39 1117.55 756.189 566.047 847.072 1131.96 572.423
internal_count=47713 18818 28895 19266 15625 11411 9629 10109 7421 7895 3193 7855 5516 5468 2352 5355 3730 6741 2688 2214 5612 5943 2146
is_linear=0
shrinkage=0.03


Tree=5
num_leaves=24
num_cat=0
split_feature=15 15 23 17 17 19 2 22 4 4 4 15 7 18 24 4 17 19 17 3 12 23 18
split_gain=1077.68 208.138 192.494 112.015 83.173 76.7487 75.3053 63.7686 57.7186 50.4716 49.2847 41.8953 51.6318 41.0499 41.3243 39.7443 39.0915 38.5165 36.7883 38.4226 31.8907 31.0633 30.9307
threshold=0.41666666666666669 1.1666666666666667 0.011969696969696965 37.500497809637601 37.230258292086255 437.50000000000006 61.026500000000006 1.0000000180025095e-35 0.27630683359527236 0.26754106261949545 0.23809455961059511 2.5833333333333335 4.5000000000000009 24.500000000000004 0.39449328449328458 0.20085004484106853 35.171497618900865 448.50000000000006 35.305771525855228 0.082060310971813308 70.850000000000023 -0.1593439893439893 107.50000000000001
decision_type=2 2 2 2 2 2 2 2 2 2 2 2 2 2 2 2 2 2 2 2 2 2 2
left_child=2 6 3 10 7 -4 -2 11 15 13 -1 12 -3 -7 -15 -8 -10 -9 19 -17 -19 -14 -5
right_child=1 4 5 22 -6 9 8 17 16 -11 -12 -13 21 14 -16 18 -18 20 -20 -21 -22 -23 -24
leaf_value=-0.0089497536846269519 -0.011155618682997201 0.028592339971765746 -0.031639307985647437 -0.01797419461016864 0.0015133386175029788 -0.023524586857794755 -0.030679640184545658 -0.0041479133457836834 0.016105654196788111 -0.0056333205270696742 0.0023142288844751938 0.028092473875667344 0.0166667853169572 -0.0078045981308012408 -0.029613640574426565 0.010875405639645517 0.0045615024217355504 0.0063560509552682155 -0.0053651205611900815 -0.0060448783132268109 0.015594490030080767 0.0057841127058095498 0.0090013091673641615
leaf_weight=546.14649774413556 371.95893145911396 230.40464947745204 366.67252571694553 642.50356615334749 576.91379763931036 744.9698988283053 41.07118396833539 165.29311254806817 331.48909184150398 313.89156640227884 971.43394929263741 306.58566801995039 682.10147230327129 381.55939931981266 98.34937750082463 357.40051762200892 1296.6496797483414 641.92861216701567 670.42511871829629 182.44239209871739 706.28920325264335 360.98635625839233 40.677445121109486
leaf_count=4094 1445 388 3403 4232 1389 6395 224 576 896 1837 4829 453 1338 2726 1130 1020 3713 1528 2704 816 1491 854 194
internal_value=-0.000148455 0.0070746 -0.0123245 -0.00628059 0.0119708 -0.0193052 0.00154737 0.013921 0.00318828 -0.0163662 -0.00173945 0.0181364 0.0157396 -0.0191166 -0.012274 -0.00165657 0.00691189 0.00952007 -0.000671651 0.00515712 0.0111958 0.0129006 -0.016368
internal_weight=11028.1 6921.94 4106.2 2200.76 3670.5 1905.44 3251.44 3093.59 2879.48 1538.77 1517.58 1580.08 1273.49 1224.88 479.909 1251.34 1628.14 1513.51 1210.27 539.843 1348.22 1043.09 683.181
internal_count=47675 18835 28840 13349 8017 15491 10818 6628 9373 12088 8923 3033 2580 10251 3856 4764 4609 3595 4540 1836 3019 2192 4426
is_linear=0
shrinkage=0.03


Tree=6
num_leaves=24
num_cat=0
split_feature=15 15 16 8 15 19 17 19 2 16 7 22 3 3 24 22 2 0 20 15 18 8 17
split_gain=970.617 193.88 191.61 114.444 112.478 91.8626 57.7137 54.9892 50.9819 49.5927 42.4557 54.0011 39.0882 38.9583 37.9486 34.5151 32.1436 31.5338 30.7367 30.2228 29.954 29.4915 28.3265
threshold=0.41666666666666669 1.8333333333333337 -4.0999999999999988 1.0000000180025095e-35 1.0000000180025095e-35 456.50000000000006 37.43086232879967 466.50000000000006 72.426435500000011 -2.2249999999999996 4.5000000000000009 1.0000000180025095e-35 0.082955892929609074 0.088720342825645684 0.49353195823784063 1.0000000180025095e-35 58.058500000000002 54.661600000000007 11.500000000000002 1.0000000180025095e-35 113.50000000000001 4.5000000000000009 36.348341001347301
decision_type=2 2 2 2 2 2 2 2 2 2 2 2 2 2 2 2 2 2 2 2 2 2 2
left_child=2 5 8 13 9 17 10 -3 12 -5 11 22 -1 -4 -13 -9 -8 -2 -17 -10 -14 -6 -7
right_child=1 7 3 4 21 6 16 15 19 -11 -12 14 20 -15 -16 18 -18 -19 -20 -21 -22 -23 -24
leaf_value=-0.014737095298773232 -0.050661862839038091 0.0067091875844140381 -0.012206474921338068 -0.021360138606779294 -0.0039393194138971285 0.035278910836701226 -0.020359972880492284 0.023057952837731439 -0.0022320277889914097 -0.034529708076943749 0.0057704310030810913 0.010402851560689912 -0.0052087299283196629 0.0029647519317041503 -0.041322040697585639 0.014668000154991189 0.00067069107526987123 -0.0025682286423265735 -0.017483372209315871 0.010992306047369014 0.019319252414541653 -0.018637255515571587 0.01265393730224258
leaf_weight=484.46569533273578 12.388724736869333 457.60756408795714 560.16260975133628 516.01339835673571 273.42254861723632 132.31969241797924 73.011572487652302 730.05727157369256 527.62356011662632 513.37690457422286 2172.7231057789177 657.62805002182722 379.73426913097501 209.23749717511237 13.018230613321064 479.42591646313667 628.05994806438684 1279.9368832092732 28.343009147793055 220.55057668872178 50.805045757442713 223.12984706833959 79.862513437867165
leaf_count=3295 58 1028 3790 4898 1664 219 301 1191 3757 6110 6511 1799 1941 957 72 943 1928 4530 71 770 155 1503 184
internal_value=-0.000103825 0.00681751 -0.0118961 -0.0175145 -0.0222712 0.00386999 0.00624343 0.0155951 -0.00414228 -0.0279281 0.00802457 0.0135722 -0.00889179 -0.00808068 0.0093988 0.0188801 -0.0015195 -0.00302927 0.0128734 0.00166631 -0.00231435 -0.010544 0.0267632
internal_weight=10702.9 6744.38 3958.52 2295.34 1525.94 5048.95 3756.62 1695.43 1663.18 1029.39 3055.55 882.828 915.005 769.4 670.646 1237.83 701.072 1292.33 507.769 748.174 430.539 496.552 212.182
internal_count=47675 18835 28840 18922 14175 15602 11014 3233 9918 11008 8785 2274 5391 4747 1871 2205 2229 4588 1014 4527 2096 3167 403
is_linear=0
shrinkage=0.03


Tree=7
num_leaves=24
num_cat=0
split_feature=15 15 16 4 16 3 4 8 2 8 2 19 4 15 2 4 4 7 18 19 2 16 4
split_gain=874.747 189.088 172.253 114.916 83.2656 60.4788 48.8962 48.2142 45.8816 45.4713 39.8278 36.3697 35.2037 34.7323 33.614 31.5886 30.5901 30.1976 37.7519 35.0856 29.9668 29.0586 28.9551
threshold=0.41666666666666669 1.1666666666666667 -4.0999999999999988 0.250721084590181 -1.0999999999999999 0.11417169424580713 0.23705984429273352 1.0000000180025095e-35 72.22450000000002 1.0000000180025095e-35 64.340000000000018 468.50000000000006 0.20083457859468437 2.5833333333333335 73.441000000000017 0.3055272940210742 0.2730935906660904 4.5000000000000009 56.500000000000007 454.50000000000006 62.419000000000018 -2.2249999999999996 0.19798925403933137
decision_type=2 2 2 2 2 2 2 2 2 2 2 2 2 2 2 2 2 2 2 2 2 2 2
left_child=2 4 6 9 8 17 14 -5 15 22 -6 -7 -10 -13 -1 -2 -9 18 -3 -20 -8 -11 -4
right_child=1 5 3 7 10 11 20 16 12 21 -12 13 -14 -15 -16 -17 -18 -19 19 -21 -22 -23 -24
leaf_value=-0.017114113687567292 -0.0034625073768180521 0.018628257943963073 -0.037840880249153108 -0.0019979482753657201 -0.024323875062825896 0.0087048295620511737 -0.0099403794022309162 -0.020782221184408499 -0.029544779129185385 -0.022207999991825943 -0.0050446792754129076 0.015683820012305862 0.008079397040249181 0.028055828450968857 -0.0034728348266609942 0.007136561079319554 -0.008413766423948402 0.0055429659992534243 -0.02817495772028485 0.0078713333001808709 0.0028461512995000961 -0.034244536599020547 -0.011920945929200486
leaf_weight=334.24824189115316 932.67723894864321 423.65014936961234 44.333026863634586 406.51687531732023 124.61112420260906 425.50459706038237 209.64151690155268 379.41218100301921 22.781927825883031 357.68852465413511 426.56076373159885 726.86369579099119 1274.721660066396 284.01518520712852 316.53137198742479 347.30349680781364 342.35752535518259 1393.4578883759677 27.862634349614382 190.19689025823027 773.96763338707387 364.43466016836464 310.12861932441592
leaf_count=2640 3439 913 551 1853 645 1033 1040 3042 169 3830 1669 1490 3938 452 2284 958 2331 3526 142 461 3954 4972 2343
internal_value=-9.42876e-05 0.00652892 -0.0114805 -0.0169515 0.00118011 0.0113494 -0.00409983 -0.0102614 0.0034433 -0.0239629 -0.0094034 0.0160627 0.00741878 0.0191598 -0.0104792 -0.00058661 -0.0149155 0.00802284 0.0134078 0.00326551 0.000120894 -0.0282825 -0.0151628
internal_weight=10439.5 6600.21 3839.26 2204.87 3128.66 3471.55 1634.39 1128.29 2577.48 1076.58 551.172 1436.38 1297.5 1010.88 650.78 1279.98 721.77 2035.17 641.71 218.06 983.609 722.123 354.462
internal_count=47675 18835 28840 18922 10818 8017 9918 7226 8504 11696 2314 2975 4107 1942 4924 4397 5373 5042 1516 603 4994 8802 2894
is_linear=0
shrinkage=0.03


Tree=8
num_leaves=24
num_cat=0
split_feature=15 15 16 8 16 17 16 7 4 22 19 19 15 7 4 4 8 5 4 16 19 16 4
split_gain=804.499 227.044 135.023 132.638 102.536 81.1872 63.4062 52.8749 50.1986 46.5633 45.3955 44.6531 43.4382 36.9458 35.04 33.1831 34.7841 32.8301 32.2765 30.3729 29.9858 27.0827 27.5441
threshold=1.0000000180025095e-35 1.1666666666666667 -5.3666666666666663 1.0000000180025095e-35 -1.0999999999999999 37.230258292086255 -2.3666666666666663 4.5000000000000009 0.25570715895565327 1.0000000180025095e-35 443.50000000000006 430.50000000000006 2.5833333333333335 4.5000000000000009 0.2370967515925613 0.30478586294250382 2.5000000000000004 0.22010861575620475 0.22884223798228656 0.55000000000000016 440.50000000000006 -3.2249999999999996 0.27502090923810363
decision_type=2 2 2 2 2 2 2 2 2 2 2 2 2 2 2 2 2 2 2 2 2 2 2
left_child=2 4 20 8 7 9 14 18 -4 12 -9 -6 13 -3 -5 16 -13 -11 -2 -15 -1 -12 -23
right_child=1 5 3 6 11 -7 -8 10 -10 17 21 15 -14 19 -16 -17 -18 -19 -20 -21 -22 22 -24
leaf_value=-0.020071121417914724 -0.0079845054114761459 0.025281002687622602 -0.013994878052611726 -0.025954520412439643 -0.031793848240895803 0.00015634092021593504 -0.032761745289009575 -0.0090683640514789103 0.0015854955543153956 -0.022857848526759258 0.0052632312246313831 -0.0044995465707758824 0.027435970568089465 0.013216214757441299 -0.013054044676012419 0.0021256972845316476 -0.023201620637148108 0.0096065249592971347 0.010763748223828123 -0.0061083419653775147 -0.0011484658315492891 -0.0085036563182981691 0.0020296241317038959
leaf_weight=84.337554923258722 92.491800639778376 218.7542564496398 504.19969890639186 336.11224566213787 79.307632423937321 538.26002297922969 459.49348626192659 401.64600416552275 295.00955577194691 28.618211410939693 1070.128455914557 193.21124917268753 270.79566773027182 900.84171283617616 434.40170493721962 198.06363287195563 166.7509105373174 1375.6986712627113 776.12844343483448 79.673716980963945 708.76270386949182 342.36149026453495 643.18527531810105
leaf_count=838 454 388 3778 3646 517 1389 6207 1814 1260 120 3844 971 453 1963 3503 782 1076 3475 2306 229 4520 1858 2284
internal_value=-3.50819e-05 0.00517706 -0.0136566 -0.0177589 0.000292936 0.0108492 -0.0239414 0.00240525 -0.00824374 0.0128516 0.000156333 -0.0107302 0.0165836 0.0141331 -0.0186815 -0.00773662 -0.0131632 0.00894494 0.00876741 0.011646 -0.00316068 0.00195869 -0.00162945
internal_weight=10198.2 7375.92 2822.32 2029.22 3963.27 3412.64 1230.01 3325.94 799.209 2874.38 2457.32 637.333 1470.07 1199.27 770.514 558.026 359.962 1404.32 868.62 980.515 793.1 2055.68 985.547
internal_count=47675 23923 23752 18394 15906 8017 13356 12560 5038 6628 9800 3346 3033 2580 7149 2829 2047 3595 2760 2192 5358 7986 4142
is_linear=0
shrinkage=0.03


Tree=9
num_leaves=24
num_cat=0
split_feature=15 15 17 16 2 4 4 4 19 4 8 4 23 16 16 16 16 17 16 17 3 22 4
split_gain=740.361 165.333 148.116 89.7362 80.9164 65.238 61.3899 47.6036 47.2979 46.3769 45.2056 42.5019 36.3198 33.7393 33.4098 32.4906 32.0254 30.5691 29.849 29.8114 29.6182 31.472 31.3097
threshold=0.41666666666666669 1.8333333333333337 35.977871593548208 -2.3666666666666663 68.172500000000014 0.2370967515925613 0.24725189774792317 0.25516637032152079 448.50000000000006 0.27228604892200836 4.5000000000000009 0.28579377124264044 -0.2743072613660848 -5.7749999999999995 -6.3666666666666663 -2.0999999999999996 -5.3666666666666663 38.240811856403262 1.2250000000000003 34.091089466089471 0.08397418324812457 1.0000000180025095e-35 0.2992029085292589
decision_type=2 2 2 2 2 2 2 2 2 2 2 2 2 2 2 2 2 2 2 2 2 2 2
left_child=2 4 6 5 11 -4 13 19 -3 -5 20 16 -12 -1 -8 -13 -2 -17 -10 -6 -9 -22 -23
right_child=1 8 3 9 7 -7 14 10 18 -11 12 15 -14 -15 -16 17 -18 -19 -20 -21 21 22 -24
leaf_value=-0.0015815396571842095 0.0093261724697866737 -0.00055646832363011518 -0.021121452452238648 -0.029002056936834469 0.0069833231412125248 -0.0073928165553322532 0.01801517995522664 0.015451772976663107 0.017506682565090987 -0.011062286667399735 0.0084369307570055629 0.0067249828640604924 -0.0054957576419152028 -0.013875741724251428 0.00028499914457466379 -0.00093272721097302958 -0.011722215847345611 -0.021977289113559173 -0.0010107021447462844 -0.0061188720703620114 0.013257461624480818 -0.0041505456892851796 0.0088708402507763854
leaf_weight=340.15642077475786 75.311946492642164 165.26044097170234 446.92255398351699 528.0110034365207 255.34075943939388 1028.249601021409 116.64098039828241 674.13160122558475 1322.7370736263692 171.91790633834898 331.56410752981901 519.9356033988297 342.16161564551294 490.72365460172296 531.53421109635383 430.70872607082129 477.81641036830842 72.5919971447438 83.277760989964008 402.90987123735249 504.22170379199088 287.74399113841355 393.41253609769046
leaf_count=2419 257 452 4180 6324 888 6255 540 1656 2565 1270 953 1431 1181 5038 2814 1418 2107 313 216 1845 1304 1113 1136
internal_value=-1.38034e-05 0.00618585 -0.0107688 -0.0157494 0.00340453 -0.0115521 -0.00344431 0.00615123 0.0146254 -0.0245957 0.00801891 -0.00215638 0.00136101 -0.00884258 0.0034756 0.0014654 -0.00885634 -0.00396802 0.0164099 -0.00103642 0.0104312 0.0075759 0.00337016
internal_weight=9993.28 6339.13 3654.16 2175.1 4767.85 1475.17 1479.06 3191.49 1571.28 699.929 2533.24 1576.36 673.726 830.88 648.175 1023.24 553.128 503.301 1406.01 658.251 1859.51 1185.38 681.157
internal_count=47675 18835 28840 18029 15602 10435 10811 10076 3233 7594 7343 5526 2134 7457 3354 3162 2364 1731 2781 2733 5209 3553 2249
is_linear=0
shrinkage=0.03


Tree=10
num_leaves=24
num_cat=0
split_feature=15 15 23 17 23 16 19 25 4 4 23 12 2 18 4 8 16 19 16 4 14 4 3
split_gain=767.541 191.871 121.404 96.7328 67.1685 54.9819 53.0822 49.6284 48.281 43.369 39.7659 35.6328 35.2558 31.9991 28.8533 28.0675 33.2002 27.8454 26.4395 26.2756 25.7373 25.3617 28.1986
threshold=1.0000000180025095e-35 1.5833333333333337 0.045274170274170265 35.770816271198747 -0.15452762923351154 -2.5499999999999994 445.50000000000006 55.750000000000007 0.31157925834176375 0.27682078939209936 0.36746753246753255 53.650000000000013 57.165500000000002 26.500000000000004 0.22992155764160793 4.5000000000000009 -0.54999999999999993 498.50000000000006 -3.4499999999999997 0.2511231587127396 -0.88749999999999918 0.26636879912859229 0.086769662961810393
decision_type=2 2 2 2 2 2 2 2 2 2 2 2 2 2 2 2 2 2 2 2 2 2 2
left_child=2 3 6 10 12 -4 -1 -3 17 -6 21 19 -5 -7 -14 -11 -17 -9 -13 -8 -16 -2 -23
right_child=1 7 5 4 9 13 11 8 -10 15 -12 18 14 -15 20 16 -18 -19 -20 -21 -22 22 -24
leaf_value=-0.019154604959869724 0.0047179196350848659 0.0059728928519090299 -0.015727326657420312 -0.013774000382304266 -0.013576147087988179 -0.034581485496839669 -0.006814312504314691 0.0023660571076511809 0.019243765575405528 0.0020307798037543616 -0.0059276017760367099 -0.0073008002115903794 -0.043610750671469932 -0.017704138128780311 -0.0098964793384327624 -0.0046753674559218243 -0.029244617374805867 0.015856735013535021 -0.023622753109126503 0.0043938349889105265 0.0050216370236066971 0.01797574828617365 0.0070748394518909182
leaf_weight=305.72526085935533 731.52204348519444 766.33627423644066 726.41364367678761 112.65733888931572 498.57485705520958 306.1546186208725 374.53285059379414 316.09740410931408 1000.3812332376838 506.73139303643256 183.61718786042184 314.96445154212415 11.565324453637002 150.95669318037108 112.14222795329988 266.32820372842252 60.799380857497454 243.98059742897749 124.6779313525185 378.47463798988611 1448.1542006097734 412.0915882140398 443.33907628618181
leaf_count=2910 2917 1901 6549 539 2864 4350 2792 846 2009 1778 900 2335 101 1744 475 1018 348 517 1546 1593 5019 1074 1534
internal_value=2.13681e-06 0.00515795 -0.0136748 0.0017233 -0.00154352 -0.0208567 -0.008002 0.012225 0.0152953 -0.00657661 0.00728978 -0.00514313 0.0024376 -0.0290079 0.0035995 -0.0023915 -0.00924177 0.00824285 -0.0119295 -0.0011809 0.00394944 0.00881908 0.0123262
internal_weight=9796.22 7114.32 2681.9 4787.52 3016.95 1183.52 1498.38 2326.8 1560.46 1332.43 1770.57 1192.65 1684.52 457.111 1571.86 833.859 327.128 560.078 439.642 753.007 1560.3 1586.95 855.431
internal_count=47659 23840 23819 18567 12142 12643 11176 5273 3372 6008 6425 8266 6134 6094 5595 3144 1366 1363 3881 4385 5494 5525 2608
is_linear=0
shrinkage=0.03


Tree=11
num_leaves=24
num_cat=0
split_feature=15 15 23 19 17 16 19 8 23 16 4 16 8 4 22 17 1 12 4 4 19 5 16
split_gain=695.816 179.071 113.671 101.068 63.3914 51.0309 42.5495 41.4971 44.5453 41.4622 44.0209 47.7172 44.9177 39.274 34.0332 40.5917 36.3676 31.3375 29.6944 28.5054 27.3864 27.1477 26.1552
threshold=1.0000000180025095e-35 1.8333333333333337 0.033939393939393915 443.50000000000006 36.821206318367409 -2.7749999999999995 444.50000000000006 3.5000000000000004 -0.083780663780663775 -2.0999999999999996 0.30247670650778796 0.55000000000000016 1.5000000000000002 0.24725189774792317 1.0000000180025095e-35 36.419865541750283 78.076500000000024 53.650000000000013 0.24709817448051816 0.30959823566843131 451.50000000000006 4.1332576731570585 -5.7749999999999995
decision_type=2 2 2 2 2 2 2 2 2 2 2 2 2 2 2 2 2 2 2 2 2 2 2
left_child=2 3 6 19 7 -4 -1 13 -9 18 12 -12 -11 -5 15 -3 20 -8 -6 -2 -17 -21 -19
right_child=1 14 5 4 9 -7 17 8 -10 10 11 -13 -14 -15 -16 16 -18 22 -20 21 -22 -23 -24
leaf_value=-0.018431775251675726 -0.010934075303524467 0.022853028514393706 -0.015010838117649904 0.0011712418319617683 -0.016723097792926848 -0.027835380971991924 -0.0015528321833490032 0.0069794736322883145 -0.0068970698888928513 0.004610118528325843 0.002963077413402251 -0.034100072925471014 -0.022665992457870175 0.011060439705209101 0.0088292162066458176 -0.019333406794345736 0.025014916512222901 -0.0014098818828344672 0.0047461663031313737 0.0097971146387951617 0.0077916552133665889 -0.0099886743486435683 -0.01706651247877309
leaf_weight=270.12995078740641 580.02003624662757 545.56299454718828 675.14877210091799 460.8334591044113 61.890723824501038 476.21905627963133 753.40310573391616 491.2947535738349 361.32083318382502 73.984237866476178 385.72933318838477 34.02052841335535 204.61212302744389 1675.6026488021016 661.41285821422935 40.780159436166286 95.254108283668756 145.76892884261906 917.73259894363582 142.40127056371421 187.63161839917302 111.10984858311713 281.4287722799927
leaf_count=2815 2998 990 6243 2064 314 6579 4346 1515 1630 340 1262 162 1213 5183 1570 110 170 996 3043 435 396 445 2840
internal_value=-2.32626e-05 0.00488162 -0.0132769 0.00235608 0.00407465 -0.0203152 -0.00769089 0.00669429 0.00109888 -0.000591852 -0.00617719 -4.08735e-05 -0.0154225 0.00892732 0.0139574 0.0178596 0.00944281 -0.0052333 0.00338978 -0.00726632 0.0029488 0.00112532 -0.0117241
internal_weight=9633.29 7031.19 2602.1 5500.55 4667.02 1151.37 1450.73 2989.05 852.616 1677.97 698.346 419.75 278.596 2136.44 1530.64 869.229 323.666 1180.6 979.623 833.531 228.412 253.511 427.198
internal_count=47659 23840 23819 20604 16726 12822 10997 10392 3145 6334 2977 1424 1553 7247 3236 1666 676 8182 3357 3878 506 880 3836
is_linear=0
shrinkage=0.03


Tree=12
num_leaves=24
num_cat=0
split_feature=15 23 15 19 17 17 1 8 4 25 17 14 0 16 11 14 19 14 4 4 25 8 23
split_gain=658.717 133.686 127.239 62.7401 51.527 49.6227 36.8848 36.3318 35.4552 33.7025 32.3128 30.5914 35.9512 27.7645 27.161 25.9267 25.7808 25.0671 24.2742 23.942 23.3769 23.3186 25.5787
threshold=0.41666666666666669 0.05050505050505049 1.8333333333333337 443.50000000000006 35.977871593548208 37.253094018319324 73.719000000000008 1.0000000180025095e-35 0.24861456130216661 53.500000000000007 37.476745178358087 0.27499999999999863 82.641850000000019 -0.77499999999999991 1.0000000180025095e-35 -1.0500000000000005 474.50000000000006 0.16250000000000145 0.31412943533334647 0.31326957409602368 55.750000000000007 2.5000000000000004 0.05050505050505049
decision_type=2 2 2 2 2 2 2 2 2 2 2 2 2 2 2 2 2 2 2 2 2 2 2
left_child=1 5 3 19 8 9 -5 20 -3 -1 15 12 21 14 -6 -9 -7 -18 -13 -2 -4 -8 -23
right_child=2 4 7 6 13 16 11 10 -10 -11 -12 18 -14 -15 -16 -17 17 -19 -20 -21 -22 22 -24
leaf_value=-0.020315540029847722 -0.0095345771272272572 -0.015513151063507492 -0.0097991643470591878 0.00048649071066855949 -0.024346939073247125 -0.016960689679793604 0.01044034501163893 -0.0093765479711430417 0.001709378072146126 -0.00085659857487942073 -0.0011575152615661884 0.007631384016816161 -0.0064769792281931691 -0.035562041225254172 -0.013094358460950941 0.017928457053398669 -0.012327906442807297 0.0058040435766121157 0.016926725256821581 0.0028484864729445788 0.0093820245853324016 0.0054022432060178861 -0.0085123670193832292
leaf_weight=85.721096211578697 415.27984406985343 318.44410734274425 81.652534753084183 1201.4919502809644 481.68938985513523 403.47296501044184 570.54611971229315 32.214895889163017 162.46429567970335 1222.9517276338302 93.970826834440231 894.57696873042732 250.44481088593602 115.58295718720183 322.18392719421536 1098.688290502876 174.73058071359992 112.99816827662289 352.46901736035943 212.39242172241211 190.83185496553779 514.1075354386121 154.67019738815725
leaf_count=898 2024 3849 253 4286 5526 3321 1696 88 1213 7850 228 2978 947 1635 2507 2214 1287 703 840 709 453 1523 631
internal_value=2.59823e-05 -0.0105433 0.00595308 0.00346438 -0.017652 -0.00556557 0.00486829 0.013542 -0.0096949 -0.0021312 0.0157461 0.00679195 0.00389007 -0.0218138 -0.019837 0.0171506 -0.012068 -0.00520704 0.0102586 -0.00534438 0.0036342 0.00598506 0.00218417
internal_weight=9463.58 3400.24 6063.34 4565.98 1400.36 1999.87 3938.31 1497.36 480.908 1308.67 1224.87 2736.81 1489.77 919.456 803.873 1130.9 691.202 287.729 1247.05 627.672 272.484 1239.32 668.778
internal_count=47659 28789 18870 15634 14730 14059 12901 3236 5062 8748 2530 8615 4797 9668 8033 2302 5311 1990 3818 2733 706 3850 2154
is_linear=0
shrinkage=0.03


Tree=13
num_leaves=24
num_cat=0
split_feature=15 15 8 16 17 19 22 1 25 7 23 15 20 2 23 18 16 16 25 24 15 3 17
split_gain=604.665 156.295 101.961 110.052 78.0814 60.9466 44.9908 53.3713 39.4866 39.032 32.0719 41.9574 31.2469 30.7756 30.1462 29.6681 29.2382 27.9828 23.5909 23.4111 22.2473 22.197 22.1871
threshold=1.0000000180025095e-35 1.4166666666666667 1.0000000180025095e-35 -2.8999999999999995 35.113818723330773 458.50000000000006 1.0000000180025095e-35 75.916000000000011 53.500000000000007 4.5000000000000009 -0.09410067057125876 0.83333333333333337 10.500000000000002 57.165500000000002 -0.4544614699026463 77.500000000000014 -1.4499999999999997 0.77500000000000013 53.500000000000007 0.47610722610722617 2.5833333333333335 0.10592943830239457 37.214234237005265
decision_type=2 2 2 2 2 2 2 2 2 2 2 2 2 2 2 2 2 2 2 2 2 2 2
left_child=2 4 8 14 15 10 7 20 -1 -7 16 -12 19 -11 -4 -2 -6 21 -9 -10 -3 -15 -8
right_child=1 6 3 -5 5 9 22 18 12 13 11 -13 -14 17 -16 -17 -18 -19 -20 -21 -22 -23 -24
leaf_value=-0.027544097671788077 0.010156095117578251 0.0048546107173507201 -0.0013598902391101521 -0.028678202329201763 0.0012222941323691095 0.010579274631203157 0.0078590949029529195 -0.021535645969231774 -0.0041708337662089345 -0.016998129919689971 -0.020675786308467985 -0.0016223349473017377 0.0133133785544841 -0.00037381551543862808 -0.014282422552950553 -0.0025991819294755056 -0.014279017443576493 -0.028822008881737513 0.021116043870805335 -0.027091565489743685 0.020401462906337233 0.0076423602485653757 -0.0078323402662799427
leaf_weight=65.971892037428916 1000.2029660483822 432.66125962138176 205.41228530276567 517.17742681293748 464.14041011035442 384.8502152711153 961.7139971870929 11.871118173003195 803.0288796829991 90.202290572226048 261.95172857446596 172.52284211292863 89.627703388221562 1389.3211995726451 777.22227731021121 196.33143217209727 143.32785610482097 27.967115957289934 692.95230672508478 42.214104550890625 102.45545613020658 400.50911385007203 88.567992720752954
leaf_count=854 3628 1082 1591 7837 1838 1203 2556 29 5141 493 1667 746 457 5603 7348 814 782 187 1386 591 202 1355 269
internal_value=9.114e-05 0.00471713 -0.0125281 -0.0174766 0.0014888 -0.000870108 0.0111046 0.0149744 -0.00511253 0.00186387 -0.00688638 -0.01311 -0.00352958 0.000105947 -0.0115811 0.00806317 -0.00243513 0.000954681 0.0203977 -0.00531557 0.00783127 0.00141996 0.00653587
internal_weight=9322.2 6821.55 2500.65 1499.81 4531.33 3334.79 2290.22 1239.94 1000.84 2292.85 1041.94 434.475 934.871 1908 982.635 1196.53 607.468 1817.8 704.823 845.243 535.117 1789.83 1050.28
internal_count=47659 23840 23819 16776 18316 13874 5524 2699 7043 8841 5033 2413 6189 7638 8939 4442 2620 7145 1415 5732 1284 6958 2825
is_linear=0
shrinkage=0.03


Tree=14
num_leaves=24
num_cat=0
split_feature=15 4 23 17 15 16 16 4 17 1 8 4 15 25 23 16 19 18 19 4 18 16 24
split_gain=557.095 119.05 115.016 68.9133 51.3044 44.6267 44.1448 41.8584 41.5679 36.5453 35.101 26.721 25.2172 24.7067 24.6231 24.1544 23.7267 23.6827 23.176 22.497 31.3651 23.5724 22.3868
threshold=0.41666666666666669 0.31412943533334647 0.05050505050505049 35.726996762306918 2.1666666666666674 -3.6333333333333329 -2.4499999999999997 0.27228604892200836 37.253094018319324 72.399000000000015 1.5000000000000002 0.27176448324469488 1.1666666666666667 53.500000000000007 0.10868686868686868 1.2250000000000003 485.50000000000006 26.500000000000004 474.50000000000006 0.24709817448051816 35.500000000000007 -5.7749999999999995 0.42664502164502166
decision_type=2 2 2 2 2 2 2 2 2 2 2 2 2 2 2 2 2 2 2 2 2 2 2
left_child=2 3 8 22 9 -4 11 17 13 -3 16 -5 -12 -1 -11 -6 -8 -7 -10 21 -21 -15 -2
right_child=1 4 5 6 15 7 10 -9 18 14 12 -13 -14 19 -16 -17 -18 -19 -20 20 -22 -23 -24
leaf_value=-0.018584832957574831 0.0075115580906342932 0.0014331126704411822 -0.010056000281138842 -0.0037664867459642373 0.0202927715911152 -0.028619324661989822 -0.0044231786006465783 -0.0072197705396171048 -0.016017643377014289 0.012573537064647153 -0.014935557344814705 0.0063262871277128358 -0.0025801216076025129 0.0019047242703781918 0.00078035088421291542 -0.016025132432148211 0.013382345360206094 -0.016055982100210617 -0.0047095927932527971 -0.00122987305472137 0.013606017721133661 -0.010585458995344795 -0.0088588982289957742
leaf_weight=76.299072810448706 1525.4665634026751 491.26540544629097 544.12177898036316 373.17375431768596 503.78203296661377 430.98576269298792 179.18531684391201 153.8047542264685 387.46859462279826 1177.6206024456769 401.65623533539474 642.68078496493399 236.03790139779449 233.13080618251115 184.2724395673722 17.038934331387281 107.92261094786227 196.65962648275308 281.71890288777649 467.22363668400794 176.7755820332095 326.37053167587146 79.079210918396711
leaf_count=898 4949 1472 4767 1572 986 6217 714 1202 3321 2984 2125 1945 763 1646 598 56 331 2544 1990 2260 1001 2943 375
internal_value=9.36863e-05 0.00558638 -0.00983506 0.00210482 0.0107856 -0.0166526 -0.00169842 -0.0212458 -0.00519822 0.00844757 -0.0064406 0.00261871 -0.0103623 -0.00203012 0.0109778 0.0191046 0.00226984 -0.0246829 -0.0112571 -0.000980595 0.00284253 -0.0053811 0.00670475
internal_weight=9193.74 5919.18 3274.56 3545.2 2373.98 1325.57 1940.66 781.45 1948.99 1853.16 924.802 1015.85 637.694 1279.8 1361.89 520.821 287.108 627.645 669.187 1203.5 643.999 559.501 1604.55
internal_count=47659 18870 28789 12774 6096 14730 7450 9963 14059 5054 3933 3517 2888 8748 3582 1042 1045 8761 5311 7850 3261 4589 5324
is_linear=0
shrinkage=0.03


Tree=15
num_leaves=24
num_cat=0
split_feature=4 17 17 23 19 4 4 4 17 7 2 23 8 16 16 14 19 19 19 8 24 0 19
split_gain=400.354 207.589 129.474 86.2919 58.8898 52.16 48.7967 39.4089 36.6949 30.2271 29.3585 28.501 28.2805 27.2151 26.4671 26.0464 26.0443 25.3758 24.8779 24.5254 23.9577 23.8677 23.7475
threshold=0.27101588191513432 35.726996762306918 36.419865541750283 0.16264454499748623 453.50000000000006 0.24470758002441503 0.2370967515925613 0.31157925834176375 34.520528703960743 4.5000000000000009 77.035000000000011 -0.40247347423818003 3.5000000000000004 -5.0999999999999988 -6.8999999999999995 -0.22500000000000139 440.50000000000006 461.50000000000006 440.50000000000006 4.5000000000000009 -0.89990196078431361 59.693650000000005 491.50000000000006
decision_type=2 2 2 2 2 2 2 2 2 2 2 2 2 2 2 2 2 2 2 2 2 2 2
left_child=1 5 7 6 -4 8 -3 9 15 16 11 -6 -8 -10 -14 -1 -2 -5 -17 -13 -11 -16 -7
right_child=2 3 4 17 10 22 12 -9 13 20 -12 19 14 -15 21 18 -18 -19 -20 -21 -22 -23 -24
leaf_value=-0.018142566053961185 -0.010777320134756402 -0.017908299721335501 -0.0071106798114960275 -0.026939574455194171 0.0071488346526327653 0.0020772510378628184 -0.001314780835797899 0.014309419941757027 -0.0032062228439370282 0.032521145928369556 0.014539049934639343 0.0026907852585612729 0.019960246664315656 -0.020084016507040097 -0.030290440955669851 -0.016195986211300622 0.014938233459172929 -0.016010009683077472 0.0038061961166547978 -0.007357941624317672 0.0015609933498750513 -0.009904006057301953 0.012105127085979463
leaf_weight=64.750407391693443 38.802399083971977 375.4205207102932 593.85646467469633 346.20976513344795 671.9193178480491 563.25246290932409 643.6633262084797 1351.2186348251998 165.11173686012626 23.309088315814734 202.41945155337453 607.24717658758163 23.628523902967572 179.42121344944462 59.62072235904634 62.072452670428902 409.73167881369591 426.96905785426497 568.58557323622517 341.53878592606634 643.90135173127055 388.35295424051583 341.3463749550283
leaf_count=700 267 3904 2732 4166 2110 2565 3732 3452 1290 56 571 2115 94 2036 477 730 1221 4357 3268 1400 2704 2489 1231
internal_value=0.000185454 -0.00659614 0.00602903 -0.0127713 0.0010942 0.000593076 -0.00855309 0.0108639 -0.00398945 0.00669118 0.00376682 0.00242141 -0.00540394 -0.0119956 -0.010985 -2.28857e-05 0.0127136 -0.020904 0.00183748 -0.000926501 0.00264259 -0.0126172 0.00586123
internal_weight=9092.35 4208.41 4883.94 2263.86 2416.98 1944.54 1490.69 2466.96 1039.94 1115.74 1823.12 1620.71 1115.27 344.533 471.602 695.408 448.534 773.179 630.658 948.786 667.21 447.974 904.599
internal_count=47667 31039 16628 19219 8928 11820 10696 7700 8024 4248 6196 5625 6792 3326 3060 4698 1488 8523 3998 3515 2760 2966 3796
is_linear=0
shrinkage=0.03


Tree=16
num_leaves=24
num_cat=0
split_feature=15 17 17 15 16 7 22 4 2 4 19 17 4 3 2 16 4 17 3 18 4 19 20
split_gain=455.902 155.286 89.5264 78.8378 77.0591 44.4525 42.9635 39.494 38.6041 37.2692 35.6201 31.715 31.3709 30.2345 27.8299 25.6813 25.8248 25.2182 20.9897 20.7306 20.6257 20.6062 20.2705
threshold=1.0000000180025095e-35 37.130358312994105 35.726996762306918 1.8333333333333337 -3.2916666666666665 4.5000000000000009 1.0000000180025095e-35 0.26539684332601698 74.679000000000016 0.23901907160784011 440.50000000000006 33.640718701799081 0.27228604892200836 0.086335273594269596 56.669000000000004 -2.3666666666666663 0.35828902762654607 36.419865541750283 0.11417169424580713 26.500000000000004 0.25689965835940337 491.50000000000006 6.5000000000000009
decision_type=2 2 2 2 2 2 2 2 2 2 2 2 2 2 2 2 2 2 2 2 2 2 2
left_child=2 3 9 5 13 7 17 -2 14 21 -7 -12 -13 22 -3 -16 -17 -5 -10 -6 -19 -1 -4
right_child=1 8 4 6 19 10 -8 -9 18 -11 11 12 -14 -15 15 16 -18 20 -20 -21 -22 -23 -24
leaf_value=-0.013375565217500026 0.0033684341364787923 -0.018159658052977989 -0.015785400453595666 0.021999552718444601 -0.026756315712713783 -0.0084679188924582805 0.0074147351967823027 0.014710548249931994 0.0029817084211037647 0.002542522100503904 0.014698820636459806 -0.0031023705411381249 0.0050008077776167621 -0.0012181279022073479 0.00038839686053959217 -0.010640398809065942 0.0035554957097149722 -0.044114663168540305 0.025345090594808474 -0.014534872292346207 0.010752105207470159 -4.6390002246932757e-05 0.0014938071461372937
leaf_weight=351.02726313774474 490.29360712971538 132.87555770576 476.91231536306441 507.29054598137736 466.54935692669824 237.7577865049243 560.93340954370797 633.0651121949777 127.55568379163742 442.69433639803901 215.03619179874659 612.03827100805938 1445.6154219871387 264.54246442485601 678.61369313113391 569.01304687745869 144.65264251641929 6.4047290459275237 53.663393698632717 170.58557905675843 165.72446969896555 148.561361446511 70.081533905118704
leaf_count=3979 2060 752 4506 1008 6776 1320 1427 1761 503 2768 732 3165 4987 1760 2488 2828 407 18 119 2087 365 1365 486
internal_value=0.000225914 0.00430234 -0.0109935 0.00702908 -0.0156753 0.00479998 0.0135596 0.00976025 -0.00348645 -0.00379559 0.00258039 0.00373621 0.00259056 -0.00954463 -0.00504186 -0.00378993 -0.00776304 0.0186328 0.00960405 -0.0234842 0.00871058 -0.0094119 -0.0135716
internal_weight=8971.49 6580.53 2390.95 4874.16 1448.67 3633.81 1240.35 1123.36 1706.37 942.283 2510.45 2272.69 2057.65 811.536 1525.15 1392.28 713.666 679.42 181.219 637.135 172.129 499.589 546.994
internal_count=47667 23940 23727 16843 15615 14025 2818 3821 7097 8112 10204 8884 8152 6752 6475 5723 3235 1391 622 8863 383 5344 4992
is_linear=0
shrinkage=0.03


Tree=17
num_leaves=24
num_cat=0
split_feature=15 17 8 15 8 23 22 25 23 19 4 4 19 4 17 23 19 0 19 17 20 17 5
split_gain=424.552 145.743 103.626 76.5948 49.4679 42.2379 41.936 38.406 36.0353 35.6882 35.257 29.7295 27.8494 24.4248 23.0117 22.6542 21.81 20.9992 21.4673 19.0926 19.0804 18.7101 19.5643
threshold=1.0000000180025095e-35 37.130358312994105 1.0000000180025095e-35 1.8333333333333337 3.5000000000000004 -0.24105241164064692 1.0000000180025095e-35 53.500000000000007 -0.09410067057125876 437.50000000000006 0.3433084939579687 0.2370967515925613 433.50000000000006 0.22153879772799898 38.154604667379658 -0.099999999999999978 444.50000000000006 71.255800000000008 479.50000000000006 34.551994889800412 10.500000000000002 33.590552584670235 0.46051976523322519
decision_type=2 2 2 2 2 2 2 2 2 2 2 2 2 2 2 2 2 2 2 2 2 2 2
left_child=2 3 7 4 13 -4 12 -1 17 -7 15 -9 -5 -2 20 19 -10 -3 -19 -6 -13 -15 -23
right_child=1 8 5 6 10 9 -8 11 16 -11 -12 14 -14 21 -16 -17 -18 18 -20 -21 -22 22 -24
leaf_value=-0.027123983742612878 -0.0040969024467285365 -0.0025809342979202098 -0.0077912467026680149 -0.012934811673034128 0.026274119950111755 -0.03073399830448497 0.0072239151229740138 -0.0080893249963876444 -0.020372712131304701 -0.016448258121195231 0.0090653026104759171 0.002531474549573926 0.019607188875760528 0.014733000088971042 -0.019499307321321963 -0.00888020033381531 -0.0063907789942410521 -0.0021482849170772799 0.015539514334794021 -0.00055140225328400238 0.020719398066356726 -0.0092141145567987554 0.0072289359345090783
leaf_weight=56.440466084517539 169.03887403942645 897.98881613556296 406.15600998932496 24.581188097596169 25.325514392927289 196.28172122500837 556.12053233571351 373.15788460662588 133.43819562578574 794.18662491883151 254.28212929517031 429.17269769962877 637.42580197751522 298.05639596562833 38.021274991333485 397.80235182959586 405.62304573692381 115.86462166160345 132.23583938367665 417.99624994210899 59.054633915424347 67.341748602688313 1977.5238450756297
leaf_count=850 953 3555 3862 65 72 2890 1427 3297 837 9952 793 2335 1326 949 303 2226 1880 439 386 1606 238 295 7131
internal_value=0.000193546 0.00414033 -0.0107295 0.00679281 0.00459646 -0.0159384 0.0132971 -0.00311855 -0.00345514 -0.0192793 -0.000723475 -0.00161214 0.0183989 0.00691636 0.00298077 -0.00368274 -0.00985184 -0.000446457 0.00727919 0.000981052 0.00473144 0.00771095 0.00668743
internal_weight=8863.12 6510.65 2352.47 4825.49 3607.37 1396.62 1218.13 955.847 1685.15 990.468 1095.41 899.406 662.007 2511.96 526.249 841.124 539.061 1146.09 248.1 443.322 488.227 2342.92 2044.87
internal_count=47667 23940 23727 16843 14025 16704 2818 7023 7097 12842 4697 6173 1391 9328 2876 3904 2717 4380 825 1678 2573 8375 7426
is_linear=0
shrinkage=0.03


Tree=18
num_leaves=24
num_cat=0
split_feature=15 15 8 16 2 16 22 8 1 19 16 4 4 23 4 25 5 19 15 12 24 23 4
split_gain=390.892 123.644 99.541 98.9753 73.567 47.2739 43.9992 41.2788 39.2855 33.5084 30.2532 27.973 23.6007 22.1936 22.1111 20.9366 19.675 20.6845 19.4588 18.7198 18.5835 18.5345 18.4052
threshold=1.0000000180025095e-35 1.4166666666666667 1.0000000180025095e-35 -4.2916666666666652 68.271750000000011 -2.2916666666666665 1.0000000180025095e-35 4.5000000000000009 75.841000000000022 442.50000000000006 -2.2249999999999996 0.25639848171020141 0.25639848171020141 0.36746753246753255 0.37413757843668194 54.750000000000007 0.16986698386595964 496.50000000000006 0.83333333333333337 96.15000000000002 0.16821789321789324 -0.38498584748584747 0.23552301770905745
decision_type=2 2 2 2 2 2 2 2 2 2 2 2 2 2 2 2 2 2 2 2 2 2 2
left_child=2 4 9 -4 5 -2 8 13 14 -1 -5 -11 -9 15 -3 -6 -8 20 -7 -10 -18 -21 -19
right_child=1 6 3 10 7 18 16 12 19 11 -12 -13 -14 -15 -16 -17 17 22 -20 21 -22 -23 -24
leaf_value=-0.015718809902816575 0.0001697832712698057 0.0039927355867101838 -0.0065130910671993255 -0.017341043778574455 -0.0017641833321507946 -0.015926908436049565 -0.026665298421315198 -0.019526303378729262 0.021204357374250807 -0.0044944195976783204 -0.029363202360058051 0.0073641664834957436 -0.00075403791083410144 -0.0040278884145938491 0.01881844320675613 0.0080393120315205083 0.00426228296500858 -0.019421551704429989 -0.0053675206709501502 0.020102510217819967 -0.013699110592998255 -0.0024305870546612626 0.013518523804342909
leaf_weight=154.04599589388818 906.54014486819506 381.78183802589774 605.77526602661237 417.53777258330956 221.28502259217203 307.67767408117652 17.096388390287757 67.534655066207051 524.71509358659387 522.48755195224658 343.2585338500794 272.3417085101828 560.68087427318096 182.2405487364158 118.68036138638854 1719.8318620263599 593.58376109972596 16.046905681490898 320.86214924789965 64.059712007641792 56.804035428911448 67.441298291087151 313.83104137331247
leaf_count=1769 3637 1030 5361 5254 955 2025 93 483 1119 4039 6089 1215 2462 1007 256 6337 1738 47 1473 127 221 187 743
internal_value=0.000193812 0.00399435 -0.0103778 -0.015561 0.00104783 -0.0042139 0.00985807 0.00398331 0.0138395 -0.00291306 -0.0227652 -0.000431173 -0.0027721 0.00598196 0.00750853 0.00692173 0.00524068 0.00579714 -0.0105365 0.0186678 0.00269356 0.00854624 0.0119162
internal_weight=8756.14 6440.69 2315.45 1366.57 4286.65 1535.08 2154.04 2751.57 1156.68 948.875 760.796 794.829 628.216 2123.36 500.462 1941.12 997.362 980.266 628.54 656.216 650.388 131.501 329.878
internal_count=47667 23940 23727 16704 18379 7135 5561 11244 2719 7023 11343 5254 2945 8299 1286 7292 2842 2749 3498 1433 1959 314 790
is_linear=0
shrinkage=0.03


Tree=19
num_leaves=24
num_cat=0
split_feature=15 17 17 15 16 4 4 22 19 0 4 17 4 7 16 0 5 18 17 13 5 18 19
split_gain=366.663 98.5226 97.7369 69.6685 68.8367 41.7823 37.7407 37.1683 33.7631 32.4651 28.5065 28.2807 45.1039 33.8628 27.087 21.9913 21.7311 20.6361 20.1755 21.5635 19.5722 19.0538 18.8194
threshold=0.41666666666666669 35.726996762306918 37.43086232879967 1.8333333333333337 -2.2249999999999996 0.23772584909365901 0.24725189774792317 1.0000000180025095e-35 408.50000000000006 75.017900000000012 0.27228604892200836 33.640718701799081 0.244313009839948 4.5000000000000009 -3.0999999999999996 55.96575 0.60653253067710677 28.500000000000004 36.419865541750283 4.5000000000000009 1.147906922014075 133.50000000000003 491.50000000000006
decision_type=2 2 2 2 2 2 2 2 2 2 2 2 2 2 2 2 2 2 2 2 2 2 2
left_child=1 6 3 8 5 -3 -1 18 -2 14 -6 -10 16 -14 -4 -16 -13 -12 -5 -20 -15 -7 -22
right_child=2 4 9 7 10 21 -8 -9 11 -11 17 12 13 20 15 -17 -18 -19 19 -21 22 -23 -24
leaf_value=-0.0060612096609307907 -0.024144112462528455 -0.016445121801119397 0.0023869453927124998 0.020722446151667996 -0.024993895543653683 -0.0060876162178608436 0.0048110441717328168 0.0069039211040908951 0.012802547987957266 0.018496781721004767 -0.015608571746064309 -0.031612104397465653 0.010442958378024182 -0.013555055006079692 -0.039388097251232414 -0.0075873530560684656 -0.005212618911868281 0.011210702896715816 0.013617984918997508 -0.013151888951290377 0.0011354052847705914 0.012224322637558627 0.0072761046608095861
leaf_weight=647.93743465933949 37.027567388489842 417.62513141473755 295.92548844218254 477.79694614931941 422.69418211933225 869.42050394974649 516.34303768817335 561.29262057691813 344.13504325319082 55.529478782787919 122.92703996133059 32.526365438476205 709.73311333730817 63.611687611788511 20.211955476552248 617.44810470566154 204.50575339980423 32.687260851264 182.11839408800006 31.811721198260784 1242.4062152057886 54.335302182473242 703.51800237223506
leaf_count=6707 213 4693 1012 1008 6468 6406 2851 1473 1060 161 1061 247 2042 271 140 2611 1066 245 417 83 4862 281 2289
internal_value=0.000176657 -0.00812477 0.00476505 0.00660812 -0.0123006 -0.00857056 -0.00123951 0.0126398 0.00434358 -0.00378867 -0.0209526 0.00466318 0.0037157 0.00480973 -0.00511421 -0.00859534 -0.00883525 -0.0099751 0.0172941 0.00963727 0.00282018 -0.00501051 0.00335548
internal_weight=8663.57 3083.97 5579.6 4590.48 1919.69 1341.38 1164.28 1253.02 3337.46 989.115 578.308 3300.44 2956.3 2719.27 933.586 637.66 237.032 155.614 691.727 213.93 2009.54 923.756 1945.92
internal_count=47667 28712 18955 15031 19154 11380 9558 2981 12050 3924 7774 11837 10777 9464 3763 2751 1313 1306 1508 500 7422 6687 7151
is_linear=0
shrinkage=0.03


Tree=20
num_leaves=24
num_cat=0
split_feature=15 17 16 8 4 4 19 7 15 5 23 25 12 19 24 16 19 1 17 19 17 18 18
split_gain=352.624 131.64 76.1033 88.7239 71.6025 47.0292 41.426 36.5222 33.7529 27.6828 26.0921 25.7688 25.4746 25.3209 23.9468 23.1815 22.6175 26.0515 19.7477 18.7888 18.7229 18.3244 17.7536
threshold=1.0000000180025095e-35 36.940783004156465 -4.7749999999999995 1.0000000180025095e-35 0.30285984190838583 0.31843397316490701 459.50000000000006 4.5000000000000009 2.4166666666666674 0.60319040495028409 0.72803807303807322 57.750000000000007 102.05000000000003 436.50000000000006 0.41095959595959602 -2.3666666666666663 479.50000000000006 66.791000000000011 35.385260320854776 431.50000000000006 33.53142306043663 88.500000000000014 85.500000000000014
decision_type=2 2 2 2 2 2 2 2 2 2 2 2 2 2 2 2 2 2 2 2 2 2 2
left_child=2 4 13 14 6 10 9 11 12 -2 16 -8 19 -1 -4 -5 -3 -18 -11 -6 -21 -9 -14
right_child=1 5 3 15 8 -7 7 21 -10 18 -12 -13 22 -15 -16 -17 17 -19 -20 20 -22 -23 -24
leaf_value=-0.019259245409220908 -0.029265701490148181 -0.0087189261366096404 -0.0044122968412572518 -0.016759107599537158 -0.0034467767748197985 0.0038523573908535794 0.012485035889032497 0.0027523024967644073 0.021270188685151646 0.0032646801837888594 -0.0368808173762517 -0.0040430894586956784 0.0013696073658231213 -0.0011242956478226937 -0.028702232443739761 -0.026994295855464496 -0.013817967421009394 0.0029262165992609587 -0.0082266526327323519 0.025071381125297852 0.010483023912233099 -0.012152541042785259 -0.035988518317199812
leaf_weight=76.721130112651736 36.765215897001326 802.65782150998712 587.97356726182625 494.40796639584005 81.682310009375215 617.04499594122171 641.28912029508501 1006.5704161636531 238.31313471868634 274.97893938515335 24.438908487558365 97.850197963416576 183.86217831261456 715.68578148446977 38.948694342281669 333.4923755559139 105.96607009321451 396.6869849152863 263.62717512715608 84.185507936403155 1330.9964131200686 80.147391004487872 12.209011659026144
leaf_count=965 245 4053 3942 6109 319 1993 2018 4279 508 1275 170 401 617 5817 648 6131 525 1578 1458 194 3771 409 57
internal_value=-0.00016244 0.00348729 -0.0103606 -0.0144351 0.00639903 -0.00299261 0.00294028 0.00515226 0.0106995 -0.00407912 -0.00616889 0.010297 0.00921146 -0.00288013 -0.00592135 -0.020882 -0.00559388 -0.000603684 -0.00235989 0.0105434 0.0113508 0.00165304 -0.000956618
internal_weight=8526.5 6279.27 2247.23 1454.82 4332.48 1946.79 2401.23 1825.86 1931.25 575.371 1329.75 739.139 1692.94 792.407 626.922 827.9 1305.31 502.653 538.606 1496.86 1415.18 1086.72 196.071
internal_count=47482 23870 23612 16830 15551 8319 10085 7107 5466 2978 6326 2419 4958 6782 4590 12240 6156 2103 2733 4284 3965 4688 674
is_linear=0
shrinkage=0.03


Tree=21
num_leaves=24
num_cat=0
split_feature=15 17 16 8 4 4 15 17 4 17 19 0 7 22 23 4 4 23 17 2 1 25 1
split_gain=329.311 90.1199 89.507 65.3289 57.8064 37.7552 36.8327 34.5109 32.0405 31.3689 32.1556 29.7006 26.5552 31.1556 23.9554 23.7007 23.0145 22.8718 36.1076 27.7427 22.7303 22.3251 21.5121
threshold=0.41666666666666669 36.940783004156465 -4.7749999999999995 4.5000000000000009 0.28821666706824656 0.25570715895565327 2.4166666666666674 37.62026945675516 0.27380582067044879 34.551994889800412 486.50000000000006 70.268550000000019 4.5000000000000009 1.0000000180025095e-35 0.4633838383838384 0.2370967515925613 0.20410369946648405 -0.7840902724726253 38.64530991553287 70.202500000000015 70.707500000000024 54.750000000000007 76.949125000000024
decision_type=2 2 2 2 2 2 2 2 2 2 2 2 2 2 2 2 2 2 2 2 2 2 2
left_child=2 4 11 7 9 -5 12 15 -3 -2 14 -1 13 -6 16 -4 -11 22 21 -20 -14 -19 -10
right_child=1 8 3 5 6 -7 -8 -9 17 10 -12 -13 20 -15 -16 -17 -18 18 19 -21 -22 -23 -24
leaf_value=-0.0067736796158994368 0.0071641731458573889 -0.0098714175515546999 -0.011947369049224213 -0.027433537003961814 0.025954206005040687 -0.012062906612108864 0.020476315229694432 -0.016570439494248454 0.0026812572636517621 -0.04601217266803178 0.0051186845309291315 0.0035816183714607818 -0.0030791270829720139 0.0094007068357567641 -0.029608351423688829 -0.0025221726863025396 -0.0034316207735422617 -0.009470781836813446 -0.03064817892575103 0.0099896009410328709 0.007903200140361449 0.0024986407795386011 0.02562390521770716
leaf_weight=437.60455501824617 689.48517391365021 345.56105923466384 361.91371353855357 310.21133630722761 149.68065558001399 268.14948711870238 257.95994660258293 347.37287681782618 100.07423830032349 11.713256428018211 393.28881248272955 579.23118762951344 194.45182366669178 323.46620750147849 36.8009516838938 713.49938472826034 462.74275536462665 169.00693405047059 60.19981312379241 20.190092340111732 1327.8056233432144 824.1228355653584 58.158307332545519
leaf_count=3314 2422 1803 4765 4668 313 2352 570 3771 321 120 1453 4466 661 858 248 5317 2065 737 300 56 4020 2748 134
internal_value=-0.000179133 0.00424017 -0.00812267 -0.0118055 0.00671599 -0.0203071 0.00980884 -0.00834954 -0.00179887 0.00234386 -0.0013304 -0.000874879 0.00842978 0.0146374 -0.00629141 -0.00569408 -0.00448284 0.000465843 -0.00110363 -0.0204419 0.00650033 0.000461731 0.0111138
internal_weight=8442.69 5424.71 3017.98 2001.15 3847.4 578.361 2253.36 1422.79 1577.31 1594.03 904.546 1016.84 1995.4 473.147 511.257 1075.41 474.456 1231.75 1073.52 80.3899 1522.26 993.13 158.233
internal_count=47482 18829 28653 20873 12730 7020 6422 13853 6099 6308 3886 7780 5852 1171 2433 10082 2185 4296 3841 356 4681 3485 455
is_linear=0
shrinkage=0.03


Tree=22
num_leaves=24
num_cat=0
split_feature=15 17 8 16 4 23 25 19 7 15 19 24 20 23 16 2 18 25 5 16 23 14 18
split_gain=321.523 112.244 66.6681 78.4727 56.3158 50.2578 31.7919 31.0042 28.8759 25.4271 25.3835 24.0477 22.3472 21.274 21.1972 21.0185 20.9822 20.6883 18.3666 18.0801 17.4601 17.2441 18.6945
threshold=1.0000000180025095e-35 36.756896501151921 1.0000000180025095e-35 -4.7749999999999995 0.30285984190838583 0.017593387005151697 54.750000000000007 454.50000000000006 4.5000000000000009 2.4166666666666674 438.50000000000006 0.30127594627594634 3.5000000000000004 0.66988566988567 -2.3666666666666663 57.165500000000002 78.500000000000014 57.750000000000007 0.54134418973043419 1.7750000000000001 0.8386752136752138 -1.0500000000000005 22.500000000000004
decision_type=2 2 2 2 2 2 2 2 2 2 2 2 2 2 2 2 2 2 2 2 2 2 2
left_child=2 4 10 -4 7 6 11 18 13 -6 -1 -3 -10 17 -5 16 -8 -9 -2 -11 -7 -12 -23
right_child=1 5 3 14 9 20 15 8 12 19 21 -13 -14 -15 -16 -17 -18 -19 -20 -21 -22 22 -24
leaf_value=-0.016467167296440304 -0.029513460899626202 -0.010037759237880773 -0.0050408156779938179 -0.016182134299148117 0.0090644510515411822 -0.0089849483969961369 -0.02125139595786257 0.011826608697369739 0.0042442310870884859 0.021735494013108064 -0.019133135274709483 0.021193243828935851 -0.0058959727891452415 -0.040574810127994645 -0.026171250328530578 0.0035901485502326759 0.023288299204614765 -0.0032192285936669843 -0.0025617234644876919 -0.023890974798886053 -0.046487487678209621 -0.005280868946601667 0.0042348780535980419
leaf_weight=122.75590439140797 24.142126186750829 303.06410839129239 499.99999125255272 473.96824257913977 1520.3778380490839 557.26704799057916 55.693631071597338 651.21046027634293 782.12122464459389 209.34403743967414 48.531665033660829 23.942321810871363 260.8333110967651 7.5837985258549443 320.45844934275374 1242.0111951353028 11.481599505990742 94.139943532645702 396.37839616462588 8.1196397840976697 11.40151680447161 384.02013804065064 359.99979175534099
leaf_count=1509 202 1502 4445 6109 4467 2998 307 2032 3380 449 580 74 1237 62 6131 4488 36 397 2131 27 81 2152 2686
internal_value=-0.00015261 0.00336952 -0.00996972 -0.0143515 0.00639366 -0.00205405 0.000616159 0.00322348 0.00494044 0.0104369 -0.00377295 -0.00775113 0.00170826 0.00941761 -0.0202116 0.00270613 -0.0136387 0.00992628 -0.00410903 0.0200319 -0.00973686 -0.00180678 -0.000676601
internal_weight=8368.85 6159.11 2209.73 1294.43 3954.25 2204.86 1636.19 2216.41 1795.89 1737.84 915.307 327.006 1042.95 752.934 794.427 1309.19 67.1752 745.35 420.521 217.464 568.669 792.552 744.02
internal_count=47482 23870 23612 16685 14384 9486 6407 9441 7108 4943 6927 1576 4617 2491 12240 4831 343 2429 2333 476 3079 5418 4838
is_linear=0
shrinkage=0.03


Tree=23
num_leaves=24
num_cat=0
split_feature=15 17 16 8 4 19 15 25 16 16 24 15 24 19 23 0 4 17 8 16 20 17 19
split_gain=294.947 107.947 64.8617 72.1146 56.6339 46.9164 32.9302 32.6479 31.8281 31.1264 25.0357 24.9356 23.7198 21.9244 19.5864 21.0178 19.5771 18.8637 18.7447 18.0387 17.2329 16.6131 16.7541
threshold=1.0000000180025095e-35 36.419865541750283 -5.7749999999999995 1.0000000180025095e-35 0.28669072408016077 445.50000000000006 1.1666666666666667 56.250000000000007 -2.7749999999999995 -1.0999999999999999 0.55012820512820526 2.4166666666666674 0.38674603174603178 439.50000000000006 0.36010101010101014 65.173275000000004 0.24709817448051816 35.171497618900865 1.5000000000000002 1.7750000000000001 -2.4999999999999996 37.832946393647326 417.50000000000006
decision_type=2 2 2 2 2 2 2 2 2 2 2 2 2 2 2 2 2 2 2 2 2 2 2
left_child=2 4 13 12 7 21 9 17 -5 16 -9 14 -4 -1 15 -6 -7 -2 -11 -8 -20 22 -3
right_child=1 5 3 8 11 6 19 10 -10 18 -12 -13 -14 -15 -16 -17 -18 -19 20 -21 -22 -23 -24
leaf_value=-0.019847522915601365 0.0025398401969345666 -0.019535881955954532 -0.0037557678742328963 -0.013477306302122363 -0.010217114305979757 -0.014575628901055966 0.0056622185409232612 0.0075183549710777248 -0.024694604473435293 0.0017174467662275949 -0.028921870057679936 0.020189421511362143 -0.02614146276551969 0.0012431704718733146 -0.0019254550239450141 0.010818789169583289 0.00085776950792762713 -0.0069702152029977064 -0.0017202343738931868 -0.035930145631439377 -0.02399936567663756 -0.016800803427429192 -0.0023894368526627152
leaf_weight=48.738780494779348 408.03900876827538 62.594973132014275 643.11987670930102 564.74038436356932 44.089100398123264 79.665894687175751 866.73498812876642 820.38215984310955 381.40322917234153 59.622286709025502 17.326772608794272 209.43967544287443 45.622214579489082 493.71745989378542 131.2203006837517 1404.4657015018165 1035.0061836531386 347.65419629774988 42.740420397371054 9.4874326102435571 116.19469943735749 176.19317890051752 283.92816183902323
leaf_count=660 1818 388 4445 6625 168 484 2454 3153 7231 295 158 480 773 3878 552 4123 4356 1885 258 46 816 1034 1402
internal_value=-0.000159104 0.00321713 -0.00964083 -0.0126234 0.00679944 -0.00121801 0.000694131 0.00268603 -0.0179992 -0.00227501 0.00676464 0.0104627 -0.00523859 -0.000651793 0.00917314 0.0101785 -0.000245259 -0.00183523 -0.012627 0.00521187 -0.0180081 -0.00930039 -0.00548672
internal_weight=8292.13 6114.79 2177.34 1634.89 3382.62 2732.17 2209.45 1593.4 946.144 1333.23 837.709 1789.21 688.742 542.456 1579.78 1448.55 1114.67 755.693 218.557 876.222 158.935 522.716 346.523
internal_count=47482 23870 23612 19074 12337 11533 8709 7014 13856 6209 3311 5323 5218 4538 4843 4291 4840 3703 1369 2500 1074 2824 1790
is_linear=0
shrinkage=0.03


Tree=24
num_leaves=24
num_cat=0
split_feature=15 17 16 8 4 4 8 16 16 17 22 7 23 2 14 4 17 20 24 23 20 14 17
split_gain=281.67 105.421 61.476 66.5613 51.1474 45.6957 33.0597 45.0117 27.2573 26.0077 24.0239 26.6398 24.3876 22.3668 21.7715 21.4178 20.582 20.1962 19.6333 19.5267 22.1099 21.3158 18.7544
threshold=1.0000000180025095e-35 36.419865541750283 -5.3666666666666663 1.0000000180025095e-35 0.28669072408016077 0.31326957409602368 1.5000000000000002 -1.4499999999999997 -2.7749999999999995 34.551994889800412 1.0000000180025095e-35 4.5000000000000009 -0.60529137529137522 72.22450000000002 -1.0500000000000005 0.24656272465004864 37.811557717471707 2.5000000000000004 0.41095959595959602 -0.25120213120213114 -7.4999999999999991 0.38749999999999934 33.333434008405462
decision_type=2 2 2 2 2 2 2 2 2 2 2 2 2 2 2 2 2 2 2 2 2 2 2
left_child=2 4 13 18 9 6 -3 -8 -5 -2 11 -6 -13 17 -12 -11 19 -1 -4 20 -7 -21 -16
right_child=1 5 3 8 10 16 7 -9 -10 15 14 12 -14 -15 22 -17 -18 -19 -20 21 -22 -23 -24
leaf_value=-0.012227211418795434 0.0067403217275521492 0.0030477229984533769 -0.0042545118401823619 -0.013557249554076495 0.025379632067237642 -0.019729000566341415 -0.0035325742181411216 -0.016833142755865942 -0.024326801618924136 -0.0099978067969859943 -0.011607507925809937 0.021000768221651128 0.0079716153051999396 0.004277241023819215 0.019414752251197438 0.0016783977086983794 -0.0047973073429274727 0.003535253074818437 -0.026438479983533925 -0.0046272646586996286 0.011001655734384108 0.011499909626255472 0.0064678618647730536
leaf_weight=220.70107086189091 771.04202277492732 412.52981293946505 620.88503357069567 490.50970542710274 151.05113676190376 22.060535298660398 947.51437399256974 301.97758169844747 371.85532909771428 182.71149082761258 53.38280063867569 175.86022714152932 488.28928906098008 303.84535380452871 115.26000177487731 625.15471916552633 206.32315259240568 109.4337674016133 38.108939826954156 240.14979868475348 469.75404578167945 106.4599396456033 796.9412245657295
leaf_count=1970 3003 1818 4287 6036 331 86 4303 2036 7231 1209 226 411 1560 2639 291 2802 776 746 703 857 1347 310 2504
internal_value=-0.000129256 0.00318051 -0.009445 -0.0127157 0.00673023 -0.00122546 -0.0043159 -0.00674706 -0.0182011 0.00279916 0.0102157 0.0140079 0.0114216 -0.00159636 0.007014 -0.000962357 0.00369093 -0.00700224 -0.00553739 0.00577975 0.00962322 0.000326139 0.00810375
internal_weight=8221.8 6066.46 2155.34 1521.36 3359.69 2706.77 1662.02 1249.49 862.365 1578.91 1780.78 815.201 664.15 633.98 965.584 807.866 1044.75 330.135 658.994 838.424 491.815 346.61 912.201
internal_count=47482 23870 23612 18257 12337 11533 8157 6339 13267 7014 5323 2302 1971 5355 3021 4011 3376 2716 4990 2600 1433 1167 2795
is_linear=0
shrinkage=0.03


Tree=25
num_leaves=24
num_cat=0
split_feature=15 17 15 17 16 16 19 25 19 4 4 2 17 4 12 8 16 19 14 4 18 12 17
split_gain=305.345 99.3482 83.4184 47.6328 42.0725 32.4787 28.6464 26.4225 24.7912 24.403 19.8336 19.7739 19.0569 33.2052 18.8393 26.0609 17.7027 23.2221 16.8649 19.5995 16.9467 16.4702 16.8243
threshold=0.41666666666666669 36.204128671734111 1.8333333333333337 37.43086232879967 -1.0999999999999999 -5.0999999999999988 461.50000000000006 55.750000000000007 485.50000000000006 0.24446412924146305 0.24725189774792317 56.669000000000004 34.091089466089471 0.26811948755350884 98.050000000000026 1.0000000180025095e-35 -3.2916666666666665 464.50000000000006 0.83749999999999869 0.21905509711911506 9.5000000000000018 111.85000000000002 36.419865541750283
decision_type=2 2 2 2 2 2 2 2 2 2 2 2 2 2 2 2 2 2 2 2 2 2 2
left_child=1 5 3 8 6 10 -3 14 12 -7 -1 -5 16 -14 15 -4 -2 -18 19 -10 -21 22 -9
right_child=2 4 7 11 -6 9 -8 21 18 -11 -12 -13 13 -15 -16 -17 17 -19 -20 20 -22 -23 -24
leaf_value=4.2101992167494541e-05 0.015589942521761586 -0.016369478726683269 -0.0090872921963693482 -0.019969247082509252 -0.025733801924903002 -0.011333296758077573 -0.0075228076928589745 0.017930094037575065 -0.024766388005562367 -0.0010399596913501061 0.012817732475132189 -0.0029117589397785657 -0.0078470734842575589 0.0025842003927366883 -0.013983597793211719 0.01101758050622156 0.010985632286724927 -0.012629482177727365 0.01258748682793643 -0.019446606324906995 0.006098245246081462 -0.00041195195929681654 0.0082371797198268377
leaf_weight=335.71642023557797 152.28656545653939 552.4962390018627 73.0009123403579 66.492079440504313 202.88777179690078 362.80247151851654 815.89278526604176 564.02582396008074 19.643332490697503 483.58244291972369 162.20680094044656 763.49693989939988 358.73171808756888 1171.7176298256963 43.674972228705883 282.89087678305805 90.184584168717265 64.124356957152486 343.95651333592832 23.942570637911558 983.1915963338688 66.255517493933439 225.63840030692518
leaf_count=3028 496 6186 274 412 3289 4836 7437 1337 142 3171 944 3248 2022 4301 133 734 328 260 1063 92 3313 178 574
internal_value=-6.66441e-05 -0.00786269 0.00422751 0.00212748 -0.012985 -0.00187561 -0.0110947 0.0109814 0.00378492 -0.00545219 0.00420398 -0.00427827 0.00150675 0.000139148 0.00461164 0.00689365 0.00833351 0.00117218 0.00683808 0.00491211 0.00549097 0.013955 0.0151604
internal_weight=8208.84 2915.58 5293.25 4037.77 1571.28 1344.31 1368.39 1255.49 3207.78 846.385 497.923 829.989 1837.04 1530.45 399.567 355.892 306.596 154.309 1370.73 1026.78 1007.13 855.92 789.664
internal_count=47798 28891 18907 15677 16912 11979 13623 3230 12017 8007 3972 3660 7407 6323 1141 1008 1084 588 4610 3547 3405 2089 1911
is_linear=0
shrinkage=0.03


Tree=26
num_leaves=24
num_cat=0
split_feature=15 17 15 16 17 23 25 19 15 24 16 8 23 14 18 0 19 12 23 0 2 20 23
split_gain=295.954 92.1967 79.323 43.4057 42.4661 35.5596 35.5546 30.619 28.9287 27.7699 23.3921 21.845 21.4844 20.3799 17.8939 21.3174 17.3741 16.8323 16.2761 16.2591 15.6586 15.6031 15.5473
threshold=0.41666666666666669 35.747224045167236 1.1666666666666667 -1.0999999999999999 36.331248702354785 -0.15452762923351154 55.750000000000007 442.50000000000006 2.1666666666666674 0.39449328449328458 -5.0999999999999988 2.5000000000000004 0.69048696401637588 -0.88749999999999918 21.500000000000004 55.121300000000012 458.50000000000006 112.25000000000001 0.69048696401637588 75.118126000000018 64.340000000000018 -13.499999999999998 0.13818181818181821
decision_type=2 2 2 2 2 2 2 2 2 2 2 2 2 2 2 2 2 2 2 2 2 2 2
left_child=1 9 4 7 13 20 -4 -3 18 10 -1 -7 14 -2 15 -9 -12 -10 -8 -13 -6 -22 -21
right_child=2 3 6 -5 5 11 8 12 17 -11 16 19 -14 -15 -16 -17 -18 -19 -20 22 21 -23 -24
leaf_value=0.0060251523928932854 -0.0094362481095159132 -0.018654409533058018 0.0029485212922002002 -0.024840357340052282 -0.0053374110171333835 -0.0020250598494983402 0.0083316097893067226 -0.041193025282977878 0.018201288117755825 -0.01742115279789086 -0.010690911138034623 -0.016957550658324622 -0.025397471255817133 0.0053246678559971698 -0.0028186311784926693 -0.0094725622436002965 -4.6698850883886142e-05 -0.004552578749028203 -0.02033778533615381 0.019807160129313429 -0.054893413459722547 0.0043172116102578387 -0.024255587261092466
leaf_weight=392.45560133364052 90.77788944169879 316.60090458160266 930.14851851854473 211.2257965169847 256.60477834567428 206.67474598623812 1330.6813012436032 19.63128282641992 429.7251217532903 86.874665290582925 196.82044334174134 278.50443888362497 61.978739256039262 1158.5679534422234 478.29397332435474 664.09994397638366 461.89900047564879 31.397989492863417 18.063945339992642 22.029117040336132 4.039079947397112 481.51686644554138 10.711253140121697
leaf_count=2894 482 3896 2998 3533 1183 924 3887 243 991 1556 2042 1596 873 4655 4148 6459 3247 84 67 74 25 1882 59
internal_value=-5.81806e-05 -0.0077682 0.00418628 -0.0120871 0.000332792 -0.00355316 0.00771547 -0.0103386 0.0101654 -0.00112 0.000227217 -0.00958596 -0.00818759 0.00425213 -0.00726967 -0.0103833 -0.00322711 0.016652 0.00794764 -0.0146066 0.000656847 0.00382467 0.00539171
internal_weight=8139.32 2889.88 5249.44 1751.83 2509.43 1260.08 2740.02 1540.6 1809.87 1138.05 1051.18 517.92 1224 1249.35 1162.03 683.731 658.719 461.123 1348.75 311.245 742.161 485.556 32.7404
internal_count=47798 28891 18907 19152 10880 5743 8027 15619 5029 9739 8183 2653 11723 5137 10850 6702 5289 1075 3954 1729 3090 1907 133
is_linear=0
shrinkage=0.03


Tree=27
num_leaves=24
num_cat=0
split_feature=15 17 17 15 19 23 19 18 0 19 19 17 0 0 3 16 8 2 4 16 16 4 23
split_gain=276.055 91.5591 76.7355 55.8091 39.1059 33.9987 28.4724 24.9593 22.6917 21.256 20.9918 23.2156 22.9078 20.8381 20.0947 20.2381 19.4989 18.9835 18.9733 18.6865 18.1453 18.1267 17.2485
threshold=0.41666666666666669 36.241853888354882 37.43086232879967 1.8333333333333337 438.50000000000006 0.37495432671903267 454.50000000000006 22.500000000000004 75.822431250000008 498.50000000000006 485.50000000000006 34.058379647172757 59.693650000000005 56.299700000000001 0.087749445782390245 -4.708333333333333 1.0000000180025095e-35 56.669000000000004 0.26811948755350884 -1.4499999999999997 -6.7749999999999995 0.27595311078464152 -0.21300310800310793
decision_type=2 2 2 2 2 2 2 2 2 2 2 2 2 2 2 2 2 2 2 2 2 2 2
left_child=1 6 3 5 22 10 -1 13 17 16 11 -2 -12 -6 15 -8 -5 -4 -13 -15 -7 -19 -3
right_child=2 4 8 9 7 20 14 -9 -10 -11 12 18 -14 19 -16 -17 -18 21 -20 -21 -22 -23 -24
leaf_value=-0.0094591161495365325 0.010634061523918704 -0.010781244563109634 -0.020464363441139707 -0.0013246339695801872 -0.032795730282935941 0.029032860484073598 0.0034366351788592841 -0.0044270996359468675 0.018301943629820988 0.017184375081976004 -0.036158371574725921 -0.0056082665846349453 0.0079527483917227314 -0.010062034349290245 0.0078886997084375715 -0.0064286802623462671 0.010845744404332676 -0.01143042210206897 0.0027811686782749649 -0.022771709076440657 -0.0076879296023085143 -0.001027636139275042 -0.027029254814138804
leaf_weight=333.50872941757552 258.98980572074652 81.621550507377833 65.158691371791065 146.68488080613315 46.983017725870013 12.660375371575354 350.92607903108001 428.04788722191006 39.702869931235909 380.74819970503449 10.687115367501972 315.88707878068089 1238.844810009934 620.01653111027554 257.2729478282854 401.00912415422499 616.17533651553094 200.99851035326719 1045.9626962626353 125.12279104953632 279.13524594716728 603.04403218626976 210.32867348799482
leaf_count=3883 861 908 419 504 617 42 2776 3976 117 868 50 1760 4066 6068 1578 3918 1579 1107 3781 2084 1457 2296 3083
internal_value=-6.18916e-05 -0.00756115 0.00404367 0.00571568 -0.0126238 0.0036617 -0.00185974 -0.0102639 -0.0038772 0.0113951 0.00465352 0.00240094 0.00757547 -0.013418 0.000651595 -0.00182456 0.00850559 -0.00489028 0.000835202 -0.0121962 -0.00609469 -0.00362818 -0.0224867
internal_weight=8069.52 2854.84 5214.68 4305.78 1512.12 3162.17 1342.72 1220.17 908.904 1143.61 2870.37 1620.84 1249.53 792.122 1009.21 751.935 762.86 869.201 1361.85 745.139 291.796 804.043 291.95
internal_count=47798 28891 18907 14968 16736 12017 12155 12745 3939 2951 10518 6402 4116 8769 8272 6694 2083 3822 5541 8152 1499 3403 3991
is_linear=0
shrinkage=0.03


Tree=28
num_leaves=24
num_cat=0
split_feature=15 17 15 17 16 23 24 19 19 19 23 7 22 19 1 23 12 20 12 17 14 3 8
split_gain=264.71 88.0125 74.5908 43.2399 37.428 31.1027 26.6439 26.1038 24.4973 21.2016 21.0466 20.3628 22.3722 20.1144 19.2469 19.1875 18.3663 16.8925 14.8553 17.8 17.339 19.0539 16.6274
threshold=0.41666666666666669 35.747224045167236 1.8333333333333337 37.43086232879967 -1.0999999999999999 0.37495432671903267 0.39449328449328458 462.50000000000006 450.50000000000006 438.50000000000006 -0.09410067057125876 4.5000000000000009 1.0000000180025095e-35 495.50000000000006 73.801000000000016 -0.20748806748806745 98.450000000000017 10.500000000000002 82.750000000000014 37.464580254815665 1.3541666666666681 0.11654978911197426 4.5000000000000009
decision_type=2 2 2 2 2 2 2 2 2 2 2 2 2 2 2 2 2 2 2 2 2 2 2
left_child=1 6 3 5 7 11 9 10 -4 -1 -3 12 14 -13 -2 -5 18 -11 20 22 -10 -22 -20
right_child=2 4 8 15 -6 -7 -8 -9 16 17 -12 13 -14 -15 -16 -17 -18 -19 19 -21 21 -23 -24
leaf_value=-0.011613699013971548 0.00010533457728927056 -0.0087309566102849335 -0.00094166458699320029 -0.00075553172851962694 -0.023864264200908002 -0.0059393647998732813 -0.017185514088192595 -0.0068421864252753983 0.012273018974279383 0.00088178740804230934 -0.019908455211369136 0.00072891785326702598 0.0057218043584834916 0.0071673681360279688 0.022386916768732043 -0.010388981011325238 0.0036347017299429144 0.017634155033048847 0.025914375255488627 0.00078565493495165299 0.0086493191482474845 -0.028964200313687044 0.01260582084328059
leaf_weight=117.20530607318506 45.37097129970789 275.77576744323596 149.39827391318977 515.3812149213627 201.5925444890745 282.5733246980235 83.765394053887576 897.16659817192703 433.9879432618618 862.7260305932723 336.74150111665949 1341.6694277841598 667.5165927130729 647.4412145446986 151.05130754038692 291.22562511917204 192.72526385262609 57.802715265192091 207.20753395371139 46.789753295481205 30.543518539518118 20.096019584685564 142.66057166457176
leaf_count=1457 135 2718 507 2132 3533 1499 1556 8441 1136 6384 4460 5436 2410 2160 377 1528 504 342 437 134 90 83 339
internal_value=-7.22574e-05 -0.00744214 0.0039693 0.00196106 -0.011723 0.00355459 -0.000910117 -0.0101017 0.0104405 0.000403625 -0.014876 0.0044949 0.00834058 0.00282459 0.0172402 -0.00423369 0.0120238 0.00193372 0.0138584 0.0181637 0.0103347 -0.0062774 0.0204877
internal_weight=7998.41 2832.78 5165.64 3942.23 1711.28 3135.62 1121.5 1509.68 1223.41 1037.73 612.517 2853.05 863.939 1989.11 196.422 806.607 1074.01 920.529 881.285 396.658 484.627 50.6395 349.868
internal_count=47798 28891 18907 15677 19152 12017 9739 15619 3230 8183 7178 10518 2922 7596 512 3660 2723 6726 2219 910 1309 173 776
is_linear=0
shrinkage=0.03


Tree=29
num_leaves=24
num_cat=0
split_feature=15 17 15 17 16 19 11 24 16 15 25 3 18 12 16 23 19 1 5 17 3 3 3
split_gain=246.941 85.0832 69.6052 45.7223 36.4928 33.2423 32.438 24.3512 22.1471 23.5551 21.5341 19.8531 19.4615 19.2889 19.2671 18.5552 18.3194 18.6552 18.038 17.4395 17.3216 16.7516 20.6793
threshold=0.41666666666666669 35.747224045167236 1.8333333333333337 35.171497618900865 -4.7749999999999995 441.50000000000006 1.0000000180025095e-35 0.39449328449328458 0.55000000000000016 1.1666666666666667 55.750000000000007 0.080293666345757783 29.500000000000004 98.050000000000026 -5.0999999999999988 -0.59090272472625405 433.50000000000006 73.371500000000012 3.6178653868775403 36.473001135179302 0.076236500297527057 0.078706128239732526 0.077357012834002106
decision_type=2 2 2 2 2 2 2 2 2 2 2 2 2 2 2 2 2 2 2 2 2 2 2
left_child=1 7 3 21 -3 -5 -6 14 9 11 13 -7 18 16 -1 -12 17 -4 -13 -17 -16 22 -2
right_child=2 4 10 5 6 8 -8 -9 -10 -11 15 12 -14 -15 20 19 -18 -19 -20 -21 -22 -23 -24
leaf_value=0.0057198064381836049 0.0078867344197859277 -0.004738132012361786 0.0056539638322208301 -0.0084300604201670883 -0.019722978933002681 -0.0064200368783854378 -0.0097477686742077994 -0.016618008751526338 -0.013672238738656348 0.005732005390022595 0.01905548678504377 0.0043999117190402998 0.0083058287621076594 -0.014546966380989214 -0.010200982758326892 0.012760554019022485 0.0090003131452137571 -0.038835092098817164 -0.0049010899905741609 0.00033561345596591581 0.00051173724630987881 0.0038564354452059555 0.022943194836563877
leaf_weight=390.60943509358913 382.96791432052851 509.2246228735894 19.118108369410038 381.20812659617513 544.30456076096743 388.44103166088462 636.47041924484074 80.999290384352207 87.682402028702199 825.62378150969744 286.87686454132199 326.57146078906953 279.08687110990286 43.316031470894814 194.64104577805847 400.09637315571308 309.7819558698684 15.248542254790662 441.17327680252492 136.30569209158421 449.66308800177649 693.15843385178596 104.49986858665943
leaf_count=2894 1282 4036 61 2028 8715 1822 6401 1556 466 2579 672 1287 1156 133 2219 1033 871 76 2023 384 3070 2764 270
internal_value=-5.27046e-05 -0.00720604 0.00386665 0.00192051 -0.011451 -0.000212853 -0.0143461 -0.000777173 0.00112092 0.00169463 0.0101522 -0.000627827 0.00152145 0.00432022 0.000462637 0.0128969 0.00669493 -0.0140859 -0.000944773 0.00960324 -0.00272452 0.00685318 0.0111144
internal_weight=7927.07 2805.91 5121.16 3910.41 1690 2729.79 1180.77 1115.91 2348.58 2260.9 1210.74 1435.27 1046.83 387.465 1034.91 823.279 344.149 34.3667 767.745 536.402 644.304 1180.63 487.468
internal_count=47798 28891 18907 15677 19152 11361 15116 9739 9333 8867 3230 6288 4466 1141 8183 2089 1008 137 3310 1417 5289 4316 1552
is_linear=0
shrinkage=0.03


Tree=30
num_leaves=24
num_cat=0
split_feature=15 15 2 19 8 16 8 16 15 16 4 19 4 17 18 3 17 14 16 1 3 1 4
split_gain=269.781 105.024 63.1927 49.6487 35.3555 42.9527 31.5028 31.0543 28.3837 25.8128 22.109 21.0151 20.0385 19.867 19.4553 17.8439 17.8148 17.7444 17.1609 16.768 21.3067 19.4028 16.3045
threshold=1.0000000180025095e-35 1.5833333333333337 68.566250000000011 455.50000000000006 1.0000000180025095e-35 -3.6333333333333329 4.5000000000000009 0.77500000000000013 2.1666666666666674 -2.3666666666666663 0.30863763747184447 466.50000000000006 0.25858680893209157 38.364341756086311 99.500000000000014 0.14212580797941607 37.287193289269943 -2.6333333333333324 -1.7083333333333333 84.29500000000003 0.078894940155610147 77.983500000000035 0.23705984429273352
decision_type=2 2 2 2 2 2 2 2 2 2 2 2 2 2 2 2 2 2 2 2 2 2 2
left_child=3 2 9 22 17 -6 12 8 14 -2 18 -10 19 -11 16 -16 -3 -5 -8 20 -4 -22 -1
right_child=1 7 6 4 5 -7 10 -9 11 13 -12 -13 -14 -15 15 -17 -18 -19 -20 -21 21 -23 -24
leaf_value=-0.022119872666575866 -0.001461622911777547 0.010355005930837081 0.0083235502245108429 -0.041686463465996922 -0.0053191681832595074 -0.019767359766183157 -0.0040642418706215381 -0.0025561116591494371 0.0042697129458506688 -0.0073148467431532818 0.0034958062435373051 0.01880406255380775 0.006967625736350778 -0.022462206857714544 -0.012895547011462911 0.016893329945912347 -0.00062392311788344137 -0.00071521310602795857 -0.019645370195792371 -0.0068773468777907944 -0.017622322310579322 0.0034578119959581496 -0.012348176655483588
leaf_weight=281.82386453123763 818.39165373705328 864.86895249970257 303.91782841738313 9.6610268438234908 481.56477686110884 300.89353902917355 213.12757012434304 191.93220074847341 112.88582184165716 490.46207521297038 237.97088419273496 432.78964829072356 1308.1460936213844 92.650569346733391 72.240963604301214 24.147027999162674 157.19165332056582 623.59359737625346 90.689689147286117 193.19014327134937 66.289831917732954 96.506983808241785 337.97456438001245
leaf_count=4738 3798 2464 1328 151 4746 5694 1190 658 339 2905 937 985 4986 705 261 58 518 4219 709 1169 440 496 4139
internal_value=-0.000320586 0.00299336 0.000204617 -0.00971029 -0.00661019 -0.0108752 0.0030541 0.00887019 0.010188 -0.00489829 -0.00335174 0.0157973 0.00481758 -0.00972161 0.00745138 -0.00543287 0.00866646 -0.00134028 -0.00871522 0.000555477 0.00363219 -0.00512589 -0.0167914
internal_weight=7802.91 5767.4 3911.34 2035.51 1415.71 782.458 2509.84 1856.06 1664.12 1401.5 541.788 545.675 1968.05 583.113 1118.45 96.388 1022.06 633.255 303.817 659.905 466.715 162.797 619.798
internal_count=47633 23946 18663 23687 14810 10440 11255 5283 4625 7408 2836 1324 8419 3610 3301 319 2982 4370 1899 3433 2264 936 8877
is_linear=0
shrinkage=0.03


Tree=31
num_leaves=24
num_cat=0
split_feature=15 15 17 19 8 16 4 16 22 17 19 14 23 23 25 17 19 19 5 19 23 14 24
split_gain=252.739 103.029 58.18 46.9752 34.2522 40.0014 28.7025 28.0449 25.431 28.3772 21.8017 20.8906 20.5118 20.3932 17.7495 17.5965 17.7345 15.6963 15.0882 14.8225 17.1909 16.2163 16.0432
threshold=1.0000000180025095e-35 1.5833333333333337 36.314574350938763 455.50000000000006 1.0000000180025095e-35 -4.7749999999999995 0.27228604892200836 -2.3666666666666663 1.0000000180025095e-35 36.331248702354785 455.50000000000006 0.72500000000000153 0.41821746880570415 -0.88348484848484832 54.750000000000007 33.333434008405462 447.50000000000006 416.50000000000006 0.87720308951244497 488.50000000000006 -0.14883838383838383 0.16250000000000145 -0.3155455002513825
decision_type=2 2 2 2 2 2 2 2 2 2 2 2 2 2 2 2 2 2 2 2 2 2 2
left_child=3 2 12 -1 -5 -6 -4 -8 9 -3 13 -9 14 -11 17 16 -10 -2 -19 21 22 -17 -21
right_child=1 8 6 4 5 -7 7 11 15 10 -12 -13 -14 -15 -16 19 -18 18 -20 20 -22 -23 -24
leaf_value=-0.016476116798860369 -0.045775500910368798 0.016957718926644029 -0.0090629985813597165 -0.0012914528223687308 -0.0033867609278202134 -0.017062099203288161 0.0029362699734212057 -0.0079713705024538305 -0.037938964378974718 0.029072765584620595 0.010152267440434874 0.0061127717210942584 -0.0064508407463185662 -0.010579291837479795 0.0059321316355328349 0.0044968814096900183 0.017463632090978079 -0.04092675248245789 -5.5151249660698027e-05 0.0060382672253045189 -0.0055521044290446232 -0.0076633700640960454 0.021898561593352059
leaf_weight=604.5427918068599 7.5415192302316418 508.15726990625262 584.72645060531795 631.61093173641711 359.65667329542339 414.20889016054571 726.62281938828528 556.24234038125724 5.4274713657796374 13.414426445960997 369.90255374833941 114.25226515438408 159.20182641874999 89.939207993447781 1531.7284894688055 231.23106812313199 124.05707400105894 8.4738252200186235 199.76145858876407 166.23073065280914 67.16784356534481 172.20031146332622 87.673537045717239
leaf_count=8877 57 1300 3841 4370 3248 7192 2834 2949 29 30 1002 529 1107 323 6261 775 304 56 1029 454 212 658 196
internal_value=-0.000331531 0.00288219 0.000117 -0.00948327 -0.00647541 -0.0107064 -0.00348233 -0.00114669 0.00874062 0.0120347 0.00674867 -0.00557143 0.00385816 -0.00543279 0.00479734 0.00495499 0.0151414 -0.00325818 -0.00171836 0.00313447 0.00794447 -0.00069359 0.0115149
internal_weight=7733.97 5723.95 3888.55 2010.02 1405.48 773.866 1981.84 1397.12 1835.4 981.413 473.256 670.495 1906.71 103.354 1747.51 853.988 129.485 215.777 208.235 724.503 321.072 403.431 253.904
internal_count=47633 23946 18663 23687 14810 10440 10153 6312 5283 2655 1355 3478 8510 353 7403 2628 333 1142 1085 2295 862 1433 650
is_linear=0
shrinkage=0.03


Tree=32
num_leaves=24
num_cat=0
split_feature=15 15 17 19 8 16 16 8 4 23 19 18 15 5 19 19 23 25 2 24 4 19 14
split_gain=239.103 98.3286 56.5653 44.5039 31.6596 38.4602 25.763 24.282 24.1679 24.3792 22.8025 25.5684 21.1572 20.603 19.6965 19.3485 18.9301 18.9092 16.5266 17.4767 16.37 15.6273 17.8798
threshold=1.0000000180025095e-35 1.5833333333333337 36.737904670791671 455.50000000000006 1.0000000180025095e-35 -3.6333333333333329 1.3666666666666669 4.5000000000000009 0.27502090923810363 -0.70177489177489172 525.50000000000011 225.50000000000003 2.1666666666666674 0.40600890649382132 397.50000000000006 466.50000000000006 0.033939393939393915 54.750000000000007 73.125500000000017 0.076277056277056277 0.25858680893209157 482.50000000000006 0.16250000000000145
decision_type=2 2 2 2 2 2 2 2 2 2 2 2 2 2 2 2 2 2 2 2 2 2 2
left_child=3 2 7 -1 -5 -6 12 10 -4 17 14 -12 -3 -14 -2 -15 -9 -10 -8 -20 -16 22 -11
right_child=1 6 8 4 5 -7 18 16 9 21 11 -13 13 15 20 -17 -18 -19 19 -21 -22 -23 -24
leaf_value=-0.016176756686578333 -0.054538092431703239 0.0069899848900963121 -0.0096146419670696745 -0.0013874281212164475 -0.0051844502965961037 -0.019019452953873271 -0.02819957070357659 0.0017031497328641682 -0.0099924758158261625 -0.010626892516622379 0.019280955328005792 -0.054067283822474971 -0.021114906774020708 0.0042226005917122937 -5.0913215147546763e-05 0.017784139996719794 -0.011182165120852178 0.015080758530800688 0.0055064181469089354 -0.053151386058352165 0.006021466623585249 0.0015246121918229643 0.00059703859735860164
leaf_weight=592.29663727316074 5.217231646180152 1150.0145553005859 517.05269821267575 630.97497069556266 474.1466982732527 292.33921968028881 24.613688781857491 262.4923374466598 35.085368730127811 361.32507613953203 124.18842836748809 4.4298338107764712 14.652549292892216 120.08847440220416 623.61445662379265 447.54909947142005 168.47306431643665 118.50067046284676 57.375396274030209 4.9671666063368312 1112.037263283506 336.41822310350835 197.58917083498091
leaf_count=8877 55 3482 3414 4370 4746 5694 117 1192 181 1891 439 24 53 367 3321 1045 1134 425 188 31 4302 1368 917
internal_value=-0.000334514 0.00279784 9.16264e-05 -0.00928515 -0.00636422 -0.0104611 0.00854929 0.00308545 -0.00430638 -0.00168974 0.0045653 0.0167547 0.00934914 0.0140084 0.00366473 0.0149151 -0.00333398 0.009353 -0.00738503 0.000832836 0.00383968 -0.00358402 -0.00665897
internal_weight=7675.44 5685.68 3866.42 1989.76 1397.46 766.486 1819.26 2300.45 1565.97 1048.92 1869.49 128.618 1732.3 582.29 1740.87 567.638 430.965 153.586 86.9563 62.3426 1735.65 895.332 558.914
internal_count=47633 23946 18663 23687 14810 10440 5283 10467 8196 4782 8141 463 4947 1465 7678 1412 2326 606 336 219 7623 4176 2808
is_linear=0
shrinkage=0.03


Tree=33
num_leaves=24
num_cat=0
split_feature=15 15 8 19 4 8 16 16 19 22 1 16 3 25 4 19 16 23 4 16 5 15 1
split_gain=229.691 90.26 48.4034 42.5896 34.4496 32.6376 40.2249 28.0518 23.224 24.539 22.3961 19.891 19.8182 19.5959 19.08 18.5207 19.8735 17.6088 16.2859 20.4164 20.3904 21.4303 16.1377
threshold=1.0000000180025095e-35 1.5833333333333337 2.5000000000000004 445.50000000000006 0.2992029085292589 1.0000000180025095e-35 -4.7749999999999995 -2.3666666666666663 455.50000000000006 1.0000000180025095e-35 69.309000000000012 -2.8999999999999995 0.060164686240560074 51.250000000000007 0.26205311218943939 441.50000000000006 -4.708333333333333 0.71432234432234443 0.37413757843668194 0.90000000000000013 2.6065707250100267 2.5833333333333335 77.51100000000001
decision_type=2 2 2 2 2 2 2 2 2 2 2 2 2 2 2 2 2 2 2 2 2 2 2
left_child=3 2 10 -1 7 -5 -7 15 14 17 -2 -6 -9 -12 -3 16 -4 18 20 -20 -10 -22 -16
right_child=1 8 4 5 11 6 -8 12 9 -11 13 -13 -14 -15 22 -17 -18 -19 19 -21 21 -23 -24
leaf_value=-0.017711351150698482 -0.0054232871825947489 -0.025083756567741002 0.0073355493246315701 -0.0020015241392156349 0.0073573643107985092 -0.0036410439380687217 -0.016612945720809819 0.032159160580694165 0.019807866289717466 0.0058192394084966414 -0.048079815762580233 -0.0022499601408583832 -0.015801608735038997 0.004693768551983466 -0.0031175412879909776 -0.0015803260062449438 -0.026702886487940686 -0.041449391145341206 0.023460716541913198 -0.019934619612322239 0.0044990501189453259 0.022808661511033029 0.011692475094710258
leaf_weight=409.18825550377369 230.59715571813285 23.787173556163907 21.315938144922256 696.17281453311443 285.88158844411373 394.15565998759121 473.71522340551019 7.9515734966844311 177.68842164985836 711.90889406949282 6.354940077289938 603.14931072480977 312.2873741723597 1792.2668850757182 162.27134691551328 521.61292025633156 55.978168134577572 5.2142033800482741 190.40341779962182 10.284463554620741 337.03276561014354 69.375048514455557 111.86659437604249
leaf_count=6566 1261 155 108 5055 1045 3629 8437 23 449 2094 42 2797 2485 7848 591 2641 413 22 449 38 973 170 342
internal_value=-0.000285435 0.00279807 0.000198301 -0.00909453 -0.00337101 -0.00684019 -0.0107216 -0.0074435 0.00834098 0.00985875 0.00337881 0.000839423 -0.0146107 0.00450731 0.000689563 -0.00361113 -0.0173159 0.013499 0.0138641 0.0212369 0.0113309 0.00762456 0.00292593
internal_weight=7610.46 5637.23 3837.4 1973.23 1808.18 1564.04 867.871 919.146 1799.83 1501.91 2029.22 889.031 320.239 1798.62 297.925 598.907 77.2941 789.998 784.784 200.688 584.096 406.408 274.138
internal_count=47633 23946 18663 23687 9512 17121 12066 5670 5283 4195 9151 3842 2508 7890 1088 3162 521 2101 2079 487 1592 1143 933
is_linear=0
shrinkage=0.03


Tree=34
num_leaves=24
num_cat=0
split_feature=15 17 15 17 4 4 18 19 22 16 17 4 3 5 19 16 19 19 5 6 16 3 4
split_gain=216.759 88.5367 51.2112 42.1218 26.4899 23.5782 23.4806 23.0956 22.428 21.7192 22.1867 21.449 18.5958 20.4177 18.2629 17.4605 17.3503 16.5906 17.1782 17.1758 15.8876 15.8457 15.1978
threshold=1.0000000180025095e-35 37.049730019689079 1.5833333333333337 37.464580254815665 0.27802458866888119 0.23705984429273352 22.500000000000004 472.50000000000006 1.0000000180025095e-35 -6.3666666666666663 33.53142306043663 0.27228604892200836 0.11587159063118933 3.6494915667943348 461.50000000000006 -4.633333333333332 463.50000000000006 493.50000000000006 0.60319040495028409 4.5000000000000009 -0.89999999999999991 0.087095355864649657 0.27101588191513432
decision_type=2 2 2 2 2 2 2 2 2 2 2 2 2 2 2 2 2 2 2 2 2 2 2
left_child=3 2 9 5 20 7 -7 -1 12 -2 -11 -12 13 -4 -6 21 -16 18 -13 -20 -3 -5 -17
right_child=1 4 8 15 14 6 -8 -9 -10 10 11 17 -14 -15 16 22 -18 -19 19 -21 -22 -23 -24
leaf_value=-0.01677428097262669 0.010779211536042018 -0.0070718386751482685 0.01411901287981308 -0.013444456565633195 -0.0062889718697553172 -0.0071653821600136981 0.0032332879120443793 -0.0047345052611687342 0.0058677941745416216 0.010481146986721373 -0.0033712702035226406 -0.037262378550508277 0.01755947973624335 -0.0012082918565406522 0.022475398827089758 -0.020936145156927974 0.00096808294576810683 0.0079775372774911323 0.0033892305683233242 -0.0063859789507099834 -0.023057748154479835 0.006548110400501685 -0.002108859534300601
leaf_weight=280.66550552751869 257.91559777967632 415.58132839668542 193.38696608692408 121.91169612668455 355.07821222860366 449.48735966091044 345.76963214576244 293.18846252304502 746.33096572384238 228.50886447448283 764.02339261397719 10.596755679696797 404.35292753577232 131.34588434174657 35.540182620286942 368.72109714103863 673.18127493280917 407.45306366309524 707.52086251601577 209.72739344835281 64.659172038547695 50.442111626267433 43.097841112874448
leaf_count=4849 1051 2505 530 1049 1808 4107 3328 3710 2306 870 4523 56 1040 415 118 5838 2596 1475 3002 1036 615 309 497
internal_value=-0.000260043 0.00273898 0.00506381 -0.00886613 -0.00337583 -0.00598844 -0.00264415 -0.010623 0.0095236 0.00251907 0.00160388 0.000637596 0.0132659 0.00791952 -0.000735667 -0.0156105 0.00204661 0.00293137 0.000715396 0.00115414 -0.00922417 -0.00759331 -0.0189658
internal_weight=7558.49 5605.2 4061.16 1953.28 1544.04 1369.11 795.257 573.854 1475.42 2585.75 2327.83 2099.32 729.086 324.733 1063.8 584.173 708.721 1335.3 927.845 917.248 480.241 172.354 411.819
internal_count=47633 23946 16304 23687 7642 15994 7435 8559 4291 12013 10962 10092 1985 945 4522 7693 2714 5569 4094 4038 3120 1358 6335
is_linear=0
shrinkage=0.03


Tree=35
num_leaves=24
num_cat=0
split_feature=15 17 17 4 4 16 4 17 3 13 16 20 0 19 19 5 24 15 16 19 2 24 17
split_gain=172.765 67.7082 43.6812 32.7471 31.1917 29.5828 26.9243 26.6725 24.0107 20.9086 20.6051 19.2505 18.766 16.3555 16.2701 16.0951 15.8479 14.5358 19.3003 16.2145 14.2549 13.8717 20.7655
threshold=1.0000000180025095e-35 36.855895578756098 36.366583213285615 0.29849794094110443 0.30863763747184447 -2.7083333333333326 0.23825009164182911 35.461797522309944 0.086185941739317873 1.5000000000000002 -1.7749999999999997 10.500000000000002 84.937100000000015 425.50000000000006 440.50000000000006 0.22010861575620475 -1.0000000180025095e-35 2.4166666666666674 -3.2249999999999996 466.50000000000006 54.791187500000007 -0.59326712503183077 33.474668871139635
decision_type=2 2 2 2 2 2 2 2 2 2 2 2 2 2 2 2 2 2 2 2 2 2 2
left_child=2 3 6 7 9 8 -1 15 -4 13 20 -8 -9 -3 -5 -2 -6 18 -16 -19 -11 -20 -23
right_child=1 4 5 14 16 -7 11 12 -10 10 -12 -13 -14 -15 17 -17 -18 19 21 -21 -22 22 -24
leaf_value=-0.0078990905099375567 -0.011615348040988939 -0.022000723797222777 -0.012259140325302034 -0.0010475174655770248 -0.0010409089378779549 -0.01907227862869252 -2.2107712901111167e-05 -0.00076224678728360957 3.2058842160142856e-06 -0.028838151497539308 -0.017002573189490479 0.019155585709410883 -0.022943159765322119 0.0015357742734169422 0.014112277814305194 0.0060511946441125361 0.0078046122003537976 -0.0025579640384133895 0.011959261571116502 0.020763392627215924 -0.0038649045683289184 0.020504016420620812 0.0027795643885548337
leaf_weight=489.24680271581747 48.296872003003955 28.359446400776505 416.72817517211661 154.46380307991058 389.72081023827195 332.52052053553052 455.43740390753374 699.75458443164825 219.36519440775737 21.578576857224107 179.69852644857019 52.54223882034421 36.099503617733717 421.5505093652755 362.3800725787878 1189.4596977289766 342.49133596150205 32.205539230257273 274.87522426433861 160.78050481155515 440.60809951368719 64.566257771104574 756.58749809488654
leaf_count=6541 299 237 4836 671 1493 6315 3807 3717 1882 158 1468 284 192 2122 1090 4986 1216 107 811 409 2161 158 2687
