tree
version=v4
num_class=1
num_tree_per_iteration=1
label_index=0
max_feature_idx=25
objective=lambdarank
feature_names=Column_0 Column_1 Column_2 Column_3 Column_4 Column_5 Column_6 Column_7 Column_8 Column_9 Column_10 Column_11 Column_12 Column_13 Column_14 Column_15 Column_16 Column_17 Column_18 Column_19 Column_20 Column_21 Column_22 Column_23 Column_24 Column_25
feature_infos=[0:107.88500213623047] [0:109.51799774169922] [0:108.21199798583984] [0.02764444425702095:0.40610000491142273] [0.082933336496353149:0.63848888874053955] [0:5] [0:5] [0:5] [0:5] none none [0:1] [0:275.89999389648438] [0:5] [-7.5999999046325684:5.1999998092651367] [0:3] [-17:15] [0:44.259258270263672] [0:762] [0:602] [-32:34] [0:1] [0:1] [-1:1] [-1:1] [49:63]
tree_sizes=2699 2687 2700 2704 2706 2688 2689 2695 2711 2699 2720 2701 2703 2727 2701 2686 2699 2697 2714 2685

Tree=0
num_leaves=24
num_cat=0
split_feature=15 16 17 19 23 17 3 25 1 2 17 12 23 18 8 5 18 19 19 7 17 5 17
split_gain=207.215 29.4214 25.6924 15.9257 15.8257 11.1349 10.0348 11.9253 9.93202 9.54839 9.18357 10.8232 8.29842 8.15949 7.16274 7.15841 7.76962 6.86623 6.65461 6.18281 5.66359 5.57154 5.42476
threshold=1.0000000180025095e-35 -5.9000000953674308 33.412010192871101 435.00000000000006 -0.11287061125040053 35.942264556884773 0.086633481085300459 54.500000000000007 86.476001739501967 74.283000946044936 33.091014862060554 95.549999237060561 0.41817417740821844 55.500000000000007 1.5000000000000002 2.651166677474976 48.500000000000007 441.00000000000006 505.00000000000006 2.5000000000000004 34.813636779785163 0.60092684626579296 35.819564819335945
decision_type=2 2 2 2 2 2 2 2 2 2 2 2 2 2 2 2 2 2 2 2 2 2 2
left_child=1 4 17 13 9 6 8 -8 21 -1 -9 12 18 -2 -7 20 -17 -3 19 -12 -4 -5 -6
right_child=3 2 15 5 22 14 7 10 -10 -11 11 -13 -14 -15 -16 16 -18 -19 -20 -21 -22 -23 -24
leaf_value=-0.015429640888333235 0.0035483442744240661 -0.031126323463869298 -0.029905758213606359 0.0058416413419299261 -0.015927954270935855 -0.018550989159473563 -0.032081275624165413 0.030113462779475249 0.0099844979521122763 0.012428699734705792 0.026131645531662955 -0.016010740254769396 -0.041067051154955236 -0.038406032303794517 0.02063994847783877 -0.037700125050755491 -0.010599881618169309 -0.0067687368601451955 0.02928564471701121 0.0050080530330200435 -0.047870730132852798 0.028282906902920325 -0.048372569481166666
leaf_weight=15.517374049406497 11.058646921534093 13.143972591729833 24.210497168358415 10.778753179125486 37.853881595889106 12.605999076506125 5.3127385985571882 24.984042505733669 42.183715376304463 38.660068809986115 16.600353966932744 12.769230820471419 2.4429331184364846 6.6996088563464573 6.2920051687397054 21.151112022809684 17.316344744293019 50.181789122172631 22.009664093609899 50.13051139889285 45.429042326519266 130.58086603845004 5.2857137471437445
leaf_count=306 164 283 539 152 701 233 107 230 561 513 159 204 51 150 72 495 338 867 229 698 1164 1322 128
internal_value=0.000346311 -0.0195202 -0.0269989 0.0154095 -0.00634577 0.0168699 0.0182003 0.011967 0.0227595 0.00444958 0.013782 0.00985688 0.0134794 -0.0122797 -0.00550254 -0.0358876 -0.0255008 -0.0118244 0.014981 0.0102629 -0.0416251 0.0265717 -0.0199033
internal_weight=623.199 268.75 171.433 354.449 97.317 336.691 317.793 134.249 183.543 54.1774 128.937 103.953 91.1835 17.7583 18.898 108.107 38.4675 63.3258 88.7405 66.7309 69.6395 141.36 43.1396
internal_count=9666 5334 3686 4332 1648 4018 3713 1678 2035 819 1571 1341 1137 314 305 2536 833 1150 1086 857 1703 1474 829
is_linear=0
shrinkage=0.03


Tree=1
num_leaves=24
num_cat=0
split_feature=15 17 24 23 4 19 16 17 19 3 15 16 1 7 16 1 14 3 5 4 2 5 5
split_gain=383.176 62.4217 62.131 48.0925 46.5321 40.0699 42.9737 35.156 41.9278 27.4516 34.8863 37.347 28.7857 26.9734 40.0842 36.4909 25.8961 23.1921 22.1866 21.6195 20.9982 20.0221 19.8977
threshold=1.0000000180025095e-35 35.860494613647468 0.51681816577911388 0.37796717882156378 0.25650773942470556 443.00000000000006 -7.3666667938232413 35.197130203247077 487.00000000000006 0.093338061124086394 0.41666667163372045 -4.0999999046325675 86.330001831054702 3.5000000000000004 -6.2249999046325675 100.70499801635744 2.2749999761581425 0.078545112162828459 3.0031924247741704 0.2734790593385697 74.041000366210952 1.2399536371231081 3.6494915485382085
decision_type=2 2 2 2 2 2 2 2 2 2 2 2 2 2 2 2 2 2 2 2 2 2 2
left_child=1 3 4 5 7 -1 -7 13 18 10 11 -6 19 -2 -15 -16 -12 -10 21 -11 -21 -9 -14
right_child=2 -3 -4 -5 9 6 -8 8 17 12 16 -13 22 14 15 -17 -18 -19 -20 20 -22 -23 -24
leaf_value=-0.031301068485765561 0.014583780247658221 -0.03863244778398376 -0.022141577328433221 -0.034228019502409224 0.015149057845809709 0.0074968957635227857 -0.013169823590775294 -0.04002014346604707 0.025654580870405463 -0.031807602643816713 0.022809377602151421 -0.033436197310704296 0.02572395355946306 0.019918225787894928 -0.007998845462013366 0.025710945264465261 -0.039585702159849148 -0.01897160934721823 -0.054449994148638686 -0.031330012285810442 0.0064327253500434051 0.00041918511366702813 0.0045684798795947923
leaf_weight=72.550968668423593 239.20535351522267 111.29453302919865 57.734476236626506 91.56250563217327 40.07456186786294 126.90669581107795 316.10823318595067 18.454109669663012 30.278257692232728 18.066528640687466 424.1766223711893 22.087480790913105 94.740381034091115 82.302385373041034 241.06178680434823 32.838117454200983 6.0722354203462592 16.029824178665876 18.97746628895402 14.633448662236331 140.43356631230563 27.349645372480154 69.267539447173476
leaf_count=706 578 1123 192 910 96 565 2030 101 70 93 862 93 222 183 718 66 21 66 77 98 489 91 216
internal_value=0.000211428 -0.0179785 0.00841084 -0.0141924 0.00955919 -0.0106342 -0.00724961 0.0039012 -0.0115918 0.0143779 0.0188936 -0.0021143 0.00778248 0.00679185 0.00155923 -0.00395735 0.0219288 0.010207 -0.0271745 -0.000749413 0.00286911 -0.0158736 0.0167891
internal_weight=2312.21 718.423 1593.78 607.128 1536.05 515.566 443.015 706.497 111.089 829.552 492.411 62.162 337.141 595.408 356.202 273.9 430.249 46.3081 64.7812 173.134 155.067 45.8038 164.008
internal_count=9666 5334 4332 4211 4140 3301 2595 1950 405 2190 1072 189 1118 1545 967 784 883 136 269 680 587 192 438
is_linear=0
shrinkage=0.03


Tree=2
num_leaves=24
num_cat=0
split_feature=15 17 23 4 16 25 17 7 21 0 15 19 22 4 23 19 8 5 19 5 2 5 4
split_gain=364.884 51.836 38.2737 29.7524 25.4495 24.6959 23.6922 25.2432 29.4922 23.5381 21.9616 21.2332 20.5723 20.5626 19.1822 18.2723 22.9131 16.5655 16.2236 15.5056 14.7995 14.7569 17.1172
threshold=1.0000000180025095e-35 35.860494613647468 0.37796717882156378 0.20301495492458346 -7.3666667938232413 56.750000000000007 33.495937347412116 3.5000000000000004 1.0000000180025095e-35 86.329948425292983 0.58333334326744091 471.00000000000006 1.0000000180025095e-35 0.31370477378368383 -0.9550504982471465 521.00000000000011 1.5000000000000002 2.8657408952713017 519.00000000000011 1.0553479194641116 81.337997436523452 3.7065939903259282 0.2297940328717232
decision_type=2 2 2 2 2 2 2 2 2 2 2 2 2 2 2 2 2 2 2 2 2 2 2
left_child=1 2 4 11 19 6 10 14 13 -10 -5 -2 -6 21 -8 18 -17 -18 -7 -1 -15 22 -9
right_child=3 -3 -4 5 12 15 7 8 9 -11 -12 -13 -14 20 -16 16 17 -19 -20 -21 -22 -23 -24
leaf_value=-0.013512736895277584 -0.037567182848628256 -0.038282498808214556 -0.03400827748833276 -0.039883352483329616 -0.0080669037711448999 0.011280913841869706 -0.038484110227466083 0.0090856573920882859 -0.047181722261293441 0.02843592461877243 0.020832020141211931 0.00022918050281007084 -0.022622657171821835 0.023052292819582657 0.01103826635187974 0.030712573381078218 -0.047505976585046857 0.010850462943321804 -0.03688264099931033 0.007195568317316125 -0.010524418067372265 0.0012905824570666263 -0.025939310455465426
leaf_weight=52.034664122387767 19.499500272795558 96.940918381325901 78.389873635023832 5.6743379943072787 165.87298642052338 758.94057022593915 7.3012390807270995 16.551043283194304 22.463735621422533 4.4365067332983008 97.344383534044027 42.604251120239496 184.69359889626503 42.449164213612676 196.33297282829881 94.424092907458544 5.1627182513475409 28.800402197986841 6.3470038361847392 86.86726070009172 16.370711429044604 83.480733128264546 52.052733512595296
leaf_count=297 118 1123 910 33 885 1978 24 53 128 13 243 142 1750 115 547 170 19 74 29 369 75 316 255
internal_value=0.0004936 -0.0180076 -0.0145464 0.00869204 -0.0114296 0.00956998 0.00453333 0.00151014 -0.00512841 -0.0347105 0.0174878 -0.0116382 -0.0157355 -0.0013553 0.00926266 0.0126385 0.0231117 0.00197973 0.0108815 -0.000562061 0.0137072 -0.00718085 -0.0174893
internal_weight=2165.04 664.799 567.858 1500.24 489.469 1438.13 544.458 441.439 237.805 26.9002 103.019 62.1038 350.567 210.904 203.634 893.675 128.387 33.9631 765.288 138.902 58.8199 152.085 68.6038
internal_count=9666 5334 4211 4332 3301 4072 1802 1526 955 141 276 260 2635 814 571 2270 263 93 2007 666 190 624 308
is_linear=0
shrinkage=0.03


Tree=3
num_leaves=24
num_cat=0
split_feature=15 23 17 17 23 2 16 17 23 16 1 4 17 25 2 4 16 18 16 19 24 14 17
split_gain=318.866 44.8413 31.6971 25.4869 27.1123 31.2733 22.3615 22.099 20.0981 31.7326 20.2844 23.002 20.1451 21.0291 26.1825 21.6115 18.6956 17.2136 16.4796 15.0516 16.4501 16.7564 21.414
threshold=1.0000000180025095e-35 0.37796717882156378 35.860494613647468 35.327396392822273 -0.22305576503276822 69.082500457763686 -7.3666667938232413 33.412010192871101 0.1056620515882969 -4.7083332538604727 73.824001312255874 0.29108275473117834 33.516887664794929 56.750000000000007 83.831001281738295 0.20301495492458346 -2.6333333253860469 78.500000000000014 -5.9000000953674308 449.00000000000006 -0.12546981871128079 1.0000000180025095e-35 35.484567642211921
decision_type=2 2 2 2 2 2 2 2 2 2 2 2 2 2 2 2 2 2 2 2 2 2 2
left_child=1 2 6 8 5 -5 19 -8 12 -10 -11 -12 -2 15 -15 -14 -13 -17 -9 -1 -21 -22 -23
right_child=3 -3 -4 4 -6 -7 7 18 9 10 11 16 13 14 -16 17 -18 -19 -20 20 21 22 -24
leaf_value=-0.030020962496601782 0.019123432425901386 -0.037392428501668393 -0.032986648370449151 -0.056868255584099484 -0.019848146259458899 0.0083656902384446168 -0.0087273221246207244 -0.0089825779588251185 0.017919607850834917 0.026250100184338584 -0.014798533765995034 -0.018503597801055663 -0.052725276283443805 0.017631405637097627 0.0024502830540900121 0.0071252190629497864 0.022093613149542096 -0.014136471542560659 -0.03092031917580345 0.012015022515573149 0.007021265246104566 -0.039853434645582671 0.028947687007212151
leaf_weight=14.485527105629442 246.49357051029801 87.471296951640397 70.485564596951008 6.964340165257453 54.78054097853601 131.50671083852649 185.93883173866197 44.10804290138185 82.19620237313211 17.49012752622366 118.85715829022229 14.664686949923633 6.2506876438856116 332.03572047129273 147.7407147064805 214.93351237103343 33.601989045739174 40.77125651948154 102.28135994169861 68.498557064682245 25.591136049479246 21.70307265222073 5.0116175003349772
leaf_count=129 558 1154 879 58 259 457 1066 356 204 42 472 54 43 734 449 718 86 198 1213 242 124 154 17
internal_value=0.000427773 -0.017471 -0.0142327 0.00815899 -0.0019829 0.00508478 -0.0114058 -0.0155916 0.00972064 0.00241434 -0.00448912 -0.00770609 0.0116933 0.00922406 0.0129566 0.00238788 0.00975911 0.00373511 -0.0243103 -0.00112383 0.00234119 -0.0103274 -0.0269465
internal_weight=2073.86 625.575 538.104 1448.29 193.252 138.471 467.618 332.328 1255.04 266.81 184.614 167.124 988.225 741.732 479.776 261.955 48.2667 255.705 146.389 135.29 120.804 52.3058 26.7147
internal_count=9666 5334 4180 4332 774 515 3301 2635 3558 858 654 612 2700 2142 1183 959 140 916 1569 666 537 295 171
is_linear=0
shrinkage=0.03


Tree=4
num_leaves=24
num_cat=0
split_feature=15 23 19 5 16 19 18 16 17 15 12 5 18 24 20 2 19 16 5 17 16 4 3
split_gain=276.945 44.9212 23.5303 23.2679 22.0775 21.2964 25.2889 18.7086 33.1449 17.8936 16.7058 21.4366 19.64 16.914 16.6078 16.3904 15.3253 13.9646 15.6718 19.065 19.6665 17.6746 20.9226
threshold=1.0000000180025095e-35 1.0000000180025095e-35 443.00000000000006 0.25804885476827627 -6.9000000953674308 451.00000000000006 105.50000000000001 -5.9000000953674308 34.045907974243171 1.4166666865348818 72.750000000000014 4.8643317222595224 14.500000000000002 -0.14522977173328397 -7.4999999999999991 74.283000946044936 473.00000000000006 -8.708333492279051 1.8750707507133486 33.883644104003913 -1.2916666865348814 0.24904283136129382 0.085551023483276381
decision_type=2 2 2 2 2 2 2 2 2 2 2 2 2 2 2 2 2 2 2 2 2 2 2
left_child=1 2 -1 -2 -3 6 10 15 -9 14 13 12 -12 -5 16 -4 -7 -16 -19 -20 21 -21 -23
right_child=3 4 7 5 -6 9 -8 8 -10 -11 11 -13 -14 -15 17 -17 -18 18 19 20 -22 22 -24
leaf_value=-0.030514525759467611 -0.011691746005799884 -0.012026263952041845 -0.017303480266162161 0.003741517376476601 -0.034676237835716224 -0.0021919351582305045 -0.051577761358959077 -0.0066138628637968369 -0.033404264475937945 0.016189090151835169 -0.029437970446712983 -0.055911991841470665 0.01996438496881682 -0.019822125801522594 0.031927874874260992 0.0058143741951893124 0.027353297280259127 0.013920451058692978 0.010641608623791345 -0.0095243756871950247 -0.020889980460864942 0.013698393924551897 -0.0066816430133914539
leaf_weight=47.478665998205543 51.555703310295939 53.971486575901508 36.630930675193667 71.577065089717507 137.15612465515733 20.71914024092257 8.186809800565241 155.82036794302985 56.681206340901554 343.78662004508078 8.0039494261145574 3.9888065122067919 76.129001416265965 44.436513850465417 18.870063375681639 111.97864035796374 66.560903345234692 162.12669805437326 196.42929928004742 89.3404854349792 39.989076230674982 129.04445684142411 69.891179984435439
leaf_count=639 221 473 301 268 1858 85 61 739 775 906 27 18 213 203 40 549 153 415 565 343 179 308 327
internal_value=0.000783599 -0.0162754 -0.0106599 0.00808784 -0.0282802 0.00884373 0.000122219 -0.00804939 -0.0137598 0.0104727 0.00219564 0.0120427 0.0152645 -0.00528403 0.00799443 0.00011603 0.0203396 0.00646758 0.00576807 0.00324904 -0.00117457 0.00156031 0.00653837
internal_weight=2000.35 599.717 408.59 1400.64 191.128 1349.08 212.322 361.111 212.502 1136.76 204.135 88.1218 84.133 116.014 792.971 148.61 87.28 705.691 686.821 524.694 328.265 288.276 198.936
internal_count=9666 5334 3003 4332 2331 4111 790 2364 1514 3321 729 258 240 471 2415 850 238 2177 2137 1722 1157 978 635
is_linear=0
shrinkage=0.03


Tree=5
num_leaves=24
num_cat=0
split_feature=15 18 17 17 24 23 17 19 24 19 14 4 2 0 18 19 5 19 3 1 2 23 1
split_gain=208.396 39.7949 38.8264 36.1769 28.9414 21.7997 22.2415 21.5136 21.447 20.3192 18.1819 20.3728 17.5744 17.2544 16.9674 16.1394 13.4602 13.5232 16.316 22.2884 19.0391 17.7088 25.2676
threshold=1.0000000180025095e-35 111.50000000000001 34.803600311279304 35.311609268188484 0.40018674731254583 -0.9550504982471465 33.516887664794929 473.00000000000006 -0.86587300896644581 507.00000000000006 0.45000000298023229 0.21816308796405795 74.041000366210952 86.059398651123061 13.500000000000002 485.00000000000006 0.406173586845398 471.00000000000006 0.088856834918260588 88.061496734619155 77.669998168945327 -0.21288766711950299 88.545501708984389
decision_type=2 2 2 2 2 2 2 2 2 2 2 2 2 2 2 2 2 2 2 2 2 2 2
left_child=2 3 15 4 5 14 10 -4 -5 -3 11 -7 -6 16 -2 -1 -8 18 20 -20 -18 -22 -23
right_child=1 9 7 8 12 6 13 -9 -10 -11 -12 -13 -14 -15 -16 -17 17 -19 19 -21 21 22 -24
leaf_value=-0.013790405173034292 0.042410466807089355 -0.023566860862702238 -0.035086026696751524 0.023582180954566906 0.020484082962901294 -0.025942885567141642 -0.010835991380035161 -0.016070700056027842 -0.0098600511907000806 0.010163712811311218 0.024843838750220771 0.013839678390544577 -0.022711530585910248 -0.0028129724667804086 -0.038740265896577558 -0.00092775089189039636 0.018961392433111696 0.014856442193738207 -0.01527976341545504 0.030896721144825723 0.010684357433178047 -0.037298116877403004 0.040096572581039346
leaf_weight=234.65418771607801 2.8271481841802588 56.711056416854262 100.63114376924932 19.773317232728004 10.977514032274483 12.824555329978464 25.585130138322711 114.45075475331396 135.7357093244791 22.430425839498639 168.39085495844483 119.89250133186579 37.215260345488787 102.3682699650526 12.897275127470492 140.28030478069559 97.404536848887801 376.0676729939878 53.3958705291152 11.419569242745636 36.994235120713711 19.574429690837864 4.7100284397602072
leaf_count=1981 5 310 1320 65 31 53 111 1125 641 68 338 273 215 417 58 948 241 925 277 33 89 88 11
internal_value=2.76022e-05 0.0066223 -0.0148067 0.00793044 0.00985743 0.0109063 0.0114422 -0.0249675 -0.0056078 -0.0140069 0.0182992 0.00999546 -0.0128723 0.00860421 -0.0241499 -0.00897789 0.0104738 0.0113831 0.00553875 -0.00714412 0.0107192 -0.00238213 -0.0222872
internal_weight=1917.21 1327.2 590.016 1248.05 1092.54 1044.35 1028.63 215.082 155.509 79.1415 301.108 132.717 48.1928 727.52 15.7244 374.934 625.151 599.566 223.499 64.8154 158.683 61.2787 24.2845
internal_count=9623 4249 5374 3871 3165 2919 2856 2445 706 378 664 326 246 2192 63 2929 1775 1664 739 310 429 188 99
is_linear=0
shrinkage=0.03


Tree=6
num_leaves=24
num_cat=0
split_feature=15 17 17 16 22 18 24 19 1 1 19 24 17 16 3 2 12 3 17 8 0 19 0
split_gain=208.616 35.422 25.4193 24.0185 40.5914 21.875 17.3065 16.8998 16.7009 18.2262 18.3174 15.4271 16.5056 15.4073 15.4585 13.7024 18.0387 15.8394 24.5138 17.486 25.4836 16.2148 15.0024
threshold=1.0000000180025095e-35 35.860494613647468 35.500207901000984 -7.3666667938232413 1.0000000180025095e-35 112.50000000000001 0.40018674731254583 473.00000000000006 100.0904998779297 80.74750137329103 445.00000000000006 -0.98823529481887806 36.941949844360359 -3.2250000238418575 0.058332990854978568 79.822498321533217 94.549999237060561 0.093932714313268675 32.909955978393562 1.5000000000000002 75.949420928955092 527.00000000000011 78.90015029907228
decision_type=2 2 2 2 2 2 2 2 2 2 2 2 2 2 2 2 2 2 2 2 2 2 2
left_child=1 3 5 7 -5 6 8 -1 9 15 -11 -4 -13 -12 -15 17 -17 -2 -19 21 -21 -20 -18
right_child=2 -3 11 4 -6 -7 -8 -9 -10 10 13 12 -14 14 -16 16 22 18 19 20 -22 -23 -24
leaf_value=-0.015433980032091055 0.013816098900930546 -0.032815706528493693 0.03984124321178021 -0.0044461583435631011 -0.024583146896508794 -0.010343550513469689 -0.0095034619738796865 0.0074883099274717464 0.024867119915894138 -0.018075274819855221 0.011851683801650699 -0.0057963096552021819 -0.053646493031441103 -0.025092555089478205 0.0033402913356871474 0.034942643127328643 -0.04946886333201618 0.042213588875899606 -0.027530025154772847 -0.058014297188769576 0.033620827154279075 0.031519012264451106 0.026981663278840176
leaf_weight=44.172747474163771 378.98033691197634 82.566779474727809 6.202563237398862 163.90938377520069 200.04747857991606 53.281331449747086 42.246474623680115 83.983879029750824 64.540317170321941 28.86859979107976 242.61858328618109 104.29515249654651 6.9183022491633883 18.66977921128273 220.0275877546519 46.087579136714339 4.5889213904738408 9.6397940665483457 35.002472115680575 3.3978633694350746 13.924616010859607 4.7537244707345954 4.652165200561285
leaf_count=382 917 1139 14 879 2562 299 253 412 155 135 691 543 60 83 696 87 22 13 197 27 41 6 10
internal_value=0.000399338 -0.0146323 0.00710255 -0.0115815 -0.0155144 0.00843657 0.00933159 -0.000412495 0.0100713 0.00912693 0.00513562 -0.00620488 -0.00877295 0.00652778 0.00111641 0.0131912 0.0272722 0.0114432 -0.00203577 -0.00950887 0.0156463 -0.0204694 -0.010982
internal_weight=1863.38 574.68 1288.7 492.113 363.957 1171.28 1118 128.157 1075.75 1011.21 510.185 117.416 111.213 481.316 238.697 501.027 55.3287 445.699 66.7185 57.0787 17.3225 39.7562 9.24109
internal_count=9623 5374 4249 4235 3441 3632 3333 794 3080 2925 1605 617 603 1470 779 1320 119 1201 284 271 68 203 32
is_linear=0
shrinkage=0.03


Tree=7
num_leaves=24
num_cat=0
split_feature=15 23 18 4 15 19 1 4 3 5 25 19 16 14 16 0 16 16 0 16 8 4 5
split_gain=190.105 28.4641 22.5955 18.3513 23.7044 20.7189 22.1832 20.0089 19.4796 24.1495 18.0934 17.0687 15.9485 15.12 17.312 16.1078 15.1117 14.8977 14.5268 14.2004 14.0043 13.575 13.2938
threshold=1.0000000180025095e-35 0.37796717882156378 111.50000000000001 0.29902762174606329 1.5833333134651186 499.00000000000006 100.0904998779297 0.19591891765594485 0.086633481085300459 3.5145286321640019 54.500000000000007 507.00000000000006 -2.2250000238418575 1.3666666746139529 -0.63333335518836964 83.546398162841811 -4.9000000953674308 -3.8999999761581416 70.365951538085952 -6.4500000476837149 1.0000000180025095e-35 0.1866552606225014 0.36437816917896276
decision_type=2 2 2 2 2 2 2 2 2 2 2 2 2 2 2 2 2 2 2 2 2 2 2
left_child=1 10 3 4 7 6 -6 -2 22 13 21 -4 19 14 15 -10 -3 -5 -19 -13 -11 -1 -9
right_child=2 16 11 17 5 -7 -8 8 9 20 -12 12 -14 -15 -16 -17 -18 18 -20 -21 -22 -23 -24
leaf_value=-0.0035361947161509752 -0.028289623382701946 -0.014808047604289172 -0.02254254328510015 0.022886466357598879 0.0030113940578764078 0.027463442164457213 0.040737852036897497 -0.016525349253644968 -0.013866791654331103 -0.0040654422112198418 -0.0090449841177143858 0.029054351959614793 0.033502268350194479 0.021032949912250409 -0.052768796586674667 0.014226202895191208 -0.041149818835247653 -0.049506356659486092 0.01030281551946733 -0.052577667476429391 -0.038611672815629709 -0.034364782707769187 0.0074641359401940218
leaf_weight=17.604235640726984 18.183384714648128 32.7896299501881 39.769200136885047 108.34103142470121 118.90536964312196 71.243317123502493 15.903416238725184 21.721686366945505 39.234258726239204 17.761551894247532 411.63990926835686 3.1233463101089001 11.915413942188023 27.447618400678039 6.2360615208744994 34.539779691025615 48.728842646814883 3.7179386615753165 215.58854862302542 4.9692220799624938 26.050359705463052 47.651134588290006 484.55725678801537
leaf_count=161 120 412 310 257 395 140 22 115 196 76 3445 10 27 89 41 106 790 32 668 31 154 566 1460
internal_value=0.000415023 -0.0141719 0.00683283 0.00772273 0.00547012 0.0143776 0.00746199 0.00275396 0.00361241 -0.00583399 -0.0113716 -0.011172 0.0114289 0.0018198 -0.00477131 -0.000714118 -0.0305542 0.0137851 0.00928886 -0.0210716 -0.0246065 -0.026048 0.00643488
internal_weight=1827.62 558.414 1269.21 1209.43 881.784 206.052 134.809 675.732 657.549 151.27 476.895 59.7772 20.008 107.458 80.0101 73.774 81.5185 327.648 219.306 8.09257 43.8119 65.2554 506.279
internal_count=9623 5374 4249 3871 2914 557 417 2357 2237 662 4172 378 68 432 343 302 1202 957 700 41 230 727 1575
is_linear=0
shrinkage=0.03


Tree=8
num_leaves=24
num_cat=0
split_feature=15 17 17 24 19 24 17 25 14 16 0 4 19 3 19 3 14 23 17 0 0 24 16
split_gain=173.583 32.2252 22.2917 22.2174 19.7297 15.8334 14.9154 14.7314 17.657 14.3132 14.1591 14.069 20.6584 15.1724 30.9501 16.2938 15.7456 14.4995 14.336 15.4099 13.6901 20.1904 19.174
threshold=1.0000000180025095e-35 35.860494613647468 35.346553802490241 -0.89658507704734791 493.00000000000006 0.40018674731254583 33.867456436157234 54.500000000000007 0.11250000074505807 -9.0999999046325666 86.059398651123061 0.29902762174606329 431.00000000000006 0.082952398806810393 535.00000000000011 0.077625777572393431 -0.63333335518836964 -0.14288515597581861 34.005989074707038 78.11059951782228 77.889312744140639 -0.16665501147508618 -6.3666667938232413
decision_type=2 2 2 2 2 2 2 2 2 2 2 2 2 2 2 2 2 2 2 2 2 2 2
left_child=1 4 5 -4 7 6 9 -1 -9 -2 11 13 -13 15 17 16 -8 18 -15 -20 -18 -22 -23
right_child=2 -3 3 -5 -6 -7 10 8 -10 -11 -12 12 -14 14 -16 -17 20 -19 19 -21 21 22 -24
leaf_value=-0.031112909120112348 0.048004168346320361 -0.031637105341882812 0.026952530494733045 -0.0088807375173994996 -0.0020161343945678781 -0.0097705599412397613 0.030777214250769819 -0.0063871147762910117 -0.022259855011614049 0.012134249491638115 -0.0073330290483375436 -0.049780239801375525 0.016710074586175579 -0.048459775486474094 0.050860011928465572 0.014490626376563672 0.004124178634239503 -0.033215721384611097 -0.018337665236908586 0.010290109352995673 -0.040452667611939483 0.045295724999918512 -0.016354300224512466
leaf_weight=44.18513347953558 10.245255798101423 77.053146820049733 17.762372009456158 126.32376036699861 156.67961664125323 42.953782543540001 13.298172272741793 166.06229105917737 101.70485830400139 439.67547540552914 66.359651708975434 4.3239883109927169 153.52653851360083 6.1045407094061366 8.1155317202210409 153.09607404097915 71.755383349955082 19.551264077425003 27.271285466849804 44.595139093697071 18.796382419764996 6.4684376195073154 15.232012962922452
leaf_count=613 11 1139 52 706 1050 274 36 1334 1238 1198 313 30 419 33 9 365 215 128 152 157 75 9 67
internal_value=0.000451273 -0.013658 0.00663311 -0.00446335 -0.0107018 0.0080848 0.00880943 -0.0150642 -0.012416 0.0129511 0.00574711 0.00734817 0.0148887 0.00425079 -0.00543064 0.00792111 -8.97443e-05 -0.010115 -0.00432247 -0.000573325 -0.00374646 -0.0176923 0.00202225
internal_weight=1791.14 545.685 1245.46 144.086 468.632 1101.37 1058.42 311.952 267.767 449.921 608.494 542.135 157.851 384.284 105.638 278.646 125.55 97.5222 77.971 71.8664 112.252 40.4968 21.7005
internal_count=9623 5374 4249 758 4235 3491 3217 3185 2572 1209 2008 1695 449 1246 479 767 402 470 342 309 366 151 76
is_linear=0
shrinkage=0.03


Tree=9
num_leaves=24
num_cat=0
split_feature=15 17 16 22 24 17 4 18 20 17 5 5 3 3 2 16 19 17 25 24 17 3 23
split_gain=164.456 29.1433 22.1865 34.2335 18.4532 17.8316 18.6144 16.949 20.1304 15.3407 15.3248 20.2877 13.9164 22.5331 14.6135 13.5556 13.4166 13.2097 13.02 12.7918 12.1331 11.8611 16.6364
threshold=1.0000000180025095e-35 35.860494613647468 -7.3666667938232413 1.0000000180025095e-35 0.40018674731254583 33.867456436157234 0.26174315810203558 58.500000000000007 1.5000000000000002 32.445844650268562 2.2721692323684697 4.8643317222595224 0.078882798552513136 0.077889535576105132 72.141548156738295 -9.0999999046325666 473.00000000000006 34.312105178833015 57.750000000000007 -0.49301248788833613 34.71089172363282 0.093932714313268675 -0.22851540893316266
decision_type=2 2 2 2 2 2 2 2 2 2 2 2 2 2 2 2 2 2 2 2 2 2 2
left_child=1 2 16 -4 5 15 7 12 -9 -6 -10 -12 13 14 -7 -2 17 -1 -16 20 -15 22 -8
right_child=4 -3 3 -5 9 6 21 8 10 -11 11 -13 -14 19 18 -17 -18 -19 -20 -21 -22 -23 -24
leaf_value=0.005148948753706778 0.047603828057656762 -0.030813414739727596 -0.0042494222595979257 -0.023177678405370345 0.029141589923493777 -0.034854041807180887 0.01714802095022 -0.033838096859543379 0.012260404900351365 -0.019930181483322169 -0.03834919966735046 0.039745852147900489 -0.0070813668495895814 0.032871020876772482 0.008141168807480538 0.011160432278850781 0.0082447607473328105 -0.029659984880494279 -0.021756206582052764 0.027975385256648416 -0.041133489973130065 0.001744804855113228 0.00012575659808827374
leaf_weight=18.454799862578511 9.3809228837490064 74.621073237620294 160.41208113869652 185.36871860548854 6.7628809940069905 10.13843824714422 187.86309024132788 27.715759607031941 28.419507320970297 37.670456871390343 14.95165083743632 3.7433874309062949 85.437166038900614 3.2870116457343084 77.339481394737959 441.87647395953536 75.350508248433471 20.950854579918087 15.785257657989858 51.927692972123623 5.0682342201471329 144.74882988631725 71.279568202793598
leaf_count=147 11 1139 879 2562 26 56 458 179 113 275 119 9 409 6 254 1198 412 235 78 108 21 683 246
internal_value=0.000449775 -0.0134213 -0.0106033 -0.0143966 0.00651751 0.00723279 0.00432742 -0.00103119 -0.0135508 -0.0124613 -0.00161659 -0.0227119 0.00273151 0.00785779 -0.000650368 0.011918 0.000826689 -0.013358 0.00307337 0.0224321 -0.0120196 0.00862361 0.0124659
internal_weight=1758.55 535.158 460.537 345.781 1223.4 1178.96 727.705 323.814 74.8303 44.4333 47.1145 18.695 248.983 163.546 103.263 451.257 114.756 39.4057 93.1247 60.2829 8.35525 403.891 259.143
internal_count=9623 5374 4235 3441 4249 3948 2739 1352 420 301 241 128 932 523 388 1209 794 382 332 135 27 1387 704
is_linear=0
shrinkage=0.03


Tree=10
num_leaves=24
num_cat=0
split_feature=15 17 16 19 12 19 22 16 15 15 16 19 14 23 15 2 17 14 4 16 23 16 1
split_gain=159.139 39.7088 41.1591 23.495 19.7905 18.4608 18.3747 17.7318 17.2718 16.3827 30.1347 16.1541 15.1303 14.6101 14.9295 13.5549 11.8238 11.7166 11.7099 11.599 11.9083 11.5908 11.3061
threshold=1.0000000180025095e-35 34.215902328491218 -6.0999999046325675 467.00000000000006 1.0000000180025095e-35 465.00000000000006 1.0000000180025095e-35 -1.2916666865348814 1.5833333134651186 0.41666667163372045 -5.9000000953674308 473.00000000000006 1.2250000238418581 -0.59974747896194447 2.8333333730697636 70.399002075195327 34.381313323974616 -1.1625000238418577 0.25071521103382116 -8.4499998092651349 0.2850432842969895 0.36666667461395269 93.170001983642592
decision_type=2 2 2 2 2 2 2 2 2 2 2 2 2 2 2 2 2 2 2 2 2 2 2
left_child=1 17 11 4 5 -2 -5 -6 21 10 -8 -3 -12 15 -15 -11 -13 -1 -14 22 -21 -9 -19
right_child=3 2 -4 6 7 -7 9 8 -10 13 12 16 18 14 -16 -17 -18 19 -20 20 -22 -23 -24
leaf_value=-0.034062156688648995 -0.0052402437330212456 -0.02370431842947647 -0.033797994528378089 0.025511066782564575 0.01219101687033439 -0.049011091979540677 0.017551739744938597 -0.041906265744518632 0.0090725138500558893 -0.034689593239969625 -0.02380459868729607 -0.049019940222047115 -0.022447452846611995 0.007045322289773984 -0.041471926403177657 0.017510014441564723 0.0021247306590342248 0.01978972049273376 0.028690110010153921 -0.0043778305605548448 -0.027365898913990112 -0.0013706980733944312 -0.055685280639504925
leaf_weight=12.630927090533076 174.00499433279037 45.002959419973195 134.47101554367691 54.408173305913806 134.93930509500206 9.1269260086119157 38.968418400734663 15.677053766325118 25.710178218781948 4.5877233259379855 50.571273811161518 4.3223067168146363 6.571070875972512 492.60008693672717 5.7750623524188986 185.82938001304865 69.188923207111657 24.611078985035423 10.421939980238674 205.8236817503348 22.4976562038064 10.669487426057456 1.9260670877993096
leaf_count=188 822 553 2179 130 468 53 105 88 83 33 258 42 37 1575 28 534 493 137 29 1371 378 43 22
internal_value=-2.91307e-05 -0.0139174 -0.022438 0.00589654 -0.00041185 -0.00742169 0.00864436 0.00645314 -0.00842034 0.00749051 -0.00345774 -0.00954853 -0.0155752 0.00918383 0.00648312 0.0162524 -0.000882469 -0.00585882 0.00891559 -0.00446105 -0.00664296 -0.0254907 0.0143117
internal_weight=1740.34 520.475 252.985 1219.86 370.128 183.132 849.733 186.996 52.0567 795.325 106.533 118.514 67.5643 688.792 498.375 190.417 73.5112 267.489 16.993 254.858 228.321 26.3465 26.5371
internal_count=9649 5363 3267 4286 1557 875 2729 682 214 2599 429 1088 324 2170 1603 567 535 2096 66 1908 1749 131 159
is_linear=0
shrinkage=0.03


Tree=11
num_leaves=24
num_cat=0
split_feature=15 17 16 19 4 16 18 19 22 7 12 4 1 17 11 17 16 25 18 5 3 1 23
split_gain=145.432 36.8015 37.2818 23.6355 17.5251 18.7339 14.6462 13.8101 12.8958 12.453 16.2792 17.9619 15.3511 14.3435 12.224 11.6968 11.6111 12.0092 15.0739 12.8395 11.4696 20.8396 12.7241
threshold=1.0000000180025095e-35 34.215902328491218 -6.0999999046325675 503.00000000000006 0.26943016052246099 -9.0999999046325666 105.50000000000001 473.00000000000006 1.0000000180025095e-35 3.5000000000000004 91.950000762939467 0.26062238216400152 86.476001739501967 33.236711502075202 0.62500000000000011 36.66236877441407 2.3666666746139531 55.750000000000007 12.500000000000002 1.6062483191490176 0.096789266914129271 86.634002685546889 -0.74965366721153248
decision_type=2 2 2 2 2 2 2 2 2 2 2 2 2 2 2 2 2 2 2 2 2 2 2
left_child=1 -1 7 4 5 -2 8 -3 -6 12 11 13 15 -11 16 -7 17 19 -19 -5 -10 22 -22
right_child=3 2 -4 14 6 9 -8 -9 20 10 -12 -13 -14 -15 -16 -17 -18 18 -20 -21 21 -23 -24
leaf_value=-0.00574932858585178 0.037657153198309173 -0.022879504247447262 -0.03296098495928184 -0.055670577642807376 0.031744813354340179 0.0065466748169813807 -0.021958367844581893 -0.0013572322964242999 0.011938798818297605 0.0079039790655464608 0.002208891902551087 -0.044978547136036794 -0.024358065890088251 -0.015687876172539805 -0.031561945282019034 -0.04798513379378895 -0.032964840197307888 -0.052295937528490835 0.017026100423632548 0.0037135295309205464 0.0097753132187268863 0.012191235754724822 -0.016938901609566973
leaf_weight=265.60767195001245 11.213927939534186 42.956353780813515 128.92860704194754 3.8328857645392445 20.864965736865997 209.05141065083444 14.452707493677734 71.48636401258409 221.82609334215522 31.440226558595896 111.4724435377866 14.384070785716174 16.567787578329444 88.429668706841767 5.4787740521132937 3.6010252460837355 4.7323464192450038 2.8532971069216719 266.73874867800623 22.585898660123348 22.274343624711037 80.228578884154558 57.393030492588878
leaf_count=2096 20 553 2179 20 45 700 115 535 609 132 450 76 102 510 30 35 17 14 702 72 84 249 304
internal_value=-1.78401e-05 -0.0134711 -0.0218985 0.00564391 0.00320194 -0.00066849 0.00771385 -0.00943567 0.00877907 -0.00157339 -0.00626516 -0.0133012 0.00345622 -0.00950006 0.0128465 0.00562324 0.0136555 0.0144008 0.0162924 -0.00490203 0.00752376 0.00139872 -0.00946983
internal_weight=1718.4 508.979 243.371 1209.42 903.2 486.161 417.04 114.443 402.587 474.947 245.726 134.254 229.22 119.87 306.222 212.652 300.743 296.011 269.592 26.4188 381.722 159.896 79.6674
internal_count=9649 5363 3267 4286 3431 2025 1406 1088 1291 2005 1168 718 837 642 855 735 825 808 716 92 1246 637 388
is_linear=0
shrinkage=0.03


Tree=12
num_leaves=24
num_cat=0
split_feature=15 17 16 19 17 14 3 23 19 16 15 23 23 19 3 16 23 19 17 17 24 1 14
split_gain=138.091 34.3449 33.1118 20.5336 16.0008 14.724 14.3707 13.2914 12.6418 11.9995 14.8775 13.8002 15.3767 16.1037 14.8193 11.7838 14.7302 13.1789 11.0318 11.0179 13.1325 14.2464 11.6702
threshold=1.0000000180025095e-35 34.215902328491218 -6.0999999046325675 485.00000000000006 35.066921234130866 -2.7083333730697627 0.0826157182455063 0.29114252328872686 473.00000000000006 -7.7750000953674308 0.41666667163372045 -0.48670996725559229 -0.4399134218692779 495.00000000000006 0.18938714265823367 -5.0999999046325675 0.27084150910377508 529.00000000000011 33.392618179321296 34.640035629272468 0.1201465204358101 81.669998168945327 -0.45000000298023218
decision_type=2 2 2 2 2 2 2 2 2 2 2 2 2 2 2 2 2 2 2 2 2 2 2
left_child=1 -1 8 4 -2 -5 7 -6 -3 -7 18 14 13 -13 -12 16 17 -14 -11 22 21 -21 -17
right_child=3 2 -4 5 6 9 -8 -9 -10 10 11 12 15 -15 -16 19 -18 -19 -20 20 -22 -23 -24
leaf_value=-0.0058412620647677761 0.0041350932501902724 -0.022946661709391684 -0.032258412472401167 -0.058485403874118602 0.0015233874246285736 0.028637066370584593 -0.023669915283914399 -0.051780795548682361 -0.0020121156631635194 0.013361640844906026 0.018266347488088992 0.016458853766470206 -0.021909371018134494 -0.042722500425474652 -0.043144619496653963 -0.014089167599209515 0.031821433475903868 0.032840736993966696 -0.015857857088225156 0.011352733983299352 -0.040904408494301228 -0.037314887520757345 0.016184608803804196
leaf_weight=264.44724895246327 501.62742075417191 41.126024149358273 124.03140682308003 2.8408422954380503 81.301037425175309 29.425712060183287 36.702238742262125 4.4399928282946339 70.405317764729261 17.371142413467169 180.77188644465059 6.6213910505175617 29.83189295977354 11.033491846174 3.6071030907332888 12.253318294882773 7.4734323360025874 4.5619431287050238 35.180071517825127 37.869346411898732 6.6228625252842894 6.3162553384900084 177.02747062221169
leaf_count=2096 1880 553 2179 22 354 67 266 37 535 54 493 20 116 39 19 49 24 9 202 109 41 28 457
internal_value=-2.77884e-05 -0.013262 -0.0215927 0.00551949 0.00176179 0.00964227 -0.00796117 -0.0012369 -0.00973151 0.00998424 0.00896125 0.0106074 0.00663341 -0.0205268 0.0170649 0.00833406 -0.00635258 -0.0146474 -0.00619916 0.0108951 -0.00150908 0.00439578 0.0142248
internal_weight=1692.89 500.01 235.563 1192.88 624.071 568.808 122.443 85.741 111.531 565.967 536.542 483.99 299.611 17.6549 184.379 281.957 41.8673 34.3938 52.5512 240.089 50.8085 44.1856 189.281
internal_count=9649 5363 3267 4286 2537 1749 657 391 1088 1727 1660 1404 892 59 512 833 149 125 256 684 178 137 506
is_linear=0
shrinkage=0.03


Tree=13
num_leaves=24
num_cat=0
split_feature=15 17 16 19 0 18 13 16 15 19 1 23 17 20 24 14 1 25 24 19 14 14 16
split_gain=131.949 30.7592 31.2796 18.7786 15.7849 13.8175 13.1955 13.3368 12.1201 11.9855 11.7613 12.6396 20.2728 14.035 12.9868 16.3572 11.3978 10.9102 11.2164 13.3376 10.6373 10.4935 11.2483
threshold=1.0000000180025095e-35 34.215902328491218 -6.0999999046325675 467.00000000000006 72.862998962402358 76.500000000000014 1.0000000180025095e-35 -1.2916666865348814 1.5833333134651186 473.00000000000006 73.668498992919936 -0.040392156690359109 34.10704421997071 11.500000000000002 -0.20346710830926892 -1.0000000180025095e-35 69.927997589111342 56.750000000000007 0.13369964063167575 487.00000000000006 -1.0000000180025095e-35 -1.1625000238418577 -7.9000000953674308
decision_type=2 2 2 2 2 2 2 2 2 2 2 2 2 2 2 2 2 2 2 2 2 2 2
left_child=1 21 9 6 5 -5 20 -8 16 -3 -6 14 13 -13 -12 -16 -9 -14 19 -19 -2 -1 -23
right_child=3 2 -4 4 10 -7 7 8 -10 -11 11 12 17 -15 15 -17 -18 18 -20 -21 -22 22 -24
leaf_value=-0.034029794583051984 -0.029066064653989764 -0.022628553398438365 -0.031611817297565459 -0.0015200475141422187 0.037160264221851522 -0.046533384526909867 0.010243456773112159 0.036021202065611893 0.0052867395825139888 -0.0020465199998100968 0.0079783730385304605 0.010064856708386642 -0.040934336583474305 -0.029234175185305623 -0.018298629900629883 0.020329173279946232 -0.033362455274330127 -0.031507044759749865 -0.032868013112890872 0.015371435968880671 -0.0037596941625338081 0.011564670870236602 -0.0071305795666870373
leaf_weight=11.442346834577618 16.544895406812429 39.781171218492091 119.14640101930127 54.799885708838701 13.315477631986139 6.9115328453481188 133.82794842123985 2.4084944576025036 26.139769002795219 70.752010997384787 381.37433267105371 140.29819574020803 10.849935587495564 8.6851116158068162 10.515761548653243 159.7354536075145 18.482909243553877 7.410542011260989 10.834328673779963 20.776423323899508 154.97872851416469 33.382989071309566 218.83452300401405
leaf_count=188 125 553 2179 216 22 47 468 5 83 535 1214 454 76 40 53 420 126 38 84 65 750 210 1698
internal_value=0.000102786 -0.0129225 -0.0209484 0.00555819 0.00803303 -0.00656143 -0.000239487 0.00541403 -0.00832818 -0.00945405 0.0092122 0.00871633 0.00223189 0.00777389 0.0110539 0.0179433 -0.0253635 -0.0143241 -0.00692503 0.00304677 -0.00620071 -0.00593088 -0.00465611
internal_weight=1671.23 493.339 229.68 1177.89 825.507 61.7114 352.383 180.859 47.0312 110.533 763.796 750.48 198.855 148.983 551.626 170.251 20.8914 49.8712 39.0213 28.187 171.524 263.66 252.218
internal_count=9649 5363 3267 4286 2729 263 1557 682 214 1088 2466 2444 757 494 1687 473 131 263 187 103 875 2096 1908
is_linear=0
shrinkage=0.03


Tree=14
num_leaves=24
num_cat=0
split_feature=15 17 16 19 0 4 17 4 7 17 11 17 2 16 7 1 19 19 15 1 5 17 2
split_gain=125.681 28.6397 28.0884 15.6963 15.4945 12.6866 12.6486 13.4761 11.7382 14.4348 13.9309 12.9446 11.2712 10.9722 12.3396 10.2451 11.3829 12.6044 14.0925 13.8674 10.1749 13.2796 10.8372
threshold=1.0000000180025095e-35 34.215902328491218 -6.0999999046325675 525.00000000000011 72.029975891113295 0.25650773942470556 33.125183105468757 0.22001983970403674 4.5000000000000009 33.057695388793952 1.0000000180025095e-35 35.469530105590827 68.916809082031264 -7.9000000953674308 3.5000000000000004 79.305999755859389 507.00000000000006 483.00000000000006 2.1666666269302373 82.623001098632827 0.25804885476827627 35.038265228271491 80.066001892089858
decision_type=2 2 2 2 2 2 2 2 2 2 2 2 2 2 2 2 2 2 2 2 2 2 2
left_child=1 -1 12 4 -2 6 7 -6 9 -7 -10 -12 -3 -8 20 -11 17 19 -19 -17 -15 22 -22
right_child=3 2 -4 -5 5 8 13 -9 10 15 11 -13 -14 14 -16 16 -18 18 -20 -21 21 -23 -24
leaf_value=-0.0058776063290228225 -0.0088718905150962247 -0.041440868536179828 -0.030826481187370698 0.017302495439935166 -0.0081586141611460182 0.030270579512339666 0.018419782269670556 0.018961461355400579 -0.045560738704364119 0.015215701432167305 0.0064678025086602857 -0.025262223424618389 -0.0065947905321789325 -0.018121507256567564 -0.0087178126764985275 -0.0141566470828225 0.022942855037105303 -0.037732549191334626 0.020430508559068843 0.017353793445162677 0.0043864213065184197 -0.014123655635162683 0.024485875479873125
leaf_weight=263.13346695713699 72.330250192433596 9.1224743388593179 114.81814435776323 94.30920203961432 22.307786576449871 37.335172345861793 24.272905692458153 63.232298567891121 4.9474490862339726 142.3749853298068 288.09360995236784 12.055732691660522 99.193009942770004 18.018939215689898 150.69656896032393 21.036712158471346 19.107492033392191 15.098157282918693 4.9877169597893944 31.230667723342776 88.800599498674273 25.066853748634458 33.158071868121624
leaf_count=2096 380 139 2179 244 111 76 72 164 22 427 950 80 949 121 793 96 42 86 14 108 266 135 99
internal_value=0.000234265 -0.012582 -0.0204883 0.0055679 0.00453762 0.00550577 0.00157721 0.0118889 0.00840688 0.0129485 0.00437031 0.00519334 -0.00952957 -0.00101698 -0.0025112 0.0101827 0.00234802 -0.0030908 -0.0232895 0.00467139 0.00315585 0.00576353 0.00985105
internal_weight=1654.73 486.267 223.134 1168.46 1074.15 1001.82 425.554 85.5401 576.268 271.171 305.097 300.149 108.315 340.014 315.741 233.836 91.4607 72.3533 20.0859 52.2674 165.044 147.026 121.959
internal_count=9649 5363 3267 4286 4042 3662 1761 275 1901 849 1052 1030 1088 1486 1414 773 346 304 100 204 621 500 365
is_linear=0
shrinkage=0.03


Tree=15
num_leaves=24
num_cat=0
split_feature=11 4 17 17 4 14 19 18 2 16 0 3 5 0 19 19 19 20 17 17 4 17 4
split_gain=110.741 36.8093 23.997 23.0157 15.9454 13.9296 13.6492 14.0699 13.0785 14.654 15.8313 12.1775 11.7698 11.1446 10.7324 11.855 14.975 10.5776 10.332 10.1015 10.2756 10.0512 13.3776
threshold=1.0000000180025095e-35 0.24759799242019656 35.185567855834968 34.803600311279304 0.31032775342464453 2.2250000238418584 491.00000000000006 111.50000000000001 75.605503082275405 -1.8999999761581419 77.57245254516603 0.085551023483276381 1.213063180446625 76.165599822998061 441.00000000000006 537.00000000000011 527.00000000000011 7.5000000000000009 36.734571456909187 33.768955230712898 0.25553767383098608 34.431457519531257 0.2338284030556679
decision_type=2 2 2 2 2 2 2 2 2 2 2 2 2 2 2 2 2 2 2 2 2 2 2
left_child=2 3 4 5 14 8 7 18 21 13 -11 19 -5 -10 -1 16 -16 -4 -3 20 -8 22 -2
right_child=1 6 17 12 -6 -7 11 -9 9 10 -12 -13 -14 -15 15 -17 -18 -19 -20 -21 -22 -23 -24
leaf_value=-0.024238642178037045 0.017846896592725439 0.0064441408170704583 -0.029332371470453311 -0.033590639826380102 0.03722292165086824 -0.04310571415611536 -0.01428617011337993 -0.023274060223136873 -0.026295878306857558 0.012020091450268578 -0.027093185830684239 0.0073666612005043033 -0.0094578254109013021 0.0046553811732422956 -0.0085148517381441052 -0.044978451252522145 0.022722920155002272 -0.0028416558137359543 -0.047589245965332656 0.014480114881424137 0.036349307888593543 0.031799429397438746 -0.021003115981166345
leaf_weight=41.292098477017134 25.200084108859301 446.4640027852729 89.974890788085759 25.37300525046885 6.5857903249561778 6.2734210044145575 3.9805392026901236 15.215259585529564 11.165392372757195 12.90983686968684 33.431856972165406 161.88671956304461 64.234491600655019 168.12847154121846 273.77421857882291 7.5670171715319148 14.545571602880953 15.974126243963836 3.2078380789607754 115.639155337587 38.430461568757892 20.386177720502019 11.67151474021375
leaf_count=624 91 1747 1472 243 13 45 18 143 47 49 228 595 476 825 2153 56 47 200 38 332 69 61 53
internal_value=-0.000212451 0.00467388 -0.0128555 -0.0030067 -0.00900821 0.00110993 0.00838071 0.00509865 0.00209045 -0.00115895 -0.016197 0.0131497 -0.0162912 0.00272791 -0.0099112 -0.00791175 -0.00693892 -0.0253383 0.00605868 0.0190732 0.0315968 0.0148953 0.00554913
internal_weight=1613.31 1163.6 449.714 378.774 343.765 289.167 784.824 464.887 282.893 225.636 46.3417 319.937 89.6075 179.294 337.179 295.887 288.32 105.949 449.672 158.05 42.411 57.2578 36.8716
internal_count=9625 5060 4565 2118 2893 1399 2942 1928 1354 1149 277 1014 719 872 2880 2256 2200 1672 1785 419 87 205 144
is_linear=0
shrinkage=0.03


Tree=16
num_leaves=24
num_cat=0
split_feature=15 4 17 23 19 12 23 17 1 3 15 17 23 5 21 2 20 4 16 3 19 1 17
split_gain=135.506 22.2599 20.7256 19.3347 15.6272 13.8929 12.7081 18.7239 12.7028 13.093 12.6673 12.496 13.8003 12.3104 12.9255 12.7082 12.0753 12.0181 11.2676 13.3759 10.6756 10.5123 10.8813
threshold=1.0000000180025095e-35 0.24759799242019656 34.509830474853523 0.37796717882156378 443.00000000000006 67.350002288818374 0.058935575187206275 34.300334930419929 106.231502532959 0.088477063924074187 1.1666666865348818 34.560485839843757 -0.70465368032455433 2.8546609878540044 1.0000000180025095e-35 69.664501190185561 -11.499999999999998 0.23964039236307147 -5.6333332061767569 0.090546038001775755 449.00000000000006 85.457000732421889 35.066921234130866
decision_type=2 2 2 2 2 2 2 2 2 2 2 2 2 2 2 2 2 2 2 2 2 2 2
left_child=3 2 6 4 -1 16 10 13 9 -3 17 18 -13 15 20 -8 -4 -2 -11 -20 -15 22 -7
right_child=1 8 5 -5 -6 21 7 -9 -10 11 -12 12 -14 14 -16 -17 -18 -19 19 -21 -22 -23 -24
leaf_value=-0.026402967113643521 0.0063391202751168557 0.011248331408884224 0.026224091423293881 -0.028373452256677017 -0.008870308143656639 0.018024801390888356 0.031517235991023053 0.031005907553438409 0.041471859723290046 0.025440002794078119 0.019503030694904451 0.0081414193432500191 -0.01431255157242815 -0.054431482755457533 -0.054261951606777804 -0.033695578876117488 -0.026679093039700331 -0.021180933713162105 -0.045629573571318222 0.0059952954831333036 0.012225910969989826 -0.049100025985537643 -0.013632046659949749
leaf_weight=52.704576285555959 99.787346292287111 438.44813908264041 4.2071787267923346 69.055932527873665 346.93856040993705 22.923388749361038 2.9929566495120552 10.068710561841725 10.245193958282469 27.025172172114253 58.584369027987123 41.012231918051839 61.68822243064642 2.3603855185210767 3.5303833559155455 26.520427480340004 50.405887812376022 16.667040331289172 4.6226758547127238 197.54933933261782 25.782171307131648 3.58460559695959 17.033234551548958
leaf_count=881 348 1298 17 1218 3286 73 9 34 19 79 172 169 387 25 25 146 353 82 28 726 114 31 105
internal_value=-0.000162522 0.00548367 -0.000868895 -0.0137153 -0.0111825 -0.0125259 0.0037767 -0.00690388 0.00828684 0.0078455 0.00812456 0.00335024 -0.00534582 -0.0131422 -0.00015263 -0.0270823 -0.0226036 0.00240043 0.00724684 0.00481489 0.00663519 0.000114546 0.0045297
internal_weight=1593.74 1125.04 344.448 468.699 399.643 98.1543 246.294 71.255 780.591 770.346 175.039 331.898 102.7 61.1863 31.6729 29.5134 54.6131 116.454 229.197 202.172 28.1426 43.5412 39.9566
internal_count=9625 4240 1534 5385 4167 579 955 353 2706 2687 602 1389 556 319 164 155 370 430 833 754 139 209 178
is_linear=0
shrinkage=0.03


Tree=17
num_leaves=24
num_cat=0
split_feature=15 23 4 19 19 23 3 17 4 24 5 4 14 24 0 12 1 23 19 4 4 25 0
split_gain=133.39 17.037 16.2975 15.1623 14.0814 20.0144 12.2794 19.5521 12.538 19.5052 12.5604 12.0783 10.5039 10.7491 14.077 9.94249 9.30858 12.4625 9.171 13.8276 9.15212 11.4991 10.1542
threshold=1.0000000180025095e-35 0.37796717882156378 0.25650773942470556 443.00000000000006 525.00000000000011 -0.086451049894094453 0.086633481085300459 33.148200988769538 0.29902762174606329 -1.0000000180025095e-35 0.64983695745468151 0.18549639731645587 2.8999999761581425 0.40018674731254583 69.80899810791017 105.75000000000001 72.295501708984389 -0.60139706730842579 475.00000000000006 0.26174315810203558 0.2509256005287171 57.250000000000007 70.846298217773452
decision_type=2 2 2 2 2 2 2 2 2 2 2 2 2 2 2 2 2 2 2 2 2 2 2
left_child=1 3 11 -1 6 -6 16 -8 9 10 -9 -2 13 20 -15 -10 17 -4 -11 -20 22 -22 -13
right_child=2 -3 4 -5 5 -7 7 8 15 18 -12 12 -14 14 -16 -17 -18 -19 19 -21 21 -23 -24
leaf_value=-0.026477691808719898 -0.045608795662732078 -0.027525532471055963 0.022677544713055487 -0.0089513013301120194 0.030061502718802504 -0.018958537982565825 0.018802019156699948 0.016371393726125037 0.0056879874789746978 0.024323078595799536 -0.026386137424889069 -0.019604087316094334 -0.046701819568663192 0.03905811318213092 -0.027303245781331368 -0.033745115092281418 0.012692429312637751 -0.047766145834208476 0.036642233142212897 -0.031927500400741923 -0.0030693902538026828 -0.045275117037614908 0.0057261743454412352
leaf_weight=50.970949292648584 4.8892269469797602 67.306036405730993 3.9246342405676842 345.89961099205539 49.812953971326351 8.824030062183736 57.206556905061007 7.1193088646978131 153.96761910244823 16.583006141707305 47.030794957652688 14.808838579803703 3.9846721701323977 3.3650596998631981 19.830212777480483 5.9780428037047377 277.50929672084749 5.3299011141061765 3.8931098394095889 8.2679406404495221 37.044294938445091 6.8904832191765299 372.89343002811074
leaf_count=881 50 1218 11 3286 101 34 139 28 610 71 313 102 28 9 172 42 753 32 10 57 160 44 1474
internal_value=-6.6226e-05 -0.0135691 0.0055847 -0.0112023 0.00866701 0.0226847 0.00726629 0.00302371 -0.000693233 -0.0101621 -0.0207647 0.00129433 0.00179414 0.002219 -0.0176759 0.00421416 0.0117054 -0.0178926 0.00981167 -0.00997631 0.00328811 -0.0096887 0.00475865
internal_weight=1573.33 464.177 1109.15 396.871 645.447 58.637 586.81 300.046 242.84 82.8942 54.1501 463.706 458.817 454.832 23.1953 159.946 286.764 9.25454 28.7441 12.1611 431.637 43.9348 387.702
internal_count=9625 5385 4240 4167 2201 135 2066 1270 1131 479 341 2039 1989 1961 181 652 796 43 138 67 1780 204 1576
is_linear=0
shrinkage=0.03


Tree=18
num_leaves=24
num_cat=0
split_feature=15 23 4 19 19 16 0 0 16 18 1 4 22 24 18 19 18 4 14 1 5 14 12
split_gain=124.816 15.7306 15.5796 13.9175 13.0282 10.567 10.0812 12.1348 9.74639 13.0089 9.72997 10.2522 9.43099 9.20214 9.17653 9.02785 8.91711 9.61858 9.17552 8.87603 9.20496 17.0307 13.4192
threshold=1.0000000180025095e-35 0.37796717882156378 0.24759799242019656 443.00000000000006 507.00000000000006 2.3666666746139531 78.195449829101577 85.653900146484389 -5.7750000953674308 1.0000000180025095e-35 100.0904998779297 0.19591891765594485 1.0000000180025095e-35 -0.7805860936641692 111.50000000000001 527.00000000000011 75.500000000000014 0.22050463408231738 1.3166666626930239 71.288501739501967 4.5455789566040048 1.3666666746139529 113.54999923706056
decision_type=2 2 2 2 2 2 2 2 2 2 2 2 2 2 2 2 2 2 2 2 2 2 2
left_child=1 3 5 -1 14 10 -6 -8 -5 15 11 -2 -13 -9 19 -10 18 -18 -14 -4 -21 22 -22
right_child=2 -3 4 8 6 -7 7 13 9 -11 -12 12 16 -15 -16 -17 17 -19 -20 20 21 -23 -24
leaf_value=-0.025932086835125729 -0.025339533324066316 -0.026883619268906412 -0.022104640861526619 -0.0023673398889650396 0.004265572576069283 0.02717954341706609 0.028183426383033148 0.038957156742658837 -0.009067176594092197 -0.021578463787549188 0.015280005629790653 0.020011306092089287 0.0029295230886292622 0.0017263717797702987 -0.013589050745753551 0.01936693595948456 -0.034597710602700803 -0.0053815740338746879 -0.01302244298389451 0.0085716846737551849 -0.016274924615233374 0.018208724062045312 0.019126152190444133
leaf_weight=49.105578565038741 17.082197137176991 65.387674274388701 9.6624771021306497 129.67388158012182 51.433814570307732 12.337735833600162 68.396380923688412 7.1590983867645255 114.44815108459443 88.746966854669154 29.542293261736631 17.365385280922055 166.98366587795317 36.119520356878638 21.413406647741795 11.01696031168103 14.872121425345538 31.884170509874821 40.280527586117387 478.17672885861248 54.209292208775878 27.26309117116034 11.720438983291386
leaf_count=881 142 1218 59 1178 153 38 155 14 546 1527 110 49 714 131 175 35 110 174 197 1665 235 83 36
internal_value=-0.000113812 -0.013259 0.00538436 -0.010992 0.00773406 -6.08666e-05 0.0152554 0.020317 -0.00885864 -0.0127882 -0.0011177 -0.00279701 -0.00137808 0.00788504 0.00569769 -0.00657041 -0.00284031 -0.0146746 -0.000170644 0.00640849 0.00689067 -0.00173467 -0.00998162
internal_weight=1554.28 458.379 1095.9 392.992 765.554 330.348 163.109 111.675 343.886 214.212 318.01 288.468 271.386 43.2786 602.445 125.465 254.02 46.7563 207.264 581.032 571.37 93.1928 65.9297
internal_count=9625 5385 4240 4167 2706 1534 453 300 3286 2108 1496 1386 1244 145 2253 581 1195 284 911 2078 2019 354 271
is_linear=0
shrinkage=0.03


Tree=19
num_leaves=24
num_cat=0
split_feature=15 17 4 2 16 4 19 4 17 15 16 16 16 19 0 18 1 2 4 4 1 2 1
split_gain=117.384 14.1524 14.1487 15.021 11.3751 10.4457 15.0706 12.232 11.6447 9.53317 12.2204 10.8032 16.0462 10.3382 9.61071 10.3441 9.46119 12.1504 8.52057 12.2066 9.48667 12.3414 10.6968
threshold=1.0000000180025095e-35 35.819564819335945 0.19591891765594485 98.895000457763686 -9.3666663169860822 0.28802908957004553 441.00000000000006 0.31370477378368383 33.654140472412116 1.4166666865348818 -2.8999999761581416 -1.8999999761581419 1.0000000180025095e-35 473.00000000000006 79.820198059082045 48.500000000000007 106.231502532959 68.729000091552749 0.30407145619392401 0.31032775342464453 76.041000366210952 76.083999633789077 77.042999267578139
decision_type=2 2 2 2 2 2 2 2 2 2 2 2 2 2 2 2 2 2 2 2 2 2 2
left_child=1 4 3 -2 -1 9 7 -7 -9 11 14 -4 -13 -12 15 -11 17 -8 -19 -20 -21 -22 -23
right_child=2 -3 5 -5 -6 6 16 8 -10 10 13 12 -14 -15 -16 -17 -18 18 19 20 21 22 -24
leaf_value=0.0037593504991723994 -0.032727026403333401 -0.026066814389407986 0.0036247609270658489 0.043671585798399422 -0.012676442483692991 -0.045840063906397464 -0.044585085008153544 -0.060049076341823646 0.0098803147469895339 0.02433600803618699 -0.0082508627798483364 -0.015232475894355437 0.0089764901588741015 0.010230619759812655 0.034703728794509218 -0.024794802658038007 0.044432251210142895 0.018200709306998495 -0.010614430792332308 -0.010300551909002168 0.033692861427693836 -0.04360703057003306 0.010761503792003918
leaf_weight=42.584150929935277 15.318855080753567 64.297717241570354 408.64928963035345 2.7287492733448735 344.38163623097353 7.1734759286046055 3.5616861563175908 2.4796751979738501 15.79113584011793 9.9818620160222071 37.954556262120605 72.281684629619122 37.386562015861273 96.497175455093384 26.230459727346897 6.2853443697094908 7.5751497820019713 105.23800816386938 28.131866134703159 18.062271852046251 21.780647611245513 3.3238276317715636 161.6729504223913
leaf_count=333 144 1166 1670 8 3886 56 31 11 73 27 191 394 156 290 59 42 12 319 98 74 57 18 510
internal_value=-0.000169429 -0.0130334 0.00516556 -0.0211758 -0.0108677 0.00560983 0.00964692 -0.0126438 0.000389648 0.00343359 0.00944585 0.00138106 -0.00697949 0.00501346 0.0234688 0.00535278 0.0112704 0.0105354 0.0111159 0.00791555 0.0104604 0.0124681 0.00966626
internal_weight=1539.37 451.264 1088.11 18.0476 386.966 1070.06 374.791 25.4443 18.2708 695.267 176.949 518.318 109.668 134.452 42.4977 16.2672 349.346 341.771 338.21 232.972 204.84 186.777 164.997
internal_count=9625 5385 4240 152 4219 4088 1259 140 84 2829 609 2220 550 481 128 69 1119 1107 1076 757 659 585 528
is_linear=0
shrinkage=0.03


end of trees

feature_importances:
Column_17=60
Column_19=54
Column_16=48
Column_4=38
Column_15=31
Column_23=29
Column_1=25
Column_5=22
Column_3=20
Column_0=18
Column_2=18
Column_18=18
Column_24=18
Column_14=17
Column_25=9
Column_12=8
Column_7=6
Column_22=6
Column_20=5
Column_8=4
Column_11=3
Column_21=2
Column_13=1

parameters:
[boosting: gbdt]
[objective: lambdarank]
[metric: ndcg]
[tree_learner: serial]
[device_type: cpu]
[data_sample_strategy: bagging]
[data: ]
[valid: ]
[num_iterations: 800]
[learning_rate: 0.03]
[num_leaves: 24]
[num_threads: 0]
[seed: 0]
[deterministic: 0]
[force_col_wise: 0]
[force_row_wise: 0]
[histogram_pool_size: -1]
[max_depth: -1]
[min_data_in_leaf: 10]
[min_sum_hessian_in_leaf: 0.001]
[bagging_fraction: 0.8]
[pos_bagging_fraction: 1]
[neg_bagging_fraction: 1]
[bagging_freq: 5]
[bagging_seed: 3]
[bagging_by_query: 0]
[feature_fraction: 0.9]
[feature_fraction_bynode: 1]
[feature_fraction_seed: 2]
[extra_trees: 0]
[extra_seed: 6]
[early_stopping_round: 0]
[early_stopping_min_delta: 0]
[first_metric_only: 0]
[max_delta_step: 0]
[lambda_l1: 0]
[lambda_l2: 0]
[linear_lambda: 0]
[min_gain_to_split: 0]
[drop_rate: 0.1]
[max_drop: 50]
[skip_drop: 0.5]
[xgboost_dart_mode: 0]
[uniform_drop: 0]
[drop_seed: 4]
[top_rate: 0.2]
[other_rate: 0.1]
[min_data_per_group: 100]
[max_cat_threshold: 32]
[cat_l2: 10]
[cat_smooth: 10]
[max_cat_to_onehot: 4]
[top_k: 20]
[monotone_constraints: ]
[monotone_constraints_method: basic]
[monotone_penalty: 0]
[feature_contri: ]
[forcedsplits_filename: ]
[refit_decay_rate: 0.9]
[cegb_tradeoff: 1]
[cegb_penalty_split: 0]
[cegb_penalty_feature_lazy: ]
[cegb_penalty_feature_coupled: ]
[path_smooth: 0]
[interaction_constraints: ]
[verbosity: -1]
[saved_feature_importance_type: 0]
[use_quantized_grad: 0]
[num_grad_quant_bins: 4]
[quant_train_renew_leaf: 0]
[stochastic_rounding: 1]
[linear_tree: 0]
[max_bin: 255]
[max_bin_by_feature: ]
[min_data_in_bin: 3]
[bin_construct_sample_cnt: 200000]
[data_random_seed: 1]
[is_enable_sparse: 1]
[enable_bundle: 1]
[use_missing: 1]
[zero_as_missing: 0]
[feature_pre_filter: 1]
[pre_partition: 0]
[two_round: 0]
[header: 0]
[label_column: ]
[weight_column: ]
[group_column: ]
[ignore_column: ]
[categorical_feature: ]
[forcedbins_filename: ]
[precise_float_parser: 0]
[parser_config_file: ]
[objective_seed: 5]
[num_class: 1]
[is_unbalance: 0]
[scale_pos_weight: 1]
[sigmoid: 1]
[boost_from_average: 1]
[reg_sqrt: 0]
[alpha: 0.9]
[fair_c: 1]
[poisson_max_delta_step: 0.7]
[tweedie_variance_power: 1.5]
[lambdarank_truncation_level: 30]
[lambdarank_norm: 1]
[label_gain: ]
[lambdarank_position_bias_regularization: 0]
[eval_at: 1,3,5]
[multi_error_top_k: 1]
[auc_mu_weights: ]
[num_machines: 1]
[local_listen_port: 12400]
[time_out: 120]
[machine_list_filename: ]
[machines: ]
[gpu_platform_id: -1]
[gpu_device_id: -1]
[gpu_use_dp: 0]
[num_gpu: 1]

end of parameters

pandas_categorical:null
