tree
version=v4
num_class=1
num_tree_per_iteration=1
label_index=0
max_feature_idx=25
objective=lambdarank
feature_names=speed_idx_weighted speed_idx_best speed_idx_last shrunk_win_rate shrunk_show_rate effective_starts same_distance_count same_surface_count same_venue_count same_going_count same_going_show_rate going_versatility best_time_at_target best_time_runs weight_kg_delta recent_form_score popularity_outperformance last3f_idx_recent days_since_last_run body_weight body_weight_diff big_weight_change jockey_change style_score pace_fit weight_kg
feature_infos=[0:107.88499999999999] [0:115.91] [0:113.7] [0.027644444444444444:0.40610000000000002] [0.082933333333333331:0.64577777777777778] [0:5] [0:5] [0:5] [0:5] none none [0:1] [0:291.80000000000001] [0:5] [-7.6000000000000014:6] [0:3] [-17:15] [0:53.197094333663529] [0:1006] [0:604] [-47:59] [0:1] [0:1] [-1:1] [-1:1] [49:63]
tree_sizes=2756 2732 2743 2752 2757 2725 2731 2749 2751 2743 2750 2754 2743 2747 2738 2732 2754 2740 2750 2753 2753 2754 2757 2748 2755 2755 2750 2759 2744 2754 2732 2740 2734 2748 2723 2744 2763 2754 2751 2748 2747 2743 2749 2741 2746 2758 2747 2756 2755 2739 2746 2752 2741 2759 2758 2760 2750 2738 2739 2757 2759 2743 2745 2749 2745 2760 2752 2764 2750 2755 2758 2770 2769 2749 2748 2733 2737 2737 2740 2751 2762 2747 2740 2749 2753 2760 2760 2729 2731 2748 2730 2730 2745 2741 2740 2735 2750 2745 2743 2735 2746 2729 2747 2721 2730 2740 2753 2740 2749 2742 2743 2741 2741 2742 2728 2759 2723 2730 2738 2751 2751 2738 2734 2735 2730 2737 2727 2743 2750 2739 2751 2733 2746 2751 2726 2737 2747 2752 2724 2748 2721 2730 2724 2720 2730 2725 2747 2742 2731 2734 2729 2734 2727 2737 2740 2724 2744 2716 2736 2721 2727 2747 2721 2713 2718 2712 2727 2755 2707 2705 2708 2710 2730 2731 2737 2729 2713 2722 2745 2728 2738 2729 2735 2724 2720 2713 2700 2755 2744 2727 2723 2713 2731 2744 2746 2762 2723 2716 2714 2734 2715 2740 2728

Tree=0
num_leaves=24
num_cat=0
split_feature=15 16 15 8 15 19 15 16 19 8 16 19 3 22 1 8 15 16 23 17 3 1 19
split_gain=1030.02 180.303 144.359 66.208 93.4881 44.7438 40.9404 37.577 30.2317 26.7499 26.6048 22.4703 19.2487 18.6341 15.9683 15.408 14.2672 13.3451 13.0644 12.5946 12.4309 12.3612 11.5816
threshold=0.41666666666666669 -3.6333333333333329 1.5833333333333337 1.0000000180025095e-35 1.0000000180025095e-35 457.50000000000006 1.0000000180025095e-35 -2.2249999999999996 438.50000000000006 4.5000000000000009 -5.8999999999999995 444.50000000000006 0.082471687857640461 1.0000000180025095e-35 69.976500000000016 1.0000000180025095e-35 2.5833333333333335 -2.2916666666666665 0.47570028011204485 35.764990114630422 0.072034666427931923 69.976500000000016 473.50000000000006
decision_type=2 2 2 2 2 2 2 2 2 2 2 2 2 2 2 2 2 2 2 2 2 2 2
left_child=1 6 5 11 7 18 8 -5 -1 21 -10 -3 14 16 -13 20 -4 -6 -2 -8 -12 -7 -15
right_child=2 3 13 4 17 9 19 -9 10 -11 15 12 -14 22 -16 -17 -18 -19 -20 -21 -22 -23 -24
leaf_value=-0.024984666357572193 0.0025182979526637657 -0.027227019902202027 0.029599438917517092 -0.025492658112863234 -0.0020761286860283895 0.0056504035819547119 0.021892278697348243 -0.041146227241544632 0.0023546314161289983 0.0060994555559035248 -0.027865250571616224 -0.00087745689735850346 0.0040571908302652242 0.013482446286744597 -0.027023461553426876 -0.01533220155473272 0.043684833394082752 -0.01754453720893966 -0.019391951864894393 0.0027827690342963405 0.0064176736298009211 0.019326523311938525 0.027223903734962106
leaf_weight=82.000806432683021 285.63710763351992 54.616019163513556 258.06918293377385 231.87617750279605 83.346752993064001 67.637482622871175 52.575966038974002 340.97654268983752 225.30651457305066 264.20230772858486 11.365736403968183 37.374712852528319 94.669423844665289 86.791705844691023 48.05092059308663 218.28348555439152 86.384759496897459 126.20523702003993 26.789858401287347 75.781415159581229 58.583749874960631 493.24220150650945 151.65770070534199
leaf_count=1536 3737 1058 2307 3991 1142 813 619 6494 3297 3203 250 603 1222 1050 879 3504 570 1958 417 993 782 5321 1467
internal_value=6.67456e-05 -0.0162011 0.0165294 -0.0243458 -0.028538 0.0103086 -0.00475739 -0.0348101 -0.00806957 0.0139699 -0.0053686 -0.0103712 -0.00525947 0.0286691 -0.0155843 -0.0114057 0.0331319 -0.0113922 0.000639547 0.0106101 0.000847216 0.0176773 0.0222222
internal_weight=3461.43 1741.01 1720.41 1017.12 782.405 1137.51 723.898 572.853 595.54 825.082 513.539 234.711 180.095 582.903 85.4256 288.233 344.454 209.552 312.427 128.357 69.9495 560.88 238.449
internal_count=47213 28328 18885 17347 13585 13491 10981 10485 9369 9337 7833 3762 2704 5394 1482 4536 2877 3100 4154 1612 1032 6134 2517
is_linear=0
shrinkage=0.03


Tree=1
num_leaves=24
num_cat=0
split_feature=15 15 8 17 4 16 16 4 17 18 8 4 4 19 19 15 2 19 17 5 7 4 12
split_gain=2140.23 477.814 399.75 194.384 142.131 119.66 110.87 106.245 98.393 94.5368 93.0688 107.907 75.1536 68.2425 67.7307 60.4417 55.2529 54.438 54.2235 52.5456 58.223 49.5334 44.7905
threshold=0.41666666666666669 1.8333333333333337 4.5000000000000009 37.129667504179615 0.23609686364098861 -4.2916666666666652 -1.0999999999999999 0.2880175544659283 35.992878864133438 21.500000000000004 4.5000000000000009 0.29605959947222094 0.27784079182363591 450.50000000000006 493.50000000000006 2.4166666666666674 58.438000000000009 436.50000000000006 35.082821446691312 0.60648134504122553 3.5000000000000004 0.32292496843259549 55.350000000000001
decision_type=2 2 2 2 2 2 2 2 2 2 2 2 2 2 2 2 2 2 2 2 2 2 2
left_child=2 3 4 10 8 -4 12 -7 -1 18 14 -12 -5 -3 19 -15 -14 -11 -6 -2 -21 -8 -17
right_child=1 13 5 6 9 7 21 -9 -10 17 11 -13 16 15 -16 22 -18 -19 -20 20 -22 -23 -24
leaf_value=-0.0099584471007538033 -0.014806097305805626 0.0070575235046992854 -0.013441447174377992 -0.0072910508820873739 -0.00073651274378940792 -0.034989906424255229 -0.022271262174482456 -0.010789284712636481 -0.027075837095487078 -0.017592741690970727 -0.010666637937794978 0.0081475156713724881 -0.020040574976451946 0.019639747506704729 0.017803086925409935 0.018353631782907963 0.0086430782838825427 0.0030713553999668157 -0.015284533513942582 0.018723234514089315 0.0064006370050431957 -0.0028310368481122574 0.035706709277372101
leaf_weight=695.38132037222385 84.118383750319481 257.27316632401198 454.32690437976271 545.06375900655985 323.60401762835681 1088.8566351858899 305.32771541923285 192.065309708938 534.55211029574275 128.04631227720529 408.92644580081105 833.73992058634758 64.871134959161282 1254.4818894956261 1063.4787637628615 186.08130313083529 884.95708654820919 1104.0755267534405 802.12579281721264 457.82862518867478 1401.4034891659394 192.22581402212381 477.08291439712048
leaf_count=4330 277 514 1982 1437 1188 7245 912 911 3367 831 1305 1987 188 1940 2212 295 1963 4403 4071 1099 3727 457 572
internal_value=4.06309e-05 0.00945659 -0.014848 0.00523732 -0.00913056 -0.0266694 -0.00249423 -0.0313612 -0.017398 -0.004818 0.00886239 0.00195631 0.00158848 0.0215657 0.0117165 0.0235122 0.00668405 0.000923872 -0.0111025 0.00838575 0.00943503 -0.0147607 0.0308375
internal_weight=13739.9 8416.86 5323.03 6241.94 3587.79 1735.25 1992.45 1280.92 1229.93 2357.85 4249.5 1242.67 1494.89 2174.92 3006.83 1917.65 949.828 1232.12 1125.73 1943.35 1859.23 497.554 663.164
internal_count=47213 18885 28328 15564 18190 10138 4957 8156 7697 10493 10607 3292 3588 3321 7315 2807 2151 5234 5259 5103 4826 1369 867
is_linear=0
shrinkage=0.03


Tree=2
num_leaves=24
num_cat=0
split_feature=15 15 8 16 15 8 15 15 16 4 17 4 5 25 4 16 4 20 16 2 17 19 4
split_gain=1749.79 389.48 308.628 292.19 114.99 113.026 107.997 106.5 87.0602 76.5572 65.8039 62.4406 60.5582 56.5116 55.7452 52.9618 46.5413 44.635 44.0526 39.8571 37.435 35.1331 48.5775
threshold=0.41666666666666669 1.1666666666666667 1.0000000180025095e-35 -2.3666666666666663 2.1666666666666674 3.5000000000000004 1.0000000180025095e-35 1.0000000180025095e-35 -4.708333333333333 0.30478586294250382 37.160551488508482 0.23772584909365901 4.971541858332813 53.500000000000007 0.19542570188139693 -1.8999999999999997 0.23609686364098861 9.5000000000000018 0.77500000000000013 76.454750000000004 34.984132428014796 476.50000000000006 0.27492178366699166
decision_type=2 2 2 2 2 2 2 2 2 2 2 2 2 2 2 2 2 2 2 2 2 2 2
left_child=2 5 11 7 10 12 -5 8 -4 15 -3 -1 14 -13 -2 19 -10 -15 -6 -7 -9 -16 -23
right_child=1 4 3 6 18 9 -8 20 16 -11 -12 13 -14 17 21 -17 -18 -19 -20 -21 -22 22 -24
leaf_value=-0.011015539659212316 -0.033328538988483196 0.014090152385124063 -0.0097870734118232355 -0.038501162140480591 0.025508801702986004 -0.0083769392698915483 -0.017917930428763565 0.014105879241473693 -0.031332768341903502 0.0039866305190900744 0.0031069059871500155 -0.025712182517050732 -0.011139176642016389 0.00089747518343437013 0.0037091387918729139 -0.019929295748095519 -0.01752928626562739 0.019009700783905119 0.0078898286580278421 0.011372033837373582 -0.0057425117572905858 0.0053260478206389964 0.018024830005670837
leaf_weight=515.24467530427501 30.010931175202131 2438.2645378708839 782.53592342929915 754.75837765820324 959.88158229924738 527.87089416570961 329.6042518876493 104.6599256824702 386.5210504103452 569.14271658286452 614.71874723397195 61.236805087886751 174.40161054953933 681.9283044571057 970.52751097269356 317.27607328630984 509.78434872999787 149.25633789412677 147.32011770457029 111.37862790562212 467.64819631259888 551.74976157024503 533.03367636352777
leaf_count=3330 127 5082 4330 6588 1380 1723 1965 386 3050 1485 1367 381 566 2651 2886 1244 3229 393 283 319 2025 1350 1073
internal_value=-6.09626e-05 0.00854653 -0.0144799 -0.0194512 0.0148823 0.00158344 -0.0322447 -0.0132887 -0.0170985 -0.00472545 0.0118787 -0.00270014 0.00584293 0.0021008 0.00726319 -0.00990923 -0.0234819 0.0041499 0.0231645 -0.00493601 -0.00211277 0.0078559 0.0115659
internal_weight=12688.8 7945.58 4743.18 3335.51 4160.18 3785.39 1084.36 2251.15 1678.84 1525.67 3052.98 1407.67 2259.72 892.421 2085.32 956.526 896.305 831.185 1107.2 639.25 572.308 2055.31 1084.78
internal_count=47213 18885 28328 21573 8112 10773 8553 13020 10609 4771 6449 6755 6002 3425 5436 3286 6279 3044 1663 2042 2411 5309 2423
is_linear=0
shrinkage=0.03


Tree=3
num_leaves=24
num_cat=0
split_feature=15 15 8 16 17 16 23 15 19 4 4 19 4 4 16 4 16 18 19 24 18 17 4
split_gain=1457.34 286.487 269.554 124.618 113.641 93.3119 92.9781 83.4788 74.2287 63.3776 52.8664 51.4737 48.2307 46.3849 45.7696 53.604 45.4916 44.8967 43.2456 40.1042 38.845 37.9374 38.1182
threshold=0.41666666666666669 1.4166666666666667 4.5000000000000009 -3.7749999999999995 35.740817965588612 -1.5499999999999998 0.056969696969696983 2.4166666666666674 476.50000000000006 0.2465885216914451 0.23901907160784011 437.50000000000006 0.24257630444791792 0.24944252128453373 -3.0999999999999996 0.30967426674018145 1.1000000000000003 75.500000000000014 470.50000000000006 -0.031262626262626256 100.50000000000001 37.409955854199517 0.24738426569563896
decision_type=2 2 2 2 2 2 2 2 2 2 2 2 2 2 2 2 2 2 2 2 2 2 2
left_child=2 4 3 11 17 9 19 16 14 -4 -9 -1 -8 -10 -6 -16 20 -2 -12 -5 -3 22 -13
right_child=1 7 5 6 8 -7 12 10 13 -11 18 21 -14 -15 15 -17 -18 -19 -20 -21 -22 -23 -24
leaf_value=-0.019100607719101759 0.012863091713004888 0.014544182607846951 -0.027238708696830559 -0.017653339110951037 0.0024736024444699562 -0.038343225686620706 -0.031078424899600391 -0.018852991539563442 -0.012965688059759435 -0.012680576469531926 0.012385738831831715 -0.0025854273958221233 -0.01551716205976532 0.0062264474927480494 -0.013935513327251159 -7.9790719903782942e-05 -0.0055006218952760276 -0.00068310267987162319 0.030748598369532094 -0.0032330257764624005 0.00051784303158808115 -0.0097446676586544212 0.0091681933884890342
leaf_weight=151.47266611922532 1119.3301778361201 2120.8033337611705 558.35477575473487 251.37333712819964 533.48596151918173 335.2707819826901 324.24692879617214 24.309276714920998 123.49944265186787 519.57255766540766 152.96191300824285 619.76994681917131 400.88112173136324 1377.3816285356879 621.07247761636972 422.06648867204785 120.9983524940908 274.1316200196743 470.3708266094327 560.81994620570913 193.95187216997147 316.58648152835667 414.35682299360633
leaf_count=1143 3173 3923 4130 2015 1582 2998 3063 66 438 3010 280 3712 2428 3596 2387 1210 294 882 652 2628 402 1505 1696
internal_value=-8.21468e-05 0.00794196 -0.0136957 -0.00866261 0.00309032 -0.0245208 -0.0146673 0.0149769 -0.000128048 -0.0202215 0.0245498 -0.00251748 -0.0224755 0.00464723 -0.00467391 -0.00832932 0.0124316 0.0101982 0.0262425 -0.0076961 0.0133689 -0.000657798 0.00212405
internal_weight=12007.1 7554.36 4452.71 3039.51 4470.97 1413.2 1537.32 3083.4 3077.51 1077.93 647.642 1502.19 725.128 1500.88 1576.62 1043.14 2435.75 1393.46 623.333 812.193 2314.76 1350.71 1034.13
internal_count=47213 18885 28328 18190 13268 10138 10134 5617 9213 7140 998 8056 5491 4034 5179 3597 4619 4055 932 4643 4325 6913 5408
is_linear=0
shrinkage=0.03


Tree=4
num_leaves=24
num_cat=0
split_feature=15 15 8 16 8 15 15 4 16 19 19 19 15 4 16 5 19 4 22 20 16 17 24
split_gain=1245.22 280.766 252.446 216.75 122.523 87.345 78.5908 72.4424 68.1618 61.3592 57.3997 54.9863 51.7791 46.1508 44.5316 42.5466 40.3647 34.5916 33.0223 32.8621 31.7977 44.1092 31.7588
threshold=0.41666666666666669 1.8333333333333337 1.0000000180025095e-35 -2.3666666666666663 3.5000000000000004 1.0000000180025095e-35 1.0000000180025095e-35 0.28623928739933685 -4.708333333333333 437.50000000000006 472.50000000000006 450.50000000000006 2.4166666666666674 0.23772584909365901 -0.44999999999999996 4.9395272661585166 461.50000000000006 0.23609686364098861 1.0000000180025095e-35 9.5000000000000018 -1.7749999999999997 35.181835956305697 0.39813852813852818
decision_type=2 2 2 2 2 2 2 2 2 2 2 2 2 2 2 2 2 2 2 2 2 2 2
left_child=2 4 9 6 10 -5 8 20 -4 -1 15 -3 -13 -11 16 -2 -9 -10 -14 -15 -6 -22 -12
right_child=1 11 3 5 7 -7 -8 14 17 13 22 12 18 19 -16 -17 -18 -19 -20 -21 21 -23 -24
leaf_value=-0.020857654201784856 0.0043387031936380502 0.0034122556861186874 -0.0094146952529999516 -0.036739147414317795 -0.0057184772818268939 -0.016437633657276809 -0.0026159932784079695 -0.0037336400942383379 -0.029862492969450843 -0.0080263618866938773 0.01193088147820837 0.015522168402499101 0.031976625197330168 0.0013700550820946638 -0.0085616775237415017 -0.016529287516391392 0.0079556947503810239 -0.016966196794257565 0.016336289298568334 0.016911108921537469 0.021342847695147351 -0.025547345750763263 -0.0051484933300398501
leaf_weight=140.23104167915881 1195.1608035601676 226.17924719303846 716.28303029574454 607.26681489404291 475.49336761422455 278.06850420311093 528.25185761041939 379.17892340570688 317.42923441529274 405.6333996267058 1799.0361637603492 1138.4357084669173 364.05296595394611 607.34355910401791 290.33204327151179 94.915083529427648 889.68125772848725 456.23392330948263 182.35027459263802 153.38009383156896 20.285937312990427 164.20932901743799 103.6298340074718
leaf_count=1259 3752 514 4330 6588 1741 1965 2411 1168 3050 2653 4218 1940 525 2461 876 392 2219 3229 342 382 60 843 295
internal_value=-5.86069e-05 0.00741578 -0.0130593 -0.0179872 0.00392512 -0.0303628 -0.0125584 -0.00148914 -0.0160834 -0.00210834 0.00768841 0.0173012 0.0191657 0.000145891 0.00203733 0.00280338 0.00446252 -0.0222575 0.026757 0.0045035 -0.00982025 -0.0203916 0.0110006
internal_weight=11533.1 7322.94 4210.12 2903.53 5411.92 885.335 2018.2 2219.18 1489.95 1306.59 3192.74 1911.02 1684.84 1166.36 1559.19 1290.08 1268.86 773.663 546.403 760.724 659.989 184.495 1902.67
internal_count=47213 18885 28328 21573 15564 8553 13020 6907 10609 6755 8657 3321 2807 5496 4263 4144 3387 6279 867 2843 2644 903 4513
is_linear=0
shrinkage=0.03


Tree=5
num_leaves=24
num_cat=0
split_feature=15 23 15 17 17 4 8 4 4 19 8 4 19 4 6 4 8 22 7 19 24 15 7
split_gain=1113.61 250.394 182.669 138.627 127.631 88.6326 79.174 71.952 70.3525 65.0362 49.4405 44.0872 42.8554 42.2363 41.383 40.895 40.229 40.118 40.4529 32.7522 30.5407 30.2108 29.4689
threshold=0.83333333333333337 0.050831390831390856 2.1666666666666674 37.42830647981463 37.022489311880769 0.31157925834176375 4.5000000000000009 0.2465885216914451 0.23825323753101138 500.50000000000006 3.5000000000000004 0.24738426569563896 458.50000000000006 0.20303537967729543 3.5000000000000004 0.25520426183407663 3.5000000000000004 1.0000000180025095e-35 1.5000000000000002 426.50000000000006 0.076277056277056277 2.4166666666666674 4.5000000000000009
decision_type=2 2 2 2 2 2 2 2 2 2 2 2 2 2 2 2 2 2 2 2 2 2 2
left_child=1 3 5 7 8 6 9 -1 -3 19 -10 -6 20 -11 16 -5 -7 21 -19 -2 -9 -4 -14
right_child=2 4 17 15 11 14 -8 12 10 13 -12 -13 22 -15 -16 -17 -18 18 -20 -21 -22 -23 -24
leaf_value=-0.0067593530537326989 -0.017371327295210348 -0.020611642069534138 0.017533213872526387 -0.019007902382809541 -0.03177696240050331 0.020584980640653915 -0.0064889830451703859 -0.0071916166725646807 -0.00042518001829761922 -0.046935177675356148 -0.01470517309016975 -0.018946075413641874 0.014268756665013566 0.016475981375000805 0.0075965376025162448 -0.0075171596845642445 0.0081558813913853844 -0.017760754107417034 0.016651133457917501 0.0039267768908026754 0.021328057759152929 0.031057613870919713 0.003768610249072091
leaf_weight=771.56266462802887 68.370250925421715 447.60149580053985 238.52467365562916 482.38927340693772 465.6873742621392 648.06615326739848 567.11316093523055 322.12871434073895 550.14001616183668 9.6314000114798528 361.65358880534768 499.55444941669703 393.73781099170446 512.11167695559561 1050.5280214287341 660.32195730879903 367.14679942280054 34.092311378568411 313.14096748828888 1311.7700533214957 37.75413516163826 394.52184984833002 618.32158127520233
leaf_count=5052 301 4349 380 3321 4299 1299 2027 1730 2684 45 2265 2807 1112 1111 2545 3093 877 116 580 3930 106 611 2519
internal_value=0.000150626 -0.00925918 0.00972394 -0.00392891 -0.0167943 0.00718543 0.00334907 0.000569951 -0.0108709 0.00628263 -0.00608919 -0.0251364 0.00469186 0.0153054 0.0117707 -0.0123679 0.0160901 0.021467 0.0132725 0.0028717 -0.00419971 0.0259618 0.00785365
internal_weight=11125.9 5610.85 5515.02 3286.22 2324.64 4534.74 2469 2143.5 1359.4 1901.88 911.794 965.242 1371.94 521.743 2065.74 1142.71 1015.21 980.28 347.233 1380.14 359.883 633.047 1012.06
internal_count=47159 33337 13822 16933 16404 12135 7414 10519 9298 5387 4949 7106 5467 1156 4721 6414 2176 1687 696 4231 1836 991 3631
is_linear=0
shrinkage=0.03


Tree=6
num_leaves=24
num_cat=0
split_feature=15 15 16 8 15 17 19 16 22 14 18 15 16 2 19 15 3 14 13 15 6 17 2
split_gain=1064.29 268.271 204.914 159.694 113.358 105.051 71.0905 59.97 48.8445 45.6833 45.6419 45.1566 43.2062 37.1259 35.7003 35.691 35.1113 31.5762 31.5399 29.8138 32.1958 29.7018 29.3579
threshold=0.41666666666666669 1.8333333333333337 -4.708333333333333 1.0000000180025095e-35 1.0000000180025095e-35 35.740817965588612 458.50000000000006 -2.3666666666666663 1.0000000180025095e-35 0.35416666666666791 119.50000000000001 2.4166666666666674 -1.4499999999999997 59.268000000000008 462.50000000000006 1.1666666666666667 0.11218104807718483 -1.0500000000000005 4.5000000000000009 1.5833333333333337 2.5000000000000004 36.396465272612069 83.82850000000002
decision_type=2 2 2 2 2 2 2 2 2 2 2 2 2 2 2 2 2 2 2 2 2 2 2
left_child=2 5 9 14 7 22 15 -5 11 10 -1 21 13 -8 -4 -7 -14 18 -10 20 -15 -3 -2
right_child=1 8 3 4 -6 6 12 -9 17 -11 -12 -13 16 19 -16 -17 -18 -19 -20 -21 -22 -23 -24
leaf_value=-0.0091346187667933794 0.012497688779056522 0.022343103199806338 -0.014282275841487198 -0.021241902524529978 -0.01100862401959727 -0.010129343907045674 -0.012062171581952554 -0.03447727562955321 -0.03254526438410188 0.0047375207874600011 0.017720384340236494 0.029666449149875082 -0.0060296817535051665 0.011402777620425819 -0.0011840749760489246 0.0021372773653062643 0.0097117521832773245 0.012607931008318848 0.039282547097527383 0.017049219884612551 0.0018621073796739414 0.0099217573781897484 0.003823195214939153
leaf_weight=694.64739419706166 1188.169227162376 390.07244466990232 292.31214698636904 715.96483397949487 591.22827321477234 650.03054248541594 94.70154832303524 540.86530819162726 26.109881386160851 502.27629299648106 62.045578833669424 379.94423019886017 573.50893582776189 518.07359155267477 521.21177943563089 317.8688968475908 163.99234498851001 676.99661746248603 6.9709013700485221 238.5443599820137 825.68328829295933 311.70313077419996 498.44496930763125
leaf_count=4238 3281 643 2130 6354 3628 2761 318 6527 74 2718 244 611 1891 1357 2414 900 447 1416 10 465 2505 582 1645
internal_value=0.000219875 0.00734513 -0.012249 -0.0169661 -0.0218416 0.00381815 0.000768461 -0.0269376 0.017323 -0.00227672 -0.00693262 0.0213361 0.00352215 0.00618346 -0.00589047 -0.00610085 -0.00252938 0.0112095 -0.0174094 0.00727547 0.00554043 0.016826 0.00993412
internal_weight=10781.4 6860.81 3920.55 2661.58 1848.06 5069.02 3382.4 1256.83 1791.8 1258.97 756.693 1081.72 2414.5 1677 813.524 967.899 737.501 710.077 33.0808 1582.3 1343.76 701.776 1686.61
internal_count=47159 18906 28253 21053 16509 15570 10644 12881 3336 7200 4482 1836 6983 4645 4544 3661 2338 1500 84 4327 3862 1225 4926
is_linear=0
shrinkage=0.03


Tree=7
num_leaves=24
num_cat=0
split_feature=15 15 8 4 8 15 16 4 16 4 16 19 16 19 19 1 22 16 18 8 12 1 14
split_gain=951.136 260.125 190.612 91.8069 90.6455 89.5706 63.9666 63.6738 63.0128 62.8263 51.0841 49.1064 45.4543 43.7509 38.6052 38.3952 36.2296 34.1944 33.0669 30.8815 29.416 29.091 28.1339
threshold=0.41666666666666669 1.1666666666666667 4.5000000000000009 0.24711958102207757 1.5000000000000002 2.4166666666666674 -4.2916666666666652 0.27932041722874928 -4.7749999999999995 0.25570739622492294 -4.0999999999999988 429.50000000000006 -1.7749999999999997 443.50000000000006 448.50000000000006 66.494500000000016 1.0000000180025095e-35 -3.0999999999999996 5.5000000000000009 1.0000000180025095e-35 71.450000000000017 64.339000000000013 -1.9374999999999998
decision_type=2 2 2 2 2 2 2 2 2 2 2 2 2 2 2 2 2 2 2 2 2 2 2
left_child=2 4 3 8 20 13 -4 12 14 -8 -5 -9 -6 -3 -1 -13 -7 -17 -10 -12 -2 -15 -16
right_child=1 5 6 10 7 16 9 11 18 -11 19 15 -14 21 22 17 -18 -19 -20 -21 -22 -23 -24
leaf_value=-0.023030063646543367 0.0038894477077415393 0.00037326385771756736 -0.010357438424430855 0.0057159735405658118 -0.0056586579894273665 0.029239136821950739 -0.033142347309936315 -0.019980194719543577 -0.0048984191097891025 -0.016776057275787386 -0.00061350589023611082 -0.013131367114216062 -0.02230541786639316 -0.0069548445106052985 -0.03597384837082851 0.012994147998685611 0.012733671129908463 0.001035628191729542 -0.021532680168699334 -0.012483275535814752 0.014003044035562663 0.012330026813085574 -0.00033238026563169103
leaf_weight=93.018547366373241 731.97257935814559 338.98305747099221 320.19734029471874 514.25989596638829 652.9179541002959 362.11883792281151 488.16548304632306 88.995939075946808 130.37751513207331 371.9333480335772 402.22108578588814 115.24231710284948 190.75355573371053 72.347391039133072 20.847070613875985 330.51661144383252 178.7776742503047 616.80285238474607 614.41250029252842 387.13838149467483 400.42132524214685 2614.2570356000215 454.31945702806115
leaf_count=811 2382 976 1961 2339 2489 611 5396 408 676 2810 1758 440 1028 190 204 893 404 2085 6512 2965 1097 5903 2821
internal_value=0.000198431 0.00700145 -0.0117956 -0.00728114 0.000686376 0.0125395 -0.0218038 -0.00316122 -0.0128805 -0.0260651 -0.0016416 0.00142599 -0.00942248 0.0105293 -0.00535596 0.00321889 0.0237837 0.00520792 -0.0186208 -0.00643499 0.00746568 0.0118107 -0.00189609
internal_weight=10491 6694.11 3796.89 2616.59 3127.62 3566.48 1180.3 1995.23 1312.98 860.099 1303.62 1151.56 843.672 3025.59 568.185 1062.56 540.897 947.319 744.79 789.359 1132.39 2686.6 475.167
internal_count=47159 18906 28253 18086 10822 8084 10167 7343 11024 8206 7062 3826 3517 7069 3836 3418 1015 2978 7188 4723 3479 6093 3025
is_linear=0
shrinkage=0.03


Tree=8
num_leaves=24
num_cat=0
split_feature=15 15 8 17 23 23 16 16 19 4 4 19 22 15 17 25 4 18 17 4 23 17 3
split_gain=865.674 225.355 174.419 90.7946 83.5947 69.8491 58.8773 55.1569 47.8117 47.3986 45.4032 44.1168 42.9975 42.8572 42.5875 42.0697 32.2092 43.0386 38.3803 31.9339 31.5545 29.1167 29.0475
threshold=0.41666666666666669 1.8333333333333337 4.5000000000000009 35.740817965588612 0.050831390831390856 -0.17057387057387055 -1.5499999999999998 -2.5499999999999994 418.50000000000006 0.25520426183407663 0.2465885216914451 486.50000000000006 1.0000000180025095e-35 2.4166666666666674 37.409955854199517 53.500000000000007 0.24711958102207757 36.500000000000007 38.175567039908138 0.27932041722874928 0.82253968253968257 33.661610548877228 0.08397418324812457
decision_type=2 2 2 2 2 2 2 2 2 2 2 2 2 2 2 2 2 2 2 2 2 2 2
left_child=2 3 4 9 15 11 10 -6 -7 21 -4 -5 13 -3 19 -1 -17 18 -18 -10 -21 -2 -11
right_child=1 12 6 5 7 8 -8 -9 14 22 -12 -13 -14 -15 -16 16 17 -19 -20 20 -22 -23 -24
leaf_value=-0.020750712682204565 0.013237396937203305 0.015619736597558206 -0.024380668694326549 0.00054878785439534887 -0.0083234793030618221 -0.029309736085705043 -0.033898407722425201 -0.022725787028367566 -0.0084390990988398324 0.018543169864744465 -0.010721840326845235 0.010040863544003558 0.010370554695570348 0.028627285223262498 -0.0123743273533527 -0.0061868299730453505 0.0019972237675854898 0.013243743493745186 -0.018435959624256832 0.0041345607175303908 -0.057864676290904575 -0.0027995583905840861 0.0087134661167171217
leaf_weight=107.63206508290023 140.62347021512687 664.61766186729074 436.62422944232821 1096.0170180592686 636.57773351296782 66.886769583448768 255.39438395947218 383.4926950186491 289.53947862796485 450.03181946463883 439.50125602632761 737.01768553629518 690.44878331199288 346.98835937678814 344.25894016772509 657.0572730419226 426.25555748678744 244.87122881691903 102.6583428774029 673.63592222519219 7.4700029939413062 369.94569772668183 678.46758167818189
leaf_count=968 466 1225 4185 3710 4694 340 2973 3970 1272 1114 3009 1952 1500 611 1324 4733 1984 1091 646 2014 32 1343 2003
internal_value=0.000207189 0.00674934 -0.0114159 0.00345567 -0.00707845 0.000525956 -0.0212236 -0.013738 -0.0045672 0.00920195 -0.0175288 0.00436532 0.0161422 0.0200814 -0.00330859 -0.0026629 -0.00130229 0.00284541 -0.00196871 -9.32504e-05 0.00345459 0.00161742 0.0126334
internal_weight=10246 6555.95 3690.06 4853.89 2558.54 3214.83 1131.52 1020.07 1381.79 1639.07 876.125 1833.03 1702.05 1011.61 1314.9 1538.47 1430.84 773.785 528.914 970.645 681.106 510.569 1128.5
internal_count=47159 18906 28253 15570 18086 10644 10167 8664 4982 4926 7194 5662 3336 1836 4642 9422 8454 3721 2630 3318 2046 1809 3117
is_linear=0
shrinkage=0.03


Tree=9
num_leaves=24
num_cat=0
split_feature=15 15 8 8 4 17 16 23 4 4 17 17 6 22 15 19 16 17 19 17 16 2 25
split_gain=784.899 192.469 162.06 89.9171 80.3737 64.4515 57.0609 55.961 52.1176 48.7187 56.949 46.2673 41.372 40.5165 45.4934 38.8338 38.1924 37.7214 32.6474 32.5634 31.506 31.4488 30.1831
threshold=0.41666666666666669 1.8333333333333337 4.5000000000000009 3.5000000000000004 0.2370960748740919 37.57282255118367 -4.2916666666666652 -0.24561383061383055 0.25570739622492294 0.24427333597101727 36.944487506951525 33.870105089357857 3.5000000000000004 1.0000000180025095e-35 2.4166666666666674 433.50000000000006 -3.7749999999999995 37.409955854199517 493.50000000000006 37.715352371099883 -1.0999999999999999 1.0000000180025095e-35 53.500000000000007
decision_type=2 2 2 2 2 2 2 2 2 2 2 2 2 2 2 2 2 2 2 2 2 2 2
left_child=2 3 4 9 16 15 -4 19 -8 11 22 -2 18 14 -3 -6 -1 -9 -12 -5 -7 -18 -11
right_child=1 13 6 7 5 20 8 17 -10 10 12 -13 -14 -15 -16 -17 21 -19 -20 -21 -22 -23 -24
leaf_value=-0.0087663183107434747 0.0092818758728457264 0.014509799456395155 -0.00949233120882856 0.0067189433934725044 -0.016678499776053766 -0.0098615263842783095 -0.031651839922633644 -0.003923834404145665 -0.016138933929043312 -0.0081812819113913898 0.00187793901074655 -0.01310695137492982 -0.0071870650267534218 0.00960984349395347 0.028109936716451015 0.0020723115972270056 -0.0061671832368220651 -0.019259631359277961 0.019108406710127302 -0.0060083262718848814 -0.033893331496374517 -0.026738230722674228 0.012057830477558757
leaf_weight=463.65036984253675 141.75176825560629 653.95701453462243 298.37769931927323 714.53952410444617 108.95295046642423 381.64355760067701 446.78722985647619 778.7931715734303 345.74656942393631 69.071393776684999 332.04990071989596 200.67522853240371 302.86144983954728 682.44992159679532 334.63618881255388 1134.4287750357762 88.302673313766718 177.19320240244269 140.99128464981914 242.27134941332042 56.346853710711002 275.77192346611992 1662.8693395834416
leaf_count=3811 461 1225 1961 2262 984 2356 5396 2948 2810 260 1050 926 1075 1500 611 6206 499 829 301 892 548 3682 4566
internal_value=0.000195939 0.00647213 -0.0110212 0.00339881 -0.00682412 -0.00305682 -0.0206744 -0.00163281 -0.0248843 0.00677549 0.0082248 -0.00383883 0.00147055 0.0152322 0.0191134 0.000429247 -0.0144767 -0.00676634 0.00701353 0.00349631 -0.0129532 -0.0217489 0.0112507
internal_weight=10034.1 6434.11 3600.01 4763.07 2509.1 1681.37 1090.91 1912.8 792.534 2850.27 2507.84 342.427 775.903 1671.04 988.593 1243.38 827.725 955.986 473.041 956.811 437.99 364.075 1731.94
internal_count=47159 18906 28253 15570 18086 10094 10167 6931 8206 8639 7252 1387 2426 3336 1836 7190 7992 3777 1351 3154 2904 4181 4826
is_linear=0
shrinkage=0.03


Tree=10
num_leaves=24
num_cat=0
split_feature=15 15 8 16 4 17 4 19 15 16 16 11 17 17 4 2 16 23 22 16 19 11 16
split_gain=746.084 164.645 153.704 97.062 77.4004 76.5809 64.8742 45.584 46.6621 44.8995 37.4838 35.4829 34.7756 34.3714 33.4364 32.7214 32.2976 29.1409 28.9888 28.091 27.8721 26.5052 26.5011
threshold=0.41666666666666669 1.4166666666666667 2.5000000000000004 -2.2916666666666665 0.24711958102207757 35.787161798577323 0.28274327081063871 448.50000000000006 2.4166666666666674 -3.0999999999999996 -3.7749999999999995 1.0000000180025095e-35 35.970811362287741 37.115018562207418 0.24427333597101727 83.82850000000002 -1.3666666666666665 0.28972027972027975 1.0000000180025095e-35 -5.4499999999999993 487.50000000000006 1.0000000180025095e-35 -2.4499999999999997
decision_type=2 2 2 2 2 2 2 2 2 2 2 2 2 2 2 2 2 2 2 2 2 2 2
left_child=2 5 4 11 10 15 14 -3 13 -8 -1 19 -6 -9 -7 17 -16 -2 -10 -4 -19 -5 -14
right_child=1 7 3 21 12 6 9 8 18 -11 -12 -13 22 -15 16 -17 -18 20 -20 -21 -22 -23 -24
leaf_value=-0.0064226875127384314 0.013157409432344157 0.0013720321496528624 -0.0076723380396555765 -0.035998650387417425 0.0062750672177447377 -0.024289334145904722 0.010492340344252341 0.013273329612230642 0.028202477753807149 -0.00050927292814531707 -0.018311821061027012 -0.007858392056293434 -0.00053377941745339885 0.001835456213819184 -0.0025162516157426575 0.00051677116703367505 -0.018144994950449016 -0.013147267049450271 0.012491188957053263 -0.023873279812118675 0.013922650841447677 -0.022301158893086519 -0.015190691928283271
leaf_weight=547.29562987480313 814.72579668648541 311.15787352249026 136.72294435836375 247.87701502814889 466.15055677853525 94.057139378041029 472.4384144898504 1456.6649648882449 279.4676673784852 1138.24629284814 423.22109552891925 559.82687760610133 365.77798275835812 282.2759302649647 650.51544497534633 374.100292628631 145.65005136840045 80.625015327706933 169.97973685711622 325.97959159407765 59.492196671664715 261.03501832578331 159.41151948552579
leaf_count=4271 2291 885 884 3497 2284 525 1299 3132 528 3972 4452 3757 1808 678 2540 1425 819 340 351 3342 177 2669 1229
internal_value=-1.55569e-05 0.00612682 -0.0111447 -0.0182672 -0.00558489 0.00221793 -0.000874466 0.0121161 0.0136438 0.00271767 -0.0116073 -0.012939 0.000311003 0.0114167 -0.00737373 0.00803744 -0.00537536 0.010984 0.0222605 -0.0190861 -0.00165368 -0.0289728 -0.00498261
internal_weight=9822.7 6329.4 3493.3 1531.44 1961.86 3829.85 2500.91 2499.55 2188.39 1610.68 970.517 1022.53 991.34 1738.94 890.223 1328.94 796.165 954.843 449.447 462.703 140.117 508.912 525.19
internal_count=47155 18962 28193 14149 14044 13388 9155 5574 4689 5271 8723 7983 5321 3810 3884 4233 3359 2808 879 4226 517 6166 3037
is_linear=0
shrinkage=0.03


Tree=11
num_leaves=24
num_cat=0
split_feature=15 15 8 16 4 17 4 11 19 4 16 16 16 8 17 16 4 17 17 19 4 2 15
split_gain=696.488 149.49 141.271 87.0279 72.36 71.8991 56.4386 45.2497 43.4578 36.9508 33.9685 33.5383 32.6947 31.8648 31.4863 30.4542 29.4533 28.4933 28.4368 25.0089 24.9167 26.5657 23.8451
threshold=0.41666666666666669 1.4166666666666667 2.5000000000000004 -1.5499999999999998 0.24711958102207757 35.740817965588612 0.28274327081063871 1.0000000180025095e-35 501.50000000000006 0.31405051611764656 -3.0999999999999996 -3.7749999999999995 -5.4499999999999993 3.5000000000000004 36.363640482574837 -6.0999999999999988 0.26720891932931329 33.082807250322439 38.30201525918779 483.50000000000006 0.30871490195431023 78.803500000000014 2.5833333333333335
decision_type=2 2 2 2 2 2 2 2 2 2 2 2 2 2 2 2 2 2 2 2 2 2 2
left_child=2 5 4 7 11 16 13 12 9 17 -8 -1 -4 -7 -11 -6 -2 -3 -17 -13 21 -12 -10
right_child=1 8 3 -5 15 6 10 -9 22 14 20 19 -14 -15 -16 18 -18 -19 -20 -21 -22 -23 -24
leaf_value=-0.0065524554495120131 0.0027154758127078725 0.023575655013809635 -0.0079594198839669748 -0.032630658742128983 0.011341040670969712 -0.0015338114167065826 0.009207860875312477 -0.0089703041820232039 0.015162991073709744 0.017483421263994905 -0.0088080806344277979 -0.023636426265498878 -0.024976310321944774 -0.013019459086648359 0.0071766865783950001 -0.00022693856273054601 0.011908418581426997 0.0018142447354087081 -0.017485326394776551 -0.0083207251170498275 0.0031146145169025936 0.015453532965635551 0.028700384346793589
leaf_weight=545.63159068115056 547.23774218000472 59.330029960721731 135.71861102804542 288.51342153456062 179.4821781180799 464.90320561733097 484.60188027471304 654.80681841261685 561.79197292029858 569.5354824680835 368.96448563411832 256.58211905043572 404.39467436168343 408.32822355441749 501.79139291122556 706.47390271583572 734.89347588643432 620.42397246696055 97.823353310115635 153.27439897786826 711.71970483846962 45.643284320831299 147.94189907610416
leaf_count=4271 2052 125 884 3843 777 1793 1319 4767 1141 1215 1526 3075 4655 2148 1125 3841 2069 1685 703 1377 2329 152 283
internal_value=-3.04298e-06 0.00597226 -0.0108742 -0.0178429 -0.00554361 0.00221504 -0.000762803 -0.0142724 0.0117227 0.0091846 0.00256644 -0.0114238 -0.0207003 -0.00690457 0.0126559 0.000167431 0.0079847 0.00371362 -0.002326 -0.0179088 -0.000291022 -0.00613717 0.0179848
internal_weight=9649.81 6227.11 3422.7 1483.43 1939.27 3766.29 2484.16 1194.92 2460.81 1751.08 1610.93 955.488 540.113 873.231 1071.33 983.779 1282.13 679.754 804.297 409.857 1126.33 414.608 709.734
internal_count=47155 18962 28193 14149 14044 13388 9267 10306 5574 4150 5326 8723 5539 3941 2340 5321 4121 1810 4544 4452 4007 1678 1424
is_linear=0
shrinkage=0.03


Tree=12
num_leaves=24
num_cat=0
split_feature=15 15 8 17 4 4 16 17 23 4 16 19 16 5 15 23 8 4 7 7 8 16 1
split_gain=649.875 136.693 126.654 80.4124 66.9891 58.4922 48.4067 46.7143 45.6086 44.2861 42.66 38.2888 33.9998 29.3622 30.2877 28.7752 28.4054 37.8347 30.179 25.1862 25.0733 24.753 23.7585
threshold=0.41666666666666669 1.8333333333333337 4.5000000000000009 36.821229326189858 0.24738426569563896 0.27784079182363591 -5.5499999999999989 36.210265580933367 0.55561660561660575 0.2465885216914451 0.63333333333333341 450.50000000000006 -1.7749999999999997 0.17950146106707274 2.4166666666666674 -0.011460892049127357 4.5000000000000009 0.26636879912859229 4.5000000000000009 4.5000000000000009 1.0000000180025095e-35 -2.4499999999999997 65.753500000000017
decision_type=2 2 2 2 2 2 2 2 2 2 2 2 2 2 2 2 2 2 2 2 2 2 2
left_child=2 3 4 8 6 15 -1 -6 16 21 22 20 -9 -13 19 -5 17 -2 -19 -15 -3 -4 -7
right_child=1 11 9 5 7 10 -8 12 -10 -11 -12 13 -14 14 -16 -17 -18 18 -20 -21 -22 -23 -24
leaf_value=-0.0035698524279999919 0.0032397854552372717 -0.026133037079550989 -0.020452027832197007 -0.005704042303291721 0.0046124036508304817 -0.0080868875003767809 -0.016426683905943006 -0.0040699840632397585 -0.010518548633640176 -0.013415136409534838 -0.026054697227320605 -0.022281748101424557 -0.021871897716333022 0.021547308702849807 0.022516255116075211 -0.021269524312860999 0.0017784784718617166 0.017814018686595146 0.0084700547526693204 0.0099909843545740069 0.005262024244513188 -0.034239144410235685 0.0043712021947052409
leaf_weight=403.37891043536365 691.15705282241106 26.713169034570456 285.91575163882226 344.95396858081222 545.74981820490211 158.74228204041719 760.37717099394649 536.22214765939862 137.61336339078844 506.23751194123179 48.212883982807398 18.500920578837395 117.7630614452064 223.3642652221024 414.46085476130247 154.88255938980728 659.64700741693377 489.74510619603097 852.77817076910287 706.89795547351241 160.15677287429571 198.61026032269001 1042.889176607132
leaf_count=2941 2627 120 2867 1492 2865 602 8134 3027 637 4251 223 52 1111 432 838 840 2393 1169 2474 1438 397 2997 3228
internal_value=-1.31337e-07 0.00580832 -0.0106165 0.00320244 -0.00684216 -0.00185356 -0.0119703 -0.00186783 0.00632733 -0.0196203 0.00161522 0.0135089 -0.00727557 0.0152546 0.015771 -0.0105273 0.00718805 0.00894271 0.0118787 0.0127658 0.000774082 -0.0261035 0.00272542
internal_weight=9484.97 6130.72 3354.25 4580.62 2363.49 1749.68 1163.76 1199.74 2830.94 990.764 1249.84 1550.09 653.985 1363.22 1344.72 499.837 2693.33 2033.68 1342.52 930.262 186.87 484.526 1201.63
internal_count=47155 18962 28193 15685 18078 6385 11075 7003 9300 10115 4053 3277 4138 2760 2708 2332 8663 6270 3643 1870 517 5864 3830
is_linear=0
shrinkage=0.03


Tree=13
num_leaves=24
num_cat=0
split_feature=15 15 8 16 8 23 15 17 19 15 20 16 19 19 17 16 5 2 1 19 1 8 17
split_gain=606.871 136.182 123.614 103.845 74.7516 54.1726 52.2851 41.6506 41.1161 39.3453 37.3103 32.5141 31.1839 30.9251 27.7964 27.4742 27.1718 26.3499 26.2785 26.2625 25.4417 24.1918 24.1755
threshold=0.41666666666666669 1.8333333333333337 1.0000000180025095e-35 -2.2249999999999996 3.5000000000000004 0.38217671217671229 1.0000000180025095e-35 37.628285917276749 485.50000000000006 1.0000000180025095e-35 4.5000000000000009 -4.3666666666666663 470.50000000000006 508.50000000000006 34.950913275442126 -0.44999999999999996 0.60648134504122553 59.6355 69.33225000000003 486.50000000000006 71.163500000000013 1.0000000180025095e-35 37.491347856984497
decision_type=2 2 2 2 2 2 2 2 2 2 2 2 2 2 2 2 2 2 2 2 2 2 2
left_child=2 4 10 6 8 7 11 19 16 -5 12 -4 -1 21 -8 17 -2 -9 -10 -6 -12 -3 -23
right_child=1 13 3 9 5 -7 14 15 18 -11 20 -13 -14 -15 -16 -17 -18 -19 -20 -21 -22 22 -24
leaf_value=-0.011693195352930372 -0.017673018471825484 0.001433421138342688 -0.0091652575888951648 -0.029871319034837845 -0.0013490491524596675 -0.017764157436219667 0.017465400453845974 -0.030989532582372241 -0.005136370819664257 -0.013795790750160982 -0.013940637845435552 -0.019213285659319498 9.6564338438830447e-05 0.021191672526261043 -0.0043781325733733443 -0.034108547928910285 0.0037782501986304232 -0.0032999132462478474 0.011800881030924325 0.0072910595841214378 0.011833418555526085 0.014383472177518024 -0.0036398585990009983
leaf_weight=365.70154287246987 55.082339564338326 194.90955769643188 667.86935816192999 427.47375386068597 708.47726319171488 170.73174498975277 61.724804703146219 34.715523190796375 89.368826702237129 201.67308844346553 40.82202292047441 512.0533696487546 450.82113393722102 355.17632745578885 348.20579076278955 35.598026365041733 1510.301927158609 283.69543744437397 1063.9053854998201 572.45201655849814 221.46457297354937 888.57815801724792 72.440947733819485
leaf_count=3036 277 522 5098 6434 2737 883 371 183 294 1910 254 5591 2374 680 2037 218 5229 1102 2923 1839 1088 1899 176
internal_value=-2.92809e-06 0.0056518 -0.0103518 -0.0144017 0.00304747 -0.00168418 -0.0103191 -4.99961e-06 0.00619012 -0.0247183 -0.00202176 -0.0135258 -0.0051838 0.0134493 -0.00108907 -0.00911329 0.00302343 -0.00631884 0.0104884 0.00251225 0.00782197 0.0110704 0.0130249
internal_weight=9333.24 6035.43 3297.81 2219 4524.33 1805.67 1589.85 1634.94 2718.66 629.147 1078.81 1179.92 816.523 1511.1 409.931 354.009 1565.38 318.411 1153.27 1280.93 262.287 1155.93 961.019
internal_count=47155 18962 28193 21441 15685 6962 13097 6079 8723 8344 6752 10689 5410 3277 2408 1503 5506 1285 3217 4576 1342 2597 2075
is_linear=0
shrinkage=0.03


Tree=14
num_leaves=24
num_cat=0
split_feature=15 15 17 16 17 4 4 16 4 25 19 4 16 23 18 4 23 19 17 13 1 17 19
split_gain=572.442 130.996 119.559 94.3348 70.8289 69.2562 43.9091 43.4379 42.9063 41.0739 39.2113 34.165 30.6215 29.5182 29.4104 29.3255 28.4619 28.0211 27.9588 26.476 23.1739 21.6121 20.4047
threshold=0.41666666666666669 1.5833333333333337 35.848107927059438 -1.4499999999999997 35.740817965588612 0.2370967515925613 0.24427333597101727 1.2916666666666667 0.24738426569563896 55.750000000000007 427.50000000000006 0.31157925834176375 -6.0999999999999988 0.43024132730015091 160.50000000000003 0.21961684654492611 0.76685606060606071 468.50000000000006 38.551052313414779 2.5000000000000004 70.884500000000003 34.531173134634706 499.50000000000006
decision_type=2 2 2 2 2 2 2 2 2 2 2 2 2 2 2 2 2 2 2 2 2 2 2
left_child=2 4 8 5 15 -4 -6 9 12 14 20 19 -1 18 -3 -2 17 -7 -12 22 -8 -21 -11
right_child=1 7 3 -5 6 16 10 -9 -10 11 13 -13 -14 -15 -16 -17 -18 -19 -20 21 -22 -23 -24
leaf_value=0.0020090779891445637 -0.0087324613655471936 0.0073639891579390538 -0.02028880303989216 -0.028065868850887892 -0.022121739813134724 -0.011612232554122625 -0.030315658278087444 -0.0073211100184946455 0.0045607093080092739 0.0059531831363164216 0.0029215060128373591 0.018608565766220275 -0.012345657875843101 -0.011295047148043098 -0.030830420412879877 0.0090216587027156705 -0.035417338055257576 -0.0024467893584260306 -0.010543350058836363 0.027334697448281518 -0.0063443480155972991 -0.014906196915344196 0.019099426553573873
leaf_weight=203.52601129375398 90.045888463035226 706.26723975501955 543.51984462700784 366.86965590156615 85.034519303590059 560.65930768940598 54.514482088387012 107.78617685288191 491.40390445012599 240.1626887768507 1843.7259861584753 917.20743786264211 390.09003945719451 165.01505257375538 18.622880503535271 1194.0659545082599 31.89210494980216 646.23879936756566 150.08779887296259 13.218619421124457 108.60630642622709 62.180356182157993 190.58317901566625
leaf_count=1610 453 1776 5917 4966 539 4157 316 344 2723 634 6509 1938 4312 812 59 3820 291 4217 626 24 540 186 386
internal_value=4.38202e-05 0.00556796 -0.0101141 -0.0142125 0.00208705 -0.0113609 -0.00094833 0.0112631 -0.00199616 0.0121955 -0.000172916 0.0151559 -0.00742402 0.000898717 0.00638275 0.00777668 -0.00744375 -0.00670456 0.00190792 0.00889907 -0.0143555 -0.00750071 0.0117697
internal_weight=9181.32 5947.12 3234.2 2149.18 3691.1 1782.31 2406.98 2256.03 1085.02 2148.24 2321.95 1423.35 593.616 2158.83 724.89 1284.11 1238.79 1206.9 1993.81 506.145 163.121 75.399 430.746
internal_count=47155 18962 28193 19548 13615 14582 9342 5347 8645 5003 8803 3168 5922 7947 1835 4273 8665 8374 7135 1230 856 210 1020
is_linear=0
shrinkage=0.03


Tree=15
num_leaves=24
num_cat=0
split_feature=4 17 4 17 23 19 19 16 25 23 4 18 16 3 23 16 8 16 4 3 23 8 19
split_gain=427.588 204.448 119.969 112.498 59.8246 58.6195 52.0671 51.1775 45.8045 35.315 33.7551 30.1889 27.2299 26.663 26.5203 25.5903 25.2833 23.3944 22.4193 21.6464 19.4206 19.4332 18.3667
threshold=0.27492178366699166 35.970811362287741 0.2370967515925613 36.348025771891706 0.41741924741924746 454.50000000000006 460.50000000000006 -2.6333333333333329 55.750000000000007 -0.0057142857142857039 0.30696364655750069 25.500000000000004 1.7083333333333337 0.12287357548288415 0.43024132730015091 -4.708333333333333 3.5000000000000004 1.6333333333333335 0.23825323753101138 0.081786583683784594 -0.286037296037296 3.5000000000000004 527.50000000000011
decision_type=2 2 2 2 2 2 2 2 2 2 2 2 2 2 2 2 2 2 2 2 2 2 2
left_child=1 5 15 4 8 -1 10 11 17 22 -5 -4 13 -8 16 -3 19 -2 -11 -9 -15 -22 -7
right_child=3 2 7 6 -6 9 12 14 -10 18 -12 -13 -14 20 -16 -17 -18 -19 -20 -21 21 -23 -24
leaf_value=-0.0097754678086131065 0.0072305395458467986 -0.01432960219673989 -0.0076038655110391906 -0.011348287036655415 -0.0078002814885189502 0.0061390567489396225 0.0035531358758559561 0.0060225174553587245 0.015861758993826358 -0.0078908286941097115 0.0012299109140915527 0.0032692293487768063 -0.036984573001984933 0.018066189450572919 -0.025169626848905099 -0.027109425195354798 -0.017670647369141083 -0.030699416966619434 0.0029166999154147969 -0.011309391941792424 0.014276990783806221 -0.012989275624840726 0.021751597912957939
leaf_weight=384.18883831240237 685.36558181559667 202.51709806732833 702.07525348942727 345.4722221409902 137.23709951527417 750.49027721630409 1422.6739812511951 102.45292097795755 1361.8417566977441 295.44392040837556 432.29756066482514 341.65447617881 13.8131832703948 220.8624988719821 160.85471977107227 464.35253018513322 283.24267150927335 14.954216882586477 415.96450746199116 176.71797924302518 51.553820844739676 43.271045983769 74.551563683897257
leaf_count=3231 2202 1628 4233 1913 653 3501 4897 543 3646 2551 1505 1832 67 520 1696 6394 2362 66 2009 1187 123 148 257
internal_value=0.000171145 -0.00661198 -0.0123865 0.00641665 0.0113791 0.000705619 0.00210256 -0.00829476 0.0126555 0.00332641 -0.00435711 -0.00404467 0.00496994 0.00530331 -0.014428 -0.0232284 -0.0113558 0.00642061 -0.00157161 -0.00494875 0.0131906 0.00183469 0.00754982
internal_weight=9083.85 4354.51 2433.87 4729.34 2199.4 1920.64 2529.94 1767 2062.16 1536.45 777.77 1043.73 1752.17 1738.36 723.268 666.87 562.414 700.32 711.408 279.171 315.687 94.8249 825.042
internal_count=47164 31424 19875 15740 6567 11549 9173 11853 5914 8318 3418 6065 5755 5688 5788 8022 4092 2268 4560 1730 791 271 3758
is_linear=0
shrinkage=0.03


Tree=16
num_leaves=24
num_cat=0
split_feature=15 15 16 19 12 7 16 17 20 22 3 19 16 4 3 17 17 2 5 13 25 4 14
split_gain=506.419 149.688 95.4063 76.2146 74.3061 69.4623 45.391 43.0106 39.0719 36.2606 35.1616 34.5272 32.6322 52.2376 30.2834 24.5401 24.0895 23.1753 23.5172 23.0529 21.7327 20.8628 19.76
threshold=1.0000000180025095e-35 1.4166666666666667 -4.7749999999999995 492.50000000000006 52.45000000000001 4.5000000000000009 -2.4499999999999997 36.493017722697189 12.500000000000002 1.0000000180025095e-35 0.12787464264853679 434.50000000000006 -3.0999999999999996 0.30871490195431023 0.085931650668602796 34.142107350683361 37.784706596869221 72.025375000000011 0.74186966961386702 2.5000000000000004 53.500000000000007 0.21866624372163471 0.35416666666666791
decision_type=2 2 2 2 2 2 2 2 2 2 2 2 2 2 2 2 2 2 2 2 2 2 2
left_child=2 3 8 5 14 20 -6 9 11 10 19 -1 15 17 -4 -7 -5 -14 -19 -3 -2 -11 -13
right_child=1 7 4 16 6 12 -8 -9 -10 21 -12 22 13 -15 -16 -17 -18 18 -20 -21 -22 -23 -24
leaf_value=-0.024729673942499666 -0.014054397841258282 0.018019185871612293 -0.014053076243063916 0.0085878407578745021 -0.015729009330988461 0.014659557134577384 -0.030037990609848013 0.0049851268910318875 0.019964250605753051 -0.018391367719557357 0.026589200902849715 -0.0072799111298645931 -0.015495551013968904 0.00037491422936641639 -0.0018769354070786489 -0.0012767321514083317 -0.0035721639924575976 -0.047896564134477362 -0.003743716463772773 0.0039168165617261864 0.0084065630804460844 0.0099514295532168572 0.0027501076455481097
leaf_weight=74.148657600395381 41.353776969015598 308.39428798481822 461.04999974602833 1188.1462271539494 437.81846422562376 98.360094256699085 366.58464315533638 775.06552349030972 59.529067076742649 24.140873245894909 287.50323189795017 440.09600113425404 519.39164127595723 541.15800086874515 305.74496794119477 750.65952241793275 167.26447784341872 11.247017543762921 313.10192134790123 157.65641649067402 620.5936819082126 735.67634222097695 295.45533940102905
leaf_count=769 226 667 4481 4246 4750 417 5814 1950 244 109 569 3242 3309 2147 1906 3240 686 73 1772 389 2277 1901 1980
internal_value=0.000193942 0.00454594 -0.0114683 0.00121593 -0.0158802 -0.00153213 -0.0222499 0.0107322 -0.00349338 0.0136755 0.0183384 -0.00521798 -0.00406134 -0.00690031 -0.00919807 0.000569509 0.00708724 -0.0115665 -0.00527475 0.0132486 0.00700336 0.00905092 -0.00325107
internal_weight=8980.14 6539.71 2440.43 4251.28 1571.2 2895.87 804.403 2288.44 869.229 1513.37 753.554 809.7 2233.92 1384.9 766.795 849.02 1355.41 843.741 324.349 466.051 661.947 759.817 735.551
internal_count=47164 23978 23186 18393 16951 13461 10564 5585 6235 3635 1625 5991 10958 7301 6387 3657 4932 5154 1845 1056 2503 2010 5222
is_linear=0
shrinkage=0.03


Tree=17
num_leaves=24
num_cat=0
split_feature=15 17 8 15 8 23 4 4 25 4 1 18 19 25 12 19 17 19 5 23 22 19 14
split_gain=465.736 133.109 130.314 79.1144 68.512 58.1437 42.7659 35.1476 33.2989 31.0527 28.7297 26.9011 26.205 25.7913 23.9213 26.6691 23.2024 23.1421 22.2394 19.1551 28.1451 35.5228 22.1979
threshold=1.0000000180025095e-35 37.03713910553752 1.0000000180025095e-35 1.8333333333333337 3.5000000000000004 0.38896825396825402 0.28178620259855502 0.23772584909365901 55.750000000000007 0.29605959947222094 64.339000000000013 110.50000000000001 448.50000000000006 55.750000000000007 70.65000000000002 450.50000000000006 36.430186418133097 460.50000000000006 0.17950146106707274 -0.18147907647907643 1.0000000180025095e-35 525.50000000000011 1.1125000000000009
decision_type=2 2 2 2 2 2 2 2 2 2 2 2 2 2 2 2 2 2 2 2 2 2 2
left_child=2 3 7 4 11 12 -3 -1 16 -6 -8 14 -4 18 15 -2 -9 -12 -5 20 -15 22 -22
right_child=1 6 5 13 9 -7 10 8 -10 -11 17 -13 -14 19 -16 -17 -18 -19 -20 -21 21 -23 -24
leaf_value=-0.0097279631460465525 -0.0048888150301689111 -0.0085514759298353591 -0.02062818352322536 -0.049082379983051865 -0.0078315666417802712 -0.0263282758391797 -0.013381424382405747 0.00024810706588639201 0.0089622231419047033 0.0024951267073124381 -0.0041600302530282072 -0.003604090782211996 -0.010168631487319574 0.025241319409500491 0.012093419474242676 0.0077967076363813052 -0.019960862277817418 0.0051840247145183297 0.0081609531479841409 0.0096337401718692532 0.012325594204650086 0.038390346869873443 -0.011002446155146764
leaf_weight=337.09178626164794 180.73197216913104 650.17857711575925 294.36507426016033 6.2063304372131816 412.51140455994755 399.73395313927904 114.59785902127624 171.09170291293412 315.94751749094576 718.60837036930025 340.86092941183597 171.29540335573256 805.42294727358967 335.02859571203589 996.35490290354937 853.65820603724569 72.925182963721454 794.72208244912326 386.50997938401997 252.24762933701277 172.88107913732529 39.156227335333824 46.608444362878799
leaf_count=3144 912 3560 3469 30 2487 5553 522 921 1347 2699 1481 660 8166 661 3274 3049 586 2510 954 598 389 56 136
internal_value=0.000178733 0.00436215 -0.0111189 0.00713595 0.00473021 -0.0165296 -0.00231093 -0.00207437 0.002533 -0.00127095 0.000934572 0.00781281 -0.0129682 0.0136098 0.00877584 0.00558025 -0.0057914 0.00237928 0.0072563 0.0165594 0.019502 0.0120678 0.0073719
internal_weight=8868.74 6472.16 2396.58 4571.8 3333.16 1499.52 1900.36 897.056 559.964 1131.12 1250.18 2202.04 1099.79 1238.64 2030.75 1034.39 244.017 1135.58 392.716 845.922 593.674 258.646 219.49
internal_count=47164 23978 23186 15905 13081 17188 8073 5998 2854 5186 4513 7895 11635 2824 7235 3961 1507 3991 984 1840 1242 581 525
is_linear=0
shrinkage=0.03


Tree=18
num_leaves=24
num_cat=0
split_feature=15 15 8 16 8 4 19 15 19 16 4 16 20 22 16 14 16 25 16 23 1 19 18
split_gain=444.372 136.24 122.864 99.4431 91.1162 54.4668 40.7332 35.0378 38.7461 34.921 33.3465 30.216 29.0307 28.4135 25.8956 24.3037 22.047 21.1771 20.8309 19.541 19.0791 18.6643 18.3235
threshold=1.0000000180025095e-35 1.4166666666666667 1.0000000180025095e-35 -2.4499999999999997 3.5000000000000004 0.29605959947222094 471.50000000000006 2.4166666666666674 453.50000000000006 -3.0999999999999996 0.23772584909365901 0.77500000000000013 7.5000000000000009 1.0000000180025095e-35 -7.4499999999999993 0.31666666666666649 -2.7083333333333326 55.750000000000007 -2.2249999999999996 -0.44664884135472366 62.450000000000003 496.50000000000006 105.50000000000001
decision_type=2 2 2 2 2 2 2 2 2 2 2 2 2 2 2 2 2 2 2 2 2 2 2
left_child=2 4 10 14 6 9 15 11 -9 -6 -1 20 17 -10 -4 -2 -14 -12 -7 -16 -3 -11 -22
right_child=1 7 3 -5 5 18 -8 8 13 21 12 -13 16 -15 19 -17 -18 -19 -20 -21 22 -23 -24
leaf_value=-0.009649538443190905 -0.0037426784017581187 -0.027573243155963545 0.0011708765150663005 -0.028647694346120394 -0.0030362284619020268 0.0054136576550374068 0.0080170235281872854 -0.0076303866326934413 0.027224939686701279 -0.019632714389362944 -0.009160931976948344 -0.0047249784487861622 0.021790250435639796 0.010432180692650034 -0.0040930072517893845 0.0055369143500024528 -0.0063711622670284051 0.004372356221201976 -0.0034811728740875556 -0.01525454881508026 0.01073386471148789 -0.0045453338283648285 -0.0018319760230606072
leaf_weight=334.08208294026554 593.36095970869064 12.340856768190859 130.25854578334838 418.65884802583605 328.52908417209983 427.26513570360839 1448.6807170668617 47.645102107897401 245.82159918546677 318.16753012035042 183.39828656800091 144.4190840665251 98.41459783911705 143.68858677707613 174.43449000315741 444.15157358534634 33.54871803149581 240.56861255411059 532.01554206293076 740.2555099572055 1517.9181647673249 96.079511755146086 112.15707896277308
leaf_count=3144 2767 40 1002 7033 1725 1540 5063 156 535 2426 1288 478 307 339 1552 1932 182 1077 2377 7601 3724 563 313
internal_value=0.000200466 0.0042927 -0.0109485 -0.0162935 0.00110617 -0.00424173 0.00476736 0.0102936 0.0179065 -0.0103405 -0.00215868 0.00843111 0.0023429 0.0210302 -0.0113438 0.000229848 0.0146308 -0.00148183 0.000480599 -0.013126 0.00958794 -0.0161334 0.00986927
internal_weight=8765.86 6412.24 2353.62 1463.61 4188.25 1702.06 2486.19 2223.99 437.155 742.776 890.012 1786.84 555.93 389.51 1044.95 1037.51 131.963 423.967 959.281 914.69 1642.42 414.247 1630.08
internal_count=47164 23978 23186 17188 18393 8631 9762 5585 1030 4714 5998 4555 2854 874 10155 4699 489 2365 3917 9153 4077 2989 4037
is_linear=0
shrinkage=0.03


Tree=19
num_leaves=24
num_cat=0
split_feature=15 15 8 16 8 19 17 19 22 4 16 4 20 17 16 19 7 4 16 19 4 17 16
split_gain=419.455 127.663 110.888 93.2273 82.8422 39.3725 37.2219 35.1595 32.4386 29.2686 27.2369 35.9634 26.6487 25.2594 23.8872 23.4629 24.2887 21.0131 20.5798 19.8678 19.3662 19.1266 19.0615
threshold=1.0000000180025095e-35 1.4166666666666667 1.0000000180025095e-35 -2.4499999999999997 2.5000000000000004 477.50000000000006 36.348025771891706 427.50000000000006 1.0000000180025095e-35 0.23772584909365901 -3.0999999999999996 0.30696364655750069 7.5000000000000009 34.606215248284137 -7.4499999999999993 504.50000000000006 4.5000000000000009 0.25899622125953797 -1.3666666666666665 453.50000000000006 0.27677055365952102 34.142107350683361 1.2250000000000003
decision_type=2 2 2 2 2 2 2 2 2 2 2 2 2 2 2 2 2 2 2 2 2 2 2
left_child=2 4 9 14 7 10 8 -2 -3 -1 -6 13 19 -12 -4 16 17 -9 -17 -11 -7 -18 -8
right_child=1 6 3 -5 5 20 22 15 -10 12 11 -13 -14 -15 -16 18 21 -19 -20 -21 -22 -23 -24
leaf_value=-0.0094170069280852843 -0.012992400884516603 0.018012867973883701 0.00089988611027703709 -0.028094954696299055 -0.00060984472928081739 -0.0047512007609200472 0.0058605647525943935 0.0018975035254262043 0.0086764361801658606 -0.014372017380288944 0.024354257456145428 -0.0026726206849633951 0.013717776496551147 -0.017816103441416389 -0.012842993478608275 0.015521634508697289 0.010708657524302495 0.013689432091604748 -0.0044277424972834984 0.001612257775577457 0.003932005026979833 -0.00037560980832550441 -0.022209908504468863
leaf_weight=329.46533748554066 89.197834692895412 640.07475563138723 130.35199746582657 404.93681093398482 379.1171665545553 344.30503932572901 836.34765012934804 214.05058756377548 702.51344311796129 89.057133037596941 13.217133887112139 296.94453360699117 130.7276532035321 389.66810670960695 897.99886802025139 340.75188817456365 170.95433975849301 373.02868589200079 53.90168235450983 326.79862594883889 703.49883237667382 776.52319120895118 22.353979036211967
leaf_count=3144 528 1447 1002 7033 1738 1941 2146 994 1906 819 51 1276 489 2867 9153 991 719 1105 222 1546 2607 3354 86
internal_value=0.000185239 0.00416896 -0.0107627 -0.0159022 0.00106828 -0.00306336 0.0100077 0.0054217 0.0131276 -0.00235413 -0.00708589 -0.0105941 0.00190318 -0.0164327 -0.011101 0.00627308 0.00459529 0.00939007 0.012797 -0.00181084 0.00107873 0.00162434 0.00512983
internal_weight=8655.79 6346.45 2309.34 1433.29 4145.16 2126.75 2201.29 2018.41 1342.59 876.049 1078.95 699.83 546.583 402.885 1028.35 1929.21 1534.56 587.079 394.654 415.856 1047.8 947.478 858.702
internal_count=47164 23978 23186 17188 18393 10480 5585 7913 3353 5998 5932 4194 2854 2918 10155 7385 6172 2099 1213 2365 4548 4073 2232
is_linear=0
shrinkage=0.03


Tree=20
num_leaves=24
num_cat=0
split_feature=15 15 16 4 8 19 17 23 19 1 19 19 1 0 0 23 17 16 23 25 7 5 23
split_gain=412.067 112.757 94.3461 74.1222 57.3246 54.0073 43.9182 32.5439 31.6864 30.2052 26.0259 25.914 25.4567 24.8946 23.7331 23.5474 23.0317 22.5478 22.3386 21.7793 19.9327 19.6076 19.3982
threshold=0.41666666666666669 1.8333333333333337 -4.708333333333333 0.25790232955536491 1.0000000180025095e-35 435.50000000000006 37.46050241359233 0.36819347319347329 450.50000000000006 75.587000000000003 485.50000000000006 462.50000000000006 77.51100000000001 70.467800000000011 67.937750000000008 -0.51651404151404134 37.209188691967576 -1.2249999999999999 -0.20634202398908277 54.750000000000007 4.5000000000000009 0.60648134504122553 -0.5821116138763196
decision_type=2 2 2 2 2 2 2 2 2 2 2 2 2 2 2 2 2 2 2 2 2 2 2
left_child=2 5 9 4 -4 15 7 10 12 19 13 -5 14 -7 -3 -2 22 -6 -8 -1 -13 -15 -10
right_child=1 8 3 11 17 6 18 -9 16 -11 -12 20 -14 21 -16 -17 -18 -19 -20 -21 -22 -23 -24
leaf_value=-0.017672974342318574 0.0047741426809520685 0.0045622282932626223 -0.0083310863568090872 -0.012239465726683902 -0.019864766098807361 -0.0031402145691845963 0.00079121736648038454 -0.0043489186412938603 0.020546968995759685 0.0035059029311821106 0.0090891196238905604 0.0074728716890349574 0.01342473615174871 -0.017726564839146704 -0.025794409865615171 -0.013383380790452972 0.0016011319071787145 -0.032816986343717158 -0.010044739272998664 -0.0030279882251876083 -0.0055282746112573656 0.0065496677772925666 0.012299061156501818
leaf_weight=124.77670804969966 85.405214491300285 47.245000913739204 393.03975006844848 345.54180304612964 604.42047922685742 393.75833972729743 493.7770322393626 295.01659909822047 416.5451518446207 533.47143866494298 1356.0656233243644 152.80980402417481 72.204828128218651 30.915536612272263 45.502557255327702 259.8642109837383 119.73886417038739 151.23059023125097 262.11508500389755 341.57933771423995 347.44604989653453 952.43202288262546 668.50226175412536
leaf_count=1064 382 125 3254 3061 8282 1570 1818 1387 895 3863 4125 605 204 182 185 1427 306 2927 1199 2261 2861 3427 1565
internal_value=6.42817e-05 0.00494033 -0.00889062 -0.012661 -0.0176236 0.00246618 0.00350253 0.00511726 0.0123991 -0.00136941 0.00613904 -0.00592115 6.76658e-05 0.00323403 -0.0103309 -0.00889197 0.0140875 -0.0224569 -0.00296629 -0.00694635 -0.0015569 0.00578645 0.0154654
internal_weight=8493.4 5499.09 2994.32 1994.49 1148.69 4129.35 3784.08 3028.19 1369.74 999.827 2733.17 845.798 164.952 1377.11 92.7476 345.269 1204.79 755.651 755.892 466.356 500.256 983.348 1085.05
internal_count=46975 18797 28178 20990 14463 15517 13708 10691 3280 7188 9304 6527 514 5179 310 1809 2766 11209 3017 3325 3466 3609 2460
is_linear=0
shrinkage=0.03


Tree=21
num_leaves=24
num_cat=0
split_feature=15 15 19 16 17 4 17 8 4 8 23 4 23 8 7 19 17 0 5 0 3 22 1
split_gain=388.955 111.132 85.9067 71.2992 55.2305 54.7909 36.443 36.4382 36.2933 33.514 32.959 27.4637 22.8526 22.6445 20.898 19.7837 19.4161 27.2415 20.6179 18.9224 18.5879 18.5339 18.3078
threshold=0.41666666666666669 1.8333333333333337 437.50000000000006 -4.7749999999999995 36.837164851277763 0.25790232955536491 37.409955854199517 1.0000000180025095e-35 0.24711958102207757 4.5000000000000009 -0.23999999999999994 0.26636879912859229 0.39636904761904768 1.0000000180025095e-35 4.5000000000000009 408.50000000000006 33.870105089357857 77.614700000000013 0.60653253067710677 75.188500000000019 0.10714995415037006 1.0000000180025095e-35 70.455000000000013
decision_type=2 2 2 2 2 2 2 2 2 2 2 2 2 2 2 2 2 2 2 2 2 2 2
left_child=2 4 -1 13 9 7 -3 -5 -6 11 -10 16 -11 -4 -7 -13 -2 20 -19 -9 -18 -8 -17
right_child=1 6 3 5 8 14 21 19 10 12 -12 15 -14 -15 -16 22 17 18 -20 -21 -22 -23 -24
leaf_value=-0.020602806509023096 0.0099690972160915679 0.013663257224442686 0.0067267804570988101 -0.0073542842673064148 -0.023973902792413581 0.0041425384348686405 0.0032792647390279305 -0.02283662079491585 0.002769748849897466 0.0011529902673174522 -0.0062929010262097584 -0.038063049084144422 -0.016371465782178844 -0.0032542731597286121 -0.0072957649523143096 -0.006917241353379117 0.0059796781918680583 -0.043566869426337806 -0.0071818435819709118 -0.0099373264244124043 -0.035045623897437678 -0.024777301870033203 0.010730118271947829
leaf_weight=461.05366760399193 200.52199402265251 1251.6768051926047 316.4180135121569 337.54616736387834 65.689667452126741 202.46930191898718 71.897877797484398 434.51538553275168 828.33984740637243 551.73791952896863 640.37604907527566 7.7745503559708586 76.223447192460299 578.76747073512524 495.72277097916231 55.378790110349655 281.85530506819487 15.288003780879079 168.54103309474885 133.8870655996725 10.302936986088751 30.045795440673828 1185.7806952586398
leaf_count=5624 726 3010 1835 2599 428 941 181 6490 3014 2181 2789 49 446 4342 4248 211 1095 123 839 2099 66 89 3550
internal_value=4.70078e-05 0.00480804 -0.00870418 -0.00650923 0.00234094 -0.0102944 0.0122585 -0.0151617 -0.00215743 0.00504413 -0.00118166 0.00700693 -0.00097417 0.000273694 -0.00397876 0.00964388 0.00213873 -0.00116002 -0.0102078 -0.0197982 0.00453292 -0.00498983 0.00994272
internal_weight=8401.81 5441.43 2960.38 2499.33 4087.81 1604.14 1353.62 905.949 1534.41 2553.4 1468.72 1925.44 627.961 895.185 698.192 1248.93 676.509 475.987 183.829 568.402 292.158 101.944 1241.16
internal_count=46975 18797 28178 22554 15517 16377 3280 11188 6231 9286 5803 6659 2627 6177 5189 3810 2849 2123 962 8589 1161 270 3761
is_linear=0
shrinkage=0.03


Tree=22
num_leaves=24
num_cat=0
split_feature=15 15 8 16 17 17 19 19 20 17 14 4 4 19 4 24 23 4 4 4 23 15 1
split_gain=378.061 132.176 108.543 69.7767 63.7783 45.1995 39.8163 36.3121 27.6125 22.6195 22.1502 22.146 22.0139 21.4915 24.8783 21.1773 21.1349 20.677 20.3058 20.1231 19.7159 18.6199 20.2545
threshold=1.0000000180025095e-35 1.1666666666666667 1.0000000180025095e-35 -3.7083333333333326 35.109688778738551 37.223925083498926 460.50000000000006 498.50000000000006 4.5000000000000009 37.57282255118367 -1.0500000000000005 0.19542570188139693 0.24711958102207757 447.50000000000006 0.24615483050897316 0.3825577200577201 -0.072727272727272682 0.2494998557045339 0.23772584909365901 0.25672384078302007 1.0000000180025095e-35 2.1666666666666674 74.049000000000021
decision_type=2 2 2 2 2 2 2 2 2 2 2 2 2 2 2 2 2 2 2 2 2 2 2
left_child=2 4 8 -4 11 7 12 13 19 -8 -9 -2 -6 14 -3 -13 -12 -11 -10 -1 -14 22 -15
right_child=1 5 3 -5 6 -7 9 10 18 17 16 15 20 21 -16 -17 -18 -19 -20 -21 -22 -23 -24
leaf_value=-0.0090786637034335118 -0.029772156795619283 -0.038846219461305787 -0.0093132848812680202 -0.022957739508448757 -0.024502172234066304 -0.00013588761048284378 0.0022340206514463172 -0.012071658014241175 -0.010726508959122399 -0.028745436887443913 0.019460419354390666 0.0099413199089634328 -0.0026026898896000634 -0.00065592476677436655 0.0021562758385753906 -0.011169743651440028 0.0074119755264139978 -0.0038019585034006998 0.011550015770081707 0.0021805899036776112 -0.012533631845109701 0.015183192838223915 0.0095133355517756455
leaf_weight=437.45834932615981 13.850702637806533 14.053156115114687 702.81757512129843 648.63126717694104 65.51541115436703 443.85545703396201 1272.8034552880563 24.977666914463043 46.644042489118874 32.206808553077281 562.98457977175713 644.63405411690474 472.86541318986565 228.03223506733775 254.6332287080586 45.8041429547593 170.78171957284212 419.41209599375725 174.98050834424794 212.14339565765113 290.42228007502854 356.78300549462438 776.59365384839475
leaf_count=3740 141 120 6650 10461 557 1395 5669 79 488 234 1304 2607 2484 711 869 322 473 1922 695 1067 1930 850 2207
internal_value=5.11581e-05 0.00391615 -0.0105391 -0.015862 -0.000205196 0.00865557 -0.00240988 0.0102891 -0.00228212 0.000187357 0.0157105 0.00778733 -0.00781372 0.00776561 1.17144e-05 0.0085408 0.0166562 -0.00558078 0.0068616 -0.00540168 -0.0063813 0.00929591 0.00720509
internal_weight=8312.88 6090.21 2222.68 1351.45 3257.51 2832.69 2553.23 2388.84 871.226 1724.42 758.744 704.289 828.803 1630.1 268.686 690.438 733.766 451.619 221.625 649.602 763.288 1361.41 1004.63
internal_count=46975 23874 23101 17111 15866 8008 12796 6613 5990 7825 1856 3070 4971 4757 989 2929 1777 2156 1183 4807 4414 3768 2918
is_linear=0
shrinkage=0.03


Tree=23
num_leaves=24
num_cat=0
split_feature=15 15 19 16 17 4 8 8 23 17 4 4 1 1 16 7 8 17 14 23 8 4 15
split_gain=356.789 102.517 80.155 63.162 50.8073 46.9126 32.6685 30.4737 30.279 25.5838 22.4855 22.3436 24.9106 21.3695 19.7337 19.5915 19.3597 29.4668 18.8087 17.962 17.9216 17.7325 17.3166
threshold=0.41666666666666669 1.8333333333333337 437.50000000000006 -4.7749999999999995 36.851999400235769 0.25790232955536491 1.5000000000000002 4.5000000000000009 -0.23999999999999994 37.808749970367209 0.30696364655750069 0.21961684654492611 100.09550000000002 73.642500000000013 -1.0000000180025095e-35 4.5000000000000009 1.0000000180025095e-35 34.950913275442126 0.22500000000000145 0.6485137085137086 1.0000000180025095e-35 0.24402047406905195 1.0000000180025095e-35
decision_type=2 2 2 2 2 2 2 2 2 2 2 2 2 2 2 2 2 2 2 2 2 2 2
left_child=2 4 22 13 7 6 -5 11 21 16 14 12 -2 18 -9 -7 17 -3 -4 -12 -15 -6 -1
right_child=1 9 3 5 8 15 -8 10 -10 -11 19 -13 -14 20 -16 -17 -18 -19 -20 -21 -22 -23 -24
leaf_value=-0.02357988552986914 -0.014239069241136632 0.015460036977432978 -0.01181390169088917 -0.008552576666425362 -0.030117505880170727 0.0037746758350241075 -0.020106208684132001 -0.0053900523264980744 -0.0069894478622318451 -0.010826093204537 0.0051329147920937722 0.0074551022129719776 0.03517722209708856 0.009692560814987157 -0.039039752952628112 -0.0073425707927638317 0.014286234127911471 -0.0071539364865845709 0.0042220596089391502 -0.03759900716218214 -0.00095832729705374307 0.0022133870646226842 -0.0096863629459566745
leaf_weight=334.36686023231596 75.318274350836873 104.81894328258932 198.27777270227671 426.13013529172167 15.554056126624344 202.29659006698057 455.91348782135174 249.31643215566874 651.02524705044925 43.16041986644268 344.85315333865583 1808.0296043083072 10.455362804234026 239.97114680148661 16.738164771348238 483.97912903036922 1068.8798670843244 102.63891941122711 98.544701211154461 9.08631683886051 348.91639248467982 829.76250050030649 106.4401546632871
leaf_count=4751 471 302 1463 4087 120 941 7101 1286 2983 126 1208 6176 41 1381 116 4248 2533 319 576 49 2757 3067 873
internal_value=3.17606e-05 0.00463683 -0.00844656 -0.00633084 0.00225014 -0.00994775 -0.0145245 0.00485543 -0.00212663 0.0118903 -0.000917456 0.00674535 -0.00821548 7.35978e-05 -0.00750704 -0.00406549 0.0126585 0.00427187 -0.00648998 0.0040359 0.0033819 0.00161849 -0.0202251
internal_weight=8224.47 5329.64 2894.84 2454.03 4010.14 1568.32 882.044 2513.8 1496.34 1319.5 619.994 1893.8 85.7736 885.71 266.055 686.276 1276.34 207.458 296.822 353.939 588.888 845.317 440.807
internal_count=46975 18797 28178 22554 15517 16377 11188 9347 6170 3280 2659 6688 512 6177 1402 5189 3154 621 2039 1257 4138 3187 5624
is_linear=0
shrinkage=0.03


Tree=24
num_leaves=24
num_cat=0
split_feature=15 15 8 0 16 8 17 20 22 4 16 8 4 23 3 8 23 4 16 3 14 20 16
split_gain=340.876 115.906 100.595 64.6585 62.4796 29.2818 28.0391 26.4156 26.1998 25.6242 39.4831 30.9039 21.772 20.5826 19.9339 35.1976 19.2104 19.1384 17.8134 17.1433 16.4429 17.4608 16.3263
threshold=1.0000000180025095e-35 1.5833333333333337 1.0000000180025095e-35 70.393212500000018 -4.2916666666666652 4.5000000000000009 37.209188691967576 4.5000000000000009 1.0000000180025095e-35 0.31405051611764656 -3.0999999999999996 1.5000000000000002 0.29605959947222094 0.090909090909090939 0.14101235005666093 3.5000000000000004 0.45261072261072266 0.25139939430762431 0.55000000000000016 0.068468241426061713 -1.0500000000000005 2.5000000000000004 -1.0999999999999999
decision_type=2 2 2 2 2 2 2 2 2 2 2 2 2 2 2 2 2 2 2 2 2 2 2
left_child=2 3 7 9 -4 12 8 16 14 10 -2 -12 -5 -8 15 -3 -1 -7 -19 -9 21 -10 -6
right_child=1 6 4 5 22 17 13 19 20 -11 11 -13 -14 -15 -16 -17 -18 18 -20 -21 -22 -23 -24
leaf_value=-0.0032700137848540897 -0.00022434754919556339 0.018749960450959877 -0.0078799762242262057 0.0034915564101703329 -0.019007448488765417 -0.019716901334751454 0.0033796033963441885 -0.02459209759099748 -5.2508073933208859e-05 0.0025629389966100322 0.00059085545131672395 -0.014805995200312776 0.010517782866709617 -0.024580376800647619 0.021649949785951802 0.0051876840239511906 -0.018895322234030027 0.00079688709070437427 -0.029374299635519983 0.009012283198075564 0.0079399455819178458 -0.047437965775686472 -0.030575289258760192
leaf_weight=558.0564993834123 559.25522344000638 335.17531536146998 568.54854169674218 1183.1659401049837 609.14255358511582 49.865840870887041 247.31849012151361 14.633001287467776 25.51794152893126 418.30847076326609 154.26454254798591 489.97387974150479 597.28333283029497 26.206581769511104 251.37934195995331 354.24304529651999 81.10650484636426 502.11693119537085 18.251972611993551 206.10393268521875 753.26796498522162 9.6435533650219423 133.95248547196388
leaf_count=3924 2503 813 5152 5373 9173 416 701 194 84 1585 739 3314 2026 98 559 936 883 2480 133 989 2075 39 2786
internal_value=4.19483e-05 0.00374137 -0.0101374 0.00077463 -0.0153655 0.00395373 0.00962592 -0.00216278 0.0110377 -0.00383325 -0.00605643 -0.0111192 0.00584863 0.000700743 0.0144182 0.0117813 -0.00525279 -0.00196271 -0.000261369 0.0067846 0.00700392 -0.0130487 -0.0210927
internal_weight=8146.78 5975.24 2171.54 3972.49 1311.64 2350.68 2002.75 859.9 1729.23 1621.8 1203.49 644.238 1780.45 273.525 940.798 689.418 639.163 570.235 520.369 220.737 788.429 35.1615 743.095
internal_count=46975 23874 23101 18569 17111 10428 5305 5990 4506 8141 6556 4053 7399 799 2308 1749 4807 3029 2613 1183 2198 123 11959
is_linear=0
shrinkage=0.03


Tree=25
num_leaves=24
num_cat=0
split_feature=15 4 18 8 17 19 17 16 24 22 17 25 16 16 17 4 1 3 4 3 17 14 19
split_gain=336.168 109.907 85.9252 56.3336 49.6467 46.5031 45.8883 40.6162 33.2922 29.0691 41.4251 28.6171 28.086 24.7835 24.6158 24.608 23.6598 21.3856 20.4713 20.1723 23.1447 27.7402 19.4489
threshold=0.41666666666666669 0.31157925834176375 23.500000000000004 4.5000000000000009 36.446872047857468 502.50000000000006 34.818008271415387 -2.3666666666666663 0.57298812298812307 1.0000000180025095e-35 36.882814166844469 56.750000000000007 0.77500000000000013 -2.7083333333333326 35.014317334577314 0.20548146801838482 73.16400000000003 0.12287357548288415 0.24711958102207757 0.089709782476529706 32.778833280244079 1.3541666666666681 475.50000000000006
decision_type=2 2 2 2 2 2 2 2 2 2 2 2 2 2 2 2 2 2 2 2 2 2 2
left_child=2 3 6 5 -3 9 -1 11 16 14 15 -8 22 -5 -2 -11 -4 -16 -18 -17 -21 -22 -6
right_child=1 4 8 13 12 -7 7 -9 -10 10 -12 -13 -14 -15 17 19 18 -19 -20 20 21 -23 -24
leaf_value=-0.0029861183598243256 0.020622688929485482 0.01320980121331893 -0.0080712876899793652 -0.0010238807305731799 0.0008994758950490588 0.010178155898911074 -0.015128603058738612 -0.022711991727182121 -0.025919563601263431 -0.023574921264111173 -0.015888042546656288 -0.0037920463887272421 -0.016776165578519367 -0.012147248159461336 0.0015796171314856708 0.004644437361220841 -0.0033212694063932719 0.026949393204671216 0.0068325081969300532 0.019786257898025204 -0.0036916643424739874 -0.029821344626097226 0.0091936644518693777
leaf_weight=341.65802078461275 81.268712762743235 1207.3700462533161 289.43240774050355 336.50590675324202 462.12511658109725 554.30885074473917 675.5888830833137 447.08466017292812 49.960968433879316 38.712268711067736 182.13496190682054 284.92157012689859 53.765714967623353 388.28968443162739 541.60100866667926 511.24039334058762 335.38158202893101 31.651782531291246 382.52686840621755 31.290681602433324 265.10372393392026 42.417212165892124 566.17160344310105
leaf_count=2332 229 3330 2636 1472 1553 1659 6749 6941 814 286 894 2367 248 2222 2110 1883 3892 86 2549 94 1136 244 1569
internal_value=-0.000374078 0.00407572 -0.00876765 0.000302436 0.00902756 0.00261867 -0.0128487 -0.0152425 -0.00201582 0.000190115 -0.00285411 -0.0117658 0.004361 -0.00698292 0.00517095 -0.000183065 -0.000830272 0.00298039 0.00208902 0.000882225 -0.00479466 -0.0072958 0.00546619
internal_weight=8100.51 5293.96 2806.55 3004.53 2289.43 2279.73 1749.25 1407.6 1057.3 1725.42 1070.9 960.51 1082.06 724.796 654.522 888.764 1007.34 573.253 717.908 850.052 338.812 307.521 1028.3
internal_count=47295 19015 28280 12315 6700 8621 18389 16057 9891 6962 4537 9116 3370 3694 2425 3643 9077 2196 6441 3357 1474 1380 3122
is_linear=0
shrinkage=0.03


Tree=26
num_leaves=24
num_cat=0
split_feature=15 15 8 16 8 17 16 2 19 18 1 1 23 15 5 23 17 2 23 24 7 20 19
split_gain=327.5 112.561 78.9689 61.8788 52.9866 40.536 38.5482 30.8341 23.8617 23.0869 22.5837 20.2994 18.8413 18.0597 17.9307 17.5384 17.3777 15.8201 18.0548 15.7566 15.2165 19.0697 19.3736
threshold=1.1666666666666667 1.0000000180025095e-35 1.0000000180025095e-35 -2.8999999999999995 2.5000000000000004 37.223925083498926 -1.0999999999999999 73.983000000000018 500.50000000000006 22.500000000000004 67.077250000000006 70.946500000000015 -0.072727272727272682 2.1666666666666674 0.17950146106707274 -0.45384948384948376 35.848107927059438 59.480500000000013 0.73216089466089473 -0.24108848667672192 2.5000000000000004 1.5000000000000002 479.50000000000006
decision_type=2 2 2 2 2 2 2 2 2 2 2 2 2 2 2 2 2 2 2 2 2 2 2
left_child=1 2 9 15 10 8 7 17 13 16 -3 -11 -10 -2 -15 -4 -1 -6 -19 -14 -12 22 -22
right_child=5 4 3 -5 6 -7 -8 -9 12 11 20 -13 19 14 -16 -17 -18 18 -20 -21 21 -23 -24
leaf_value=-0.0052931386176297748 0.0057219840474476329 -0.0098086732028412026 -0.001459245606165966 -0.023900091073881288 -0.017162583571016288 -0.0005321122357642696 -0.015015908444381458 0.0042676727632068347 0.016862588290369067 -0.012936776556016005 0.0099915563883933162 0.0041587083414573378 -0.044787639811442861 -0.045637405021503201 0.013548986660347056 -0.012209469464528007 -0.021589133356112164 -0.0038503183360164986 -0.037825912400392785 0.0069038122803862382 0.00058876801626979902 -0.0026051816536054656 0.010559140293389106
leaf_weight=290.72926883026958 1228.3488324470818 118.20546965673566 171.71268575079739 439.97016668319702 99.130126137286425 425.60427912883461 284.43486748822033 387.11674097180367 538.54097585380077 74.215870228596032 288.5090178437531 396.392815485131 5.4967295452952376 4.6578757483512154 419.87652034685016 667.62474038265646 73.855240236036479 786.82023766078055 14.333097809925674 153.92949761450291 367.24351784866303 441.3891488974914 335.76541052293032
leaf_count=1747 3872 629 1630 8209 623 1409 2082 1898 1302 631 1031 2910 24 28 1053 7318 764 4232 140 440 1918 2118 1287
internal_value=-0.00034229 -0.0047579 -0.0101027 -0.0147871 -0.001139 0.00798722 -0.00502086 -0.00281258 0.00952959 -0.00292743 0.00279472 0.00146272 0.0141808 0.00756552 0.0128996 -0.0100102 -0.00859428 -0.00585704 -0.00445816 0.00512158 0.00383442 0.00228217 0.00535074
internal_weight=8013.9 5237.45 2114.5 1279.31 3122.95 2776.45 1571.84 1287.4 2350.85 835.193 1551.11 470.609 697.967 1652.88 424.534 839.337 364.585 900.283 801.153 159.426 1432.91 1144.4 703.009
internal_count=47295 39167 23209 17157 15958 8128 8975 6893 6719 6052 6983 3541 1766 4953 1081 8948 2511 4995 4372 464 6354 5323 3205
is_linear=0
shrinkage=0.03


Tree=27
num_leaves=24
num_cat=0
split_feature=15 4 18 8 17 23 19 17 24 16 22 17 4 16 16 17 3 4 19 23 4 2 16
split_gain=305.588 94.1195 77.3687 52.4391 42.3524 41.9959 35.9859 31.4011 29.6099 27.6266 23.931 34.9202 23.4666 26.5835 23.2089 22.6222 22.356 22.2914 20.5689 20.3131 19.3956 18.7199 18.3315
threshold=0.41666666666666669 0.31157925834176375 23.500000000000004 4.5000000000000009 36.414784089026732 1.0000000180025095e-35 502.50000000000006 37.522952242477892 0.57298812298812307 -4.3666666666666663 1.0000000180025095e-35 37.03713910553752 0.24711958102207757 -6.2916666666666652 -2.6333333333333329 35.014317334577314 0.12287357548288415 0.26131736870800676 484.50000000000006 -0.072727272727272682 0.23552239341025552 82.341000000000022 0.77500000000000013
decision_type=2 2 2 2 2 2 2 2 2 2 2 2 2 2 2 2 2 2 2 2 2 2 2
left_child=2 3 5 6 19 7 10 -1 12 -7 15 -12 18 -14 21 -2 -17 -11 -4 -3 -8 -5 -6
right_child=1 4 8 14 22 9 20 -9 -10 17 11 -13 13 -15 -16 16 -18 -19 -20 -21 -22 -23 -24
leaf_value=-0.003782073201689419 0.01974990932319045 0.015033398002678264 -0.010671924990154657 -0.0028011046423358187 0.0052050624983291877 -0.0083534660614997414 -0.010583399912671702 -0.015198998435464449 -0.025341646322257126 -0.025292932603484235 -0.00011166377537114993 -0.015941475131511562 0.015996520224157231 -0.00016728084588521827 -0.011813909866900001 0.0013857032390134098 0.026858233327616839 -0.012740932213347543 0.0023731597162832438 0.0062042415389612681 0.010945269025991633 0.026078675410473665 -0.012762452950881728
leaf_weight=581.45048218686134 81.86371074616909 833.58015247993171 293.4208463714458 305.81455291062593 1041.3921998403966 215.72451720107347 40.69086867198348 345.7340319682844 46.743587093893439 370.2144922898151 887.62035043351352 146.05801953189075 117.2061904547736 418.70955336559564 376.59872179478407 530.92254092544317 32.932853700593114 194.09765424998477 172.87382228439674 326.33133103698492 506.08249746635556 21.628985721617937 53.742478983476758
leaf_count=4490 229 2217 3628 1399 3212 1888 184 3548 814 6477 3755 782 559 3138 2221 2110 86 1986 1752 1016 1475 74 255
internal_value=-0.000343305 0.00394719 -0.00841513 0.000401479 0.00855451 -0.012355 0.00265842 -0.00803928 -0.00200277 -0.0174849 0.000482033 -0.0023484 -0.000914238 0.00336779 -0.00673492 0.00501305 0.00287347 -0.0209756 -0.0058356 0.0125494 0.00934311 -0.000893477 0.00432333
internal_weight=7941.43 5185.26 2756.18 2930.21 2255.05 1707.22 2226.17 927.185 1048.95 780.037 1679.4 1033.68 1002.21 535.916 704.042 645.719 563.855 564.312 466.295 1159.91 546.773 327.444 1095.13
internal_count=47295 19015 28280 12315 6700 18389 8621 8038 9891 10351 6962 4537 9077 3697 3694 2425 2196 8463 5380 3233 1659 1473 3467
is_linear=0
shrinkage=0.03


Tree=28
num_leaves=24
num_cat=0
split_feature=15 15 8 16 1 17 8 16 19 15 16 2 1 18 16 20 23 19 5 7 16 13 23
split_gain=293.201 102.803 73.9706 57.5765 47.7305 39.4677 37.66 31.6675 25.3348 25.656 20.967 19.7394 18.6631 18.0878 17.9792 15.9553 15.9394 15.1091 14.9831 14.4915 16.4551 14.0597 15.9936
threshold=1.1666666666666667 1.0000000180025095e-35 1.0000000180025095e-35 -2.8999999999999995 66.66500000000002 37.223925083498926 2.5000000000000004 -1.0999999999999999 458.50000000000006 2.4166666666666674 -5.0999999999999988 75.804000000000016 68.315500000000029 103.50000000000001 0.77500000000000013 13.500000000000002 -0.45384948384948376 535.50000000000011 2.6422914185177357 2.5000000000000004 -9.0999999999999979 2.5000000000000004 0.006666666666666655
decision_type=2 2 2 2 2 2 2 2 2 2 2 2 2 2 2 2 2 2 2 2 2 2 2
left_child=1 2 10 16 -3 8 19 11 -2 14 12 -8 -1 -12 -10 -11 -4 -9 -16 -6 -21 22 -7
right_child=5 4 3 -5 6 21 7 17 9 15 13 -13 -14 -15 18 -17 -18 -19 -20 20 -22 -23 -24
leaf_value=-0.033364139481714031 0.0028935084356823603 -0.011781854964121825 -0.0015568906637212089 -0.023298004126660717 0.0096413635256042476 0.0077121737515161749 -0.0037393587122741016 -0.015183789074730499 0.00996692256803418 0.019530530329190009 -0.0044796400757473815 0.0054112905744722693 0.0060067272902727233 -0.025040299196207861 0.010384362902386628 -0.022377951455902035 -0.011833258586859168 0.024532724128072295 -0.013135849411963796 0.031829022369275192 0.0016613065489091733 -0.0065571391927169553 -0.015552366188151173
leaf_weight=11.328733796253799 465.19277215283364 333.24184000957757 171.46004705876112 424.17129662213847 287.45264934469014 188.02141784504056 792.57166984211653 218.04758247267455 1423.0169969424605 312.68486627936363 524.74459997098893 289.71894311904907 249.21943468321115 41.557921632193029 42.208591800183058 8.3955656811594945 653.93568804766983 8.9754501897841674 57.69633687287569 16.512991864234209 1118.1203746683896 201.65333508327603 30.976495530456305
leaf_count=111 1623 2014 1630 8209 1031 578 4382 1690 3958 755 3872 1422 1652 417 126 29 7318 43 228 44 5332 697 134
internal_value=-0.000335835 -0.00455508 -0.00970891 -0.0143149 -0.00106316 0.00761018 0.000244569 -0.00342664 0.00914976 0.010728 -0.0027481 -0.00128982 0.00429487 -0.00598848 0.00910324 0.0184347 -0.00969854 -0.0136136 -0.00319885 0.00362465 0.00210036 -0.000841488 0.00442149
internal_weight=7870.91 5141.06 2076.42 1249.57 3064.64 2729.85 2731.4 1309.31 2309.2 1844 826.851 1082.29 260.548 566.303 1522.92 321.08 825.396 227.023 99.9049 1422.09 1134.63 420.651 218.998
internal_count=47295 39167 23209 17157 15958 8128 13944 7537 6719 5096 6052 5804 1763 4289 4312 784 8948 1733 354 6407 5376 1409 712
is_linear=0
shrinkage=0.03


Tree=29
num_leaves=24
num_cat=0
split_feature=15 15 18 1 17 11 16 24 23 19 16 17 19 25 3 19 14 14 16 16 19 23 12
split_gain=278.989 87.2145 71.7941 45.6594 39.0833 34.71 31.0388 28.2215 25.4586 22.8508 22.7616 22.3247 21.5821 19.1103 18.9315 17.807 16.664 15.9594 15.5292 15.1523 15.0946 14.4753 20.9286
threshold=0.41666666666666669 1.5833333333333337 23.500000000000004 69.976500000000016 34.818008271415387 1.0000000180025095e-35 -3.5499999999999994 0.57298812298812307 0.034126429126429145 436.50000000000006 -6.4499999999999993 36.493017722697189 428.50000000000006 56.750000000000007 0.085931650668602796 505.50000000000006 -2.6333333333333324 -0.88749999999999918 -6.3666666666666663 -4.4499999999999993 515.50000000000011 -0.15452762923351154 79.350000000000009
decision_type=2 2 2 2 2 2 2 2 2 2 2 2 2 2 2 2 2 2 2 2 2 2 2
left_child=2 3 4 12 -1 6 -6 9 16 -4 -10 15 -2 -7 -11 17 -5 -3 -16 -14 -12 -17 -23
right_child=1 11 7 8 5 13 -8 -9 10 14 20 -13 19 -15 18 21 -18 -19 -20 -21 -22 22 -24
leaf_value=-0.002809283811056142 -0.026239461400327201 -0.0063493277611086172 -0.013068679790913933 -0.02189903634814434 -0.012845697961069791 -0.012924459379267124 -0.025894245136208825 -0.025148096348823482 0.020790267038695652 -0.0026556799313766947 -0.0053750342334847167 0.004231451346522027 0.009147294973900667 -0.0021216727573437799 0.017618999261285347 0.020617108760859371 0.0045870564069258801 0.009943050458175378 0.0027057771890422804 -0.0069127914752184026 0.0082683809185812585 -0.013769556194570187 0.017132074157598019
leaf_weight=336.1293878890574 47.473594851791859 57.553057003766298 121.03833115659654 21.630847476422787 338.35577888973057 466.22156343888491 318.51489468617365 44.991412065923214 36.079733580350876 535.6149763003923 584.90478366799653 646.88856218196452 59.439340312033892 215.50356227112934 83.809048496186733 251.55107707157731 1835.6872257543728 904.90690288878977 251.18823740957305 478.52215093933046 83.38718669116497 30.178190778940916 56.946672167629004
leaf_count=2332 326 190 1570 126 3436 4749 6039 814 126 5262 2959 1862 256 1833 383 587 7192 2522 1862 2320 314 97 138
internal_value=-0.000339774 0.00379738 -0.00811424 0.000709381 -0.011955 -0.0142515 -0.0191729 -0.00190943 0.00243683 -0.000855082 -0.0024196 0.00878619 -0.00684943 -0.00950954 0.000842934 0.0110507 0.00427859 0.0089688 0.00643674 -0.00513831 -0.00367266 0.016967 0.00642841
internal_weight=7806.52 5095.15 2711.37 3147.12 1674.73 1338.6 656.871 1036.64 2561.69 991.651 704.372 1948.02 585.435 681.725 870.612 1301.14 1857.32 962.46 334.997 537.961 668.292 338.676 87.1249
internal_count=47295 19015 28280 13619 18389 16057 9475 9891 10717 9077 3399 5396 2902 6582 7507 3534 7318 2712 2245 2576 3273 822 235
is_linear=0
shrinkage=0.03


Tree=30
num_leaves=24
num_cat=0
split_feature=4 17 4 17 4 19 3 8 16 19 16 17 4 16 2 1 19 8 19 17 15 18 1
split_gain=233.262 131.768 69.8699 51.0624 41.2038 35.0694 27.9282 26.1535 29.6316 23.2143 22.8522 22.7986 21.1807 18.6414 17.4605 17.1418 16.9706 16.5685 15.4946 14.6129 14.1369 18.1968 13.6459
threshold=0.30285984190838583 36.049434199281301 0.2370967515925613 36.314857094537466 0.24445217980678971 435.50000000000006 0.12484047317508638 1.5000000000000002 -2.3666666666666663 503.50000000000006 -8.4499999999999975 37.67829457364342 0.20303537967729543 1.1000000000000003 59.268000000000008 76.712000000000003 495.50000000000006 1.0000000180025095e-35 426.50000000000006 34.818008271415387 1.8333333333333337 145.50000000000003 78.219000000000008
decision_type=2 2 2 2 2 2 2 2 2 2 2 2 2 2 2 2 2 2 2 2 2 2 2
left_child=1 4 -3 13 10 -4 -5 -7 14 18 -1 -10 16 20 -9 -8 -12 -17 -6 -14 -2 -22 -13
right_child=3 2 5 6 9 7 15 8 11 -11 12 22 19 -15 -16 17 -18 -19 -20 -21 21 -23 -24
leaf_value=0.010569507223815741 0.0099380943262781483 -0.017688551996037596 -0.014912015569475193 0.0014354290591675094 -0.013982484336089802 0.0010664902047596407 0.005196433999081808 -0.016074951954131961 -0.0077186462422924795 0.011303544481624822 -0.020764748955091124 -0.018025701768646676 0.00082497328823966304 -0.0048239611357901203 -0.001888155013082556 -0.014043410884968613 0.0012564104889503718 0.023326470868273958 0.0034065052102179539 -0.0093887475038197058 0.017643132151425139 -0.017374962123497342 -0.042899453851057534
leaf_weight=91.58829001057893 689.52522382047027 531.95791499130428 315.77389915240929 1144.0307494350709 48.303325824439526 602.75655440473929 155.36753899604082 86.287330231629312 312.50391132803634 374.15466382354498 118.57394325966015 141.22307446459308 376.31259562307969 57.371781431138515 820.69334058184177 11.73627984523773 42.888593698851764 118.39643983496353 1019.5906515587121 189.58177574211732 466.7564885430038 13.74866498634219 23.09643735922873
leaf_count=677 2408 7795 2956 4444 453 3374 487 623 2455 1321 1769 1357 2571 216 4950 45 404 300 4901 2168 1114 48 297
internal_value=0.000177376 -0.00358045 -0.00788937 0.00738387 0.00182106 -0.00562526 0.00353017 -0.00414908 -0.00642088 0.00487301 -0.00355301 -0.0124754 -0.0053313 0.0118722 -0.00323784 0.011924 -0.0149154 0.0199562 0.00261996 -0.00259675 0.0126909 0.0166412 -0.0215219
internal_weight=7752.22 5095.29 2834.29 2656.93 2260.99 2302.33 1429.53 1986.56 1383.8 1442.05 818.945 476.823 727.357 1227.4 906.981 285.5 161.463 130.133 1067.89 565.894 1170.03 480.505 164.32
internal_count=47133 38071 23807 9062 14264 16012 5276 13056 9682 6675 7589 4109 6912 3786 5573 832 2173 345 5354 4739 3570 1162 1654
is_linear=0
shrinkage=0.03


Tree=31
num_leaves=24
num_cat=0
split_feature=15 17 19 4 19 17 4 5 18 3 1 15 4 25 7 16 8 17 23 0 16 17 19
split_gain=216.841 69.2057 59.7557 55.2478 41.4843 41.2189 31.4868 31.1502 27.8402 25.8944 24.7941 24.028 23.4563 22.6605 21.8888 21.2715 22.6592 21.4968 21.1113 17.1536 17.7301 17.1248 16.6791
threshold=0.41666666666666669 37.098786864216244 438.50000000000006 0.31405051611764656 442.50000000000006 35.970811362287741 0.23552239341025552 2.5628355536397174 98.500000000000014 0.12484047317508638 76.573000000000022 2.4166666666666674 0.2465885216914451 53.500000000000007 4.5000000000000009 -3.2916666666666665 2.5000000000000004 38.118745625933876 0.76685606060606071 70.393212500000018 0.55000000000000016 33.661610548877228 428.50000000000006
decision_type=2 2 2 2 2 2 2 2 2 2 2 2 2 2 2 2 2 2 2 2 2 2 2
left_child=2 3 -1 4 -2 -4 -7 12 -9 15 -11 14 21 -14 -5 -3 -17 -18 -8 22 -21 -6 -16
right_child=1 9 5 11 7 6 18 8 -10 10 -12 -13 13 -15 19 16 17 -19 -20 20 -22 -23 -24
leaf_value=-0.016956305591525563 -0.0099360083853609043 0.0029708277032203766 0.00041598839204227278 0.017039094787460563 0.012253987605037965 -0.015608815903270368 -0.0045080065224626263 0.0023964534954448898 -0.014242050194154312 -0.0011102051146259972 0.027066360640086249 0.018995697384892294 -0.023157249796328189 0.012619745838308964 -0.02570759180445625 0.00036851029983181173 -0.0063988182639839689 -0.020533796922676359 -0.028590209506598675 0.010718427078188132 -0.0071583947004206982 -0.0057306818832834738 0.0029813134601368698
leaf_weight=430.10900142835453 207.79183560796082 327.91984452772886 859.1654136441648 230.64512426406145 70.768008744344115 357.89246765710413 1006.0296846763231 1035.742344899103 99.174303222447634 62.828268023207784 50.859726179391146 237.33919276110828 16.377088982611895 587.93799396231771 19.298237297683954 311.34111475758255 397.05982638802379 128.06580900587142 33.864415299147367 696.7010034006089 53.786221463233232 145.86478707101196 332.10869845375419
leaf_count=5953 1209 1287 7585 604 242 5394 8820 4192 457 225 124 587 86 1801 86 1288 1885 745 454 2089 220 728 1072
internal_value=0.000167782 0.00385445 -0.00670819 0.00591708 0.00280854 -0.0047552 -0.00793373 0.00416252 0.000942504 -0.00217095 0.0114949 0.0102014 0.00861402 0.0116502 0.00863502 -0.00350525 -0.00604406 -0.00984601 -0.00529225 0.00687591 0.00943722 0.000144418 0.0014058
internal_weight=7698.67 5011.61 2687.06 3733.53 2163.66 2256.95 1397.79 1955.86 1134.92 1278.07 113.688 1569.88 820.948 604.315 1332.54 1164.39 836.467 525.126 1039.89 1101.89 750.487 216.633 351.407
internal_count=47133 18927 28206 13373 8715 22253 14668 7506 4649 5554 349 4658 2857 1887 4071 5205 3918 2630 9274 3467 2309 970 1158
is_linear=0
shrinkage=0.03


Tree=32
num_leaves=24
num_cat=0
split_feature=15 17 8 4 17 3 5 23 4 18 19 2 16 5 4 6 4 23 4 3 23 8 2
split_gain=211.861 66.2282 57.6401 46.1247 35.3327 34.0508 29.6355 25.651 24.1367 22.6652 22.3913 22.0011 21.8409 21.6849 19.2979 24.1325 19.0535 18.348 16.8137 16.8108 16.4274 16.1568 18.7452
threshold=0.41666666666666669 36.493017722697189 4.5000000000000009 0.30248055934927665 37.57282255118367 0.12484047317508638 2.1596523203917131 0.73216089466089473 0.2370967515925613 98.500000000000014 435.50000000000006 79.283000000000015 -1.5499999999999998 0.60648134504122553 0.24427333597101727 2.5000000000000004 0.30152070580697848 0.41741924741924746 0.29113486824660001 0.08069717979642671 -0.43999999999999995 4.5000000000000009 83.82850000000002
decision_type=2 2 2 2 2 2 2 2 2 2 2 2 2 2 2 2 2 2 2 2 2 2 2
left_child=2 3 4 6 8 7 13 10 -1 21 -3 20 18 19 -12 -16 -17 -5 -4 -2 -7 22 -8
right_child=1 5 12 17 -6 11 9 -9 -10 -11 14 -13 -14 -15 15 16 -18 -19 -20 -21 -22 -23 -24
leaf_value=-0.0065274169374877049 -0.020346597166893833 -0.010480104898453621 -0.012854678782671641 0.011766156883346958 -0.01118085072944623 0.014063648196422276 0.0063083755412969983 -0.036358923800791212 0.0015069852231577015 -0.015560665764917957 -0.019532901030196118 0.033985321271902583 -0.023391633062067037 0.010969497110220196 0.0058024055328506127 -0.0075631832827905377 0.00081838137522825263 -0.0032312181703735335 0.001576987077140609 0.00465859486001363 -0.0023777231465708501 -0.0088616330454075864 -0.0045733887409713661
leaf_weight=536.38390378979966 36.747516256757081 205.93252739869058 543.59382513538003 1268.2195146847516 442.35737543832511 125.98010551743209 473.44109414052218 18.807632016018033 903.14936471683905 79.578664407134056 44.2839410956949 30.781077675521374 158.43320397706702 498.32831454649568 528.53392903320491 368.16977129131556 724.3466076888144 77.928888766095042 83.8653853405267 70.852161426097155 96.656243586912751 121.14742241427302 203.80405592825264
leaf_count=6677 239 1180 6564 3729 4548 362 1780 129 6806 411 311 71 2976 1719 1928 1868 2660 319 635 271 320 689 941
internal_value=0.000205491 0.00386401 -0.00661507 0.00687683 -0.00376542 -0.000113817 0.003229 -0.00149835 -0.00148671 -0.000293053 -0.00114797 0.0102125 -0.0134388 0.00833234 6.02322e-06 0.000539789 -0.00200614 0.010898 -0.0109258 -0.0038812 0.00692572 0.00122873 0.00303372
internal_weight=7641.32 4973.54 2667.78 2830.05 1881.89 2143.49 1483.9 1890.07 1439.53 877.971 1871.27 253.417 785.892 605.928 1665.33 1621.05 1092.52 1346.15 627.459 107.6 222.636 798.393 677.245
internal_count=47133 18927 28206 10098 18031 8829 6050 8076 13483 3821 7947 753 10175 2229 6767 6456 4528 4048 7199 510 682 3410 2721
is_linear=0
shrinkage=0.03


Tree=33
num_leaves=24
num_cat=0
split_feature=15 15 8 0 16 16 8 16 20 4 4 16 25 3 4 25 18 19 23 23 19 7 23
split_gain=203.129 76.9814 61.1327 53.0652 40.5739 29.4368 29.1711 25.661 25.071 24.6141 21.0137 20.7891 19.8337 17.9938 17.0412 16.4617 16.2019 15.806 22.2521 15.5864 16.9251 15.3855 15.3975
threshold=1.0000000180025095e-35 1.5833333333333337 1.5000000000000002 68.970100000000016 -2.3666666666666663 -3.4499999999999997 3.5000000000000004 -7.7749999999999995 4.5000000000000009 0.30198520345262081 0.31405051611764656 2.3666666666666671 53.500000000000007 0.068468241426061713 0.30285984190838583 56.750000000000007 148.50000000000003 487.50000000000006 -0.23393217893217891 0.056969696969696983 536.50000000000011 4.5000000000000009 -0.86916178592649163
decision_type=2 2 2 2 2 2 2 2 2 2 2 2 2 2 2 2 2 2 2 2 2 2 2
left_child=2 3 8 5 7 -2 12 -4 -1 -8 -3 16 -5 -10 -14 -9 21 -7 -19 -11 -21 -12 -23
right_child=1 10 4 6 -6 17 9 15 13 19 11 -13 14 -15 -16 -17 -18 18 -20 20 -22 22 -24
leaf_value=-0.0055380644757528586 0.0022417813398811397 0.0040688825999138176 0.01066550191609862 -0.011498469553849901 -0.023763870417639471 -0.010228786135095883 -0.0072327621287758027 -0.014323094372600913 -0.021656501532837175 0.006737529203440687 0.019611236395158868 -0.036052854963276072 0.0041860262832157449 0.0079157207704796916 0.011087523326283044 -0.0035114724381849522 -0.0080650699180904433 0.007911972440150598 -0.009704424342725837 -0.0094790746495579965 0.048770344094515514 0.021029911877632708 0.0086996431050130364
leaf_weight=823.47795896977186 411.72243395261467 711.34665944240987 51.283061725087464 59.852894876152277 254.45700052147731 592.820253001526 366.11594114080071 466.94635408837348 20.205411098897457 314.17263775877655 182.19150187633932 8.5230661258101446 1168.0193596603349 221.75609699822962 444.55456104874611 173.96745958039537 38.856057839468122 122.83991150557995 135.95585730485618 96.888226248323917 4.7075404450297347 102.55298490822315 819.60446232557297
leaf_count=7794 1837 2244 383 364 5511 3823 2640 5828 318 1251 460 39 5384 1406 1493 1919 122 482 735 559 13 256 2272
internal_value=0.000199373 0.00314572 -0.0079726 0.000651417 -0.0135202 -0.00434429 0.00322292 -0.00975451 -0.00304353 -0.00156047 0.00812296 0.0106269 0.00545922 0.00544624 0.00608863 -0.0113884 0.0109749 -0.00752839 -0.00134263 0.00343442 -0.00678003 0.0116448 0.0100709
internal_weight=7592.82 5580.72 2012.09 3717.65 946.654 1263.34 2454.31 692.197 1065.44 781.884 1863.07 1151.73 1672.43 241.962 1612.57 640.914 1143.21 851.616 258.796 415.768 101.596 1104.35 922.157
internal_count=47133 23974 23159 18581 13641 6877 11704 8130 9518 4463 5393 3149 7241 1724 6877 7747 3110 5040 1217 1823 572 2988 2528
is_linear=0
shrinkage=0.03


Tree=34
num_leaves=24
num_cat=0
split_feature=15 17 19 4 17 4 4 5 13 4 19 15 4 18 16 1 5 20 16 3 19 18 24
split_gain=194.624 64.935 52.8775 38.8983 36.3379 31.1062 28.3471 25.2984 25.1521 22.8216 24.3929 17.8839 17.868 17.248 17.0814 17.6087 16.8112 16.5182 15.0597 14.8258 14.7118 14.4237 14.4188
threshold=0.41666666666666669 36.493017722697189 438.50000000000006 0.31405051611764656 35.970811362287741 0.30198520345262081 0.2370967515925613 2.1596523203917131 1.5000000000000002 0.24427333597101727 477.50000000000006 2.4166666666666674 0.4603160940134165 98.500000000000014 -3.2249999999999996 66.66500000000002 0.60648134504122553 7.5000000000000009 0.90000000000000013 0.171076874391106 527.50000000000011 20.500000000000004 0.47570028011204485
decision_type=2 2 2 2 2 2 2 2 2 2 2 2 2 2 2 2 2 2 2 2 2 2 2
left_child=2 3 -1 7 -4 8 -6 16 9 -3 -11 20 -13 -9 -7 -16 17 -2 -17 -18 -5 -8 -10
right_child=1 5 4 11 6 14 21 13 22 10 -12 12 -14 -15 15 18 19 -19 -20 -21 -22 -23 -24
leaf_value=-0.016145746376361604 -0.009453382295712626 -0.023572963533016605 0.00034786748168327678 0.0081866966508674279 -0.01443723596320586 0.010505150716327712 -0.0083091034956901538 0.0021431457888684271 -0.0084344966539136989 -0.0045394557699930298 0.01079387120115253 0.021165218351454698 -0.031899653480368127 -0.011645895132036814 -0.0080229797257993177 0.0036615831156948651 0.011026214965356034 0.01796235762312734 -0.017763147048236054 -0.038893984240104928 0.021403895401879463 -0.0010315725321041339 -0.040217199613512965
leaf_weight=417.6648265644908 78.525802285410464 31.64812027849257 853.16816613916308 832.1918079406023 385.36588778323494 215.67978790774941 513.69156521651894 938.86117558646947 451.15658178692684 190.9330064561218 182.7482158318162 183.63257818296552 5.8942192271351805 89.417667787522078 157.16386329568923 828.85719438735396 551.20253249630332 26.438307989388704 30.618424709886312 5.4068802632391444 83.387548888102174 468.77789462683722 13.22314417362213
leaf_count=5953 434 245 7585 2581 5866 682 5129 3960 2410 972 635 464 18 456 667 2931 1876 76 162 29 204 3673 125
internal_value=0.000215427 0.00375448 -0.00635254 0.00675038 -0.0045109 -0.000229022 -0.00754149 0.00388833 -0.00457312 0.000887646 0.00295928 0.0111268 0.0195149 0.00094407 0.00283683 0.00120999 0.00846458 -0.00254792 0.00289834 0.0105413 0.00939047 -0.00483668 -0.0093395
internal_weight=7535.66 4896.99 2638.67 2794.96 2221 2102.03 1367.84 1689.85 869.709 405.329 373.681 1105.11 189.527 1028.28 1232.32 1016.64 661.574 104.964 859.476 556.609 915.579 982.469 464.38
internal_count=47133 18927 28206 10098 22253 8829 14668 6831 4387 1852 1607 3267 482 4416 4442 3760 2415 510 3093 1905 2785 8802 2535
is_linear=0
shrinkage=0.03


Tree=35
num_leaves=24
num_cat=0
split_feature=15 15 16 4 19 8 19 8 2 16 4 16 15 2 3 17 17 4 19 22 15 8 3
split_gain=199.867 63.1078 59.7686 47.7372 37.3998 26.9898 25.8365 23.7442 20.708 19.9999 19.548 18.6248 29.9627 18.7957 17.9149 17.6716 17.4547 16.0531 15.9142 15.2626 15.8694 15.7558 15.081
threshold=0.41666666666666669 1.8333333333333337 -5.3666666666666663 0.23587044504871493 473.50000000000006 3.5000000000000004 450.50000000000006 1.5000000000000002 74.187312500000019 -1.3666666666666665 0.2465885216914451 -3.0999999999999996 0.83333333333333337 67.904250000000005 0.098656174276365097 37.399009474590876 35.109688778738551 0.27216738528758561 413.50000000000006 1.0000000180025095e-35 2.5833333333333335 4.5000000000000009 0.085803936691898022
decision_type=2 2 2 2 2 2 2 2 2 2 2 2 2 2 2 2 2 2 2 2 2 2 2
left_child=2 4 8 16 11 10 15 18 22 -9 -6 17 13 -13 -12 -3 -4 -2 -5 20 21 -8 -1
right_child=1 6 3 7 5 -7 19 9 -10 -11 14 12 -14 -15 -16 -17 -18 -19 -20 -21 -22 -23 -24
leaf_value=-0.0079442110291529922 -0.0036469498469532988 0.0004972195306759572 -0.0083071698313752027 -0.031579335486789567 -0.0020714747328915823 5.1339546606956798e-05 0.015992652752548405 -0.0077533635375576573 0.0068473845209679638 -0.020639906201150995 0.011694062096049607 -0.021930582798175807 -0.0010389492910896627 -0.0059145382929569421 0.0038730763824264525 -0.040382461224902862 -0.02046753985814774 0.0066539263475497617 -0.0013151220881195272 0.0070526084307251944 0.021341257315496 0.0041424922294205305 0.0047757468726909273
