tree
version=v4
num_class=1
num_tree_per_iteration=1
label_index=0
max_feature_idx=25
objective=lambdarank
feature_names=Column_0 Column_1 Column_2 Column_3 Column_4 Column_5 Column_6 Column_7 Column_8 Column_9 Column_10 Column_11 Column_12 Column_13 Column_14 Column_15 Column_16 Column_17 Column_18 Column_19 Column_20 Column_21 Column_22 Column_23 Column_24 Column_25
feature_infos=[0:104.00599670410156] [0:115.91000366210938] [0:113.69999694824219] [0.052017848938703537:0.30601492524147034] [0.16279301047325134:0.47077473998069763] [0:5] [0:5] [0:5] [0:5] none none [0:1] [0:178.30000305175781] [0:5] [-7:4.8000001907348633] [0:3] [-13.5:5] [0:53.197093963623047] [0:1006] [0:604] [-47:59] [0:1] [0:1] [-1:1] [-1:1] [50:60]
tree_sizes=2726 2727 2728 2734 2732 2734 2733 2729 2716 2738 2727 2734 2725 2723 2737 2729 2723 2732 2723 2734 2725 2728 2729 2745 2724 2727 2720 2729 2731 2734 2712 2729 2727 2729 2737 2732 2750 2736 2730 2726 2725 2736 2724 2731 2745 2740 2730 2741 2733 2729 2720 2735 2737 2745 2731 2740 2737 2740 2716 2737 2732 2723 2736 2735 2720 2740 2737 2722 2732 2727 2742 2727 2715 2733 2746 2717 2712 2727 2735 2716 2740 2733 2742 2738 2722 2718 2725 2707 2713 2729 2723 2726 2720 2726 2714 2711 2711 2725 2737 2706 2702 2743

Tree=0
num_leaves=24
num_cat=0
split_feature=15 15 16 17 8 17 19 15 15 8 15 23 17 3 7 16 25 6 18 17 15 16 8
split_gain=644.864 152.326 108.831 67.0098 41.919 34.4612 34.4319 28.628 25.433 24.3402 16.0181 15.1578 14.7934 13.0025 12.5316 12.3748 10.6923 10.3133 9.48902 9.29858 8.71932 8.07212 7.94165
threshold=0.58333334326744091 1.5833333134651186 -2.5499999523162837 35.118503570556648 2.5000000000000004 35.988658905029304 428.50000000000006 1.0000000180025095e-35 1.0000000180025095e-35 1.5000000000000002 2.1666666269302373 0.36449494957923895 38.611251831054695 0.08052979409694673 4.5000000000000009 -5.0999999046325675 56.750000000000007 4.5000000000000009 14.500000000000002 37.229654312133796 1.1666666865348818 -1.2916666865348814 4.5000000000000009
decision_type=2 2 2 2 2 2 2 2 2 2 2 2 2 2 2 2 2 2 2 2 2 2 2
left_child=2 6 4 22 5 -1 -2 9 15 18 19 12 14 16 -8 -6 -7 -15 -5 -3 -16 -11 -4
right_child=1 10 3 7 8 13 11 -9 -10 21 -12 -13 -14 17 20 -17 -18 -19 -20 -21 -22 -23 -24
leaf_value=0.023279409779080374 -0.015710240135362593 0.030641328206045097 0.022358184608488655 -0.042114569720396837 -0.0088845314508072797 -0.027058389833632932 0.025998944876093701 -0.017985243568418793 -7.1646474179965283e-05 -0.036119637408037572 0.040852522292510116 -0.0024594703762122502 -0.0084612899335856518 0.0045367220165779742 0.0090510785868772627 -0.023691695144906898 0.0053011093130048087 -0.018967217874908109 -0.01526988421789071 0.014835001606847939 0.019129564577167312 -0.047461342883952699 -0.039375381211128373
leaf_weight=51.125214616768062 50.030655219918117 181.57299158070236 24.241296545136723 15.119275634177027 69.47405343898572 34.07335647335276 61.155501321423799 99.825676977401599 77.035906540928409 123.43421924090944 134.01504266774282 74.230220987927169 29.833602466154844 95.864549592602998 321.74653603741899 188.95121803320944 12.583813881035892 20.372518909629434 54.819151524687186 41.07350604259409 101.66872289031744 104.11500416812487 2.0327386190183452
leaf_count=484 741 1613 231 239 1111 557 597 1556 1000 2194 960 970 405 1220 3768 3187 171 302 799 438 1058 2034 42
internal_value=-2.49945e-05 0.0169531 -0.0173914 -0.0288184 -0.00858253 0.00179144 0.00818272 -0.0318868 -0.015201 -0.0365516 0.0326579 0.0102135 0.0120422 -0.00495267 0.0133046 -0.019711 -0.0183308 0.000417258 -0.0210732 0.0277254 0.0114711 -0.041309 0.0175821
internal_weight=1968.39 995.327 973.068 423.587 549.481 214.019 638.665 397.313 335.461 297.488 356.662 588.635 514.404 162.894 484.571 258.425 46.6572 116.237 69.9384 222.646 423.415 227.549 26.274
internal_count=25677 10550 15127 7095 8032 2734 7539 6822 5298 5266 3011 6798 5828 2250 5423 4298 728 1522 1038 2051 4826 4228 273
is_linear=0
shrinkage=0.03


Tree=1
num_leaves=24
num_cat=0
split_feature=15 4 15 8 16 17 4 16 8 19 16 19 17 4 16 8 15 5 19 16 16 18 17
split_gain=1505.73 391.468 290.977 165.886 154.541 131.524 101.431 92.7378 82.6243 74.8539 63.7082 62.2554 56.671 54.8849 53.0038 48.7504 62.9025 41.582 40.5383 39.2609 34.3589 31.1837 30.8037
threshold=0.83333334326744091 0.24434839934110644 1.8333333134651186 1.5000000000000002 -3.2250000238418575 34.984567642211921 0.31010857224464422 -2.2250000238418575 3.5000000000000004 461.50000000000006 -1.4499999880790708 448.50000000000006 35.629913330078132 0.27228605747222906 1.6333333253860476 1.0000000180025095e-35 0.58333334326744091 4.6472585201263437 434.50000000000006 -3.7749999761581416 -0.77500000596046437 104.50000000000001 36.696973800659187
decision_type=2 2 2 2 2 2 2 2 2 2 2 2 2 2 2 2 2 2 2 2 2 2 2
left_child=1 3 6 12 15 -6 8 -5 17 20 -10 21 -1 -11 -8 18 -17 -2 -3 -14 -7 -4 -20
right_child=2 4 11 7 5 9 14 -9 10 13 -12 -13 19 -15 -16 16 -18 -19 22 -21 -22 -23 -24
leaf_value=0.016996022744307691 0.01188648849263438 -0.024587486968661702 0.0098438489758621434 -0.025335851680598782 0.017819677964025112 -0.019100971762790516 0.014614892551816817 -0.04458214617477306 -0.00054289396634495145 -0.017859920162808171 -0.022656140073346789 0.027147559862528443 -0.00037113832987378592 -0.0017896525566107398 -0.042256556375537879 -0.0071997450729691078 0.0090701712097837669 -0.011875579453845779 0.024517862308926875 -0.024176610202536135 -0.036309543562974243 -0.06030211370471341 0.0028388681431424051
leaf_weight=67.925164800137281 549.05548957362771 23.618759348988533 154.16154268011451 636.22614503279328 119.14234145730734 488.04492768086493 1133.5001410301775 348.88051358796656 423.17094646021724 339.75705434754491 162.19848047569394 1218.8427875004709 110.08216699585319 437.65489712171257 14.943391241133211 594.1065678037703 334.15262123197317 75.378867112100124 159.64877822622657 143.80453863553703 132.84589382074773 5.9229414016008368 93.556482013314962
leaf_count=152 1308 78 241 3487 253 2274 2385 2744 1143 1711 543 1609 423 1617 51 2458 852 248 302 755 740 11 292
internal_value=0.000174141 -0.012547 0.0138902 -0.0260432 -0.0060684 -0.012438 0.00748911 -0.032152 0.00142721 -0.0150161 -0.0066702 0.0248374 -0.00734312 -0.00881294 0.0138749 0.00195216 -0.00134294 0.00901804 0.0130015 -0.0138548 -0.0227829 0.00724853 0.0165077
internal_weight=7766.62 4029.45 3737.17 1306.92 2722.53 1517.45 2358.25 985.107 1209.8 1398.3 585.369 1378.93 321.812 777.412 1148.44 1205.08 928.259 624.434 276.824 253.887 620.891 160.084 253.205
internal_count=25677 18138 7539 7561 10577 6595 5678 6231 3242 6342 1686 1861 1330 3328 2436 3982 3310 1556 672 1178 3014 252 594
is_linear=0
shrinkage=0.03


Tree=2
num_leaves=24
num_cat=0
split_feature=15 4 15 8 8 16 16 15 4 19 17 15 17 0 17 19 7 16 16 0 19 0 8
split_gain=1174.19 300.448 210.693 137.52 136.98 109.691 81.8603 64.7345 59.2844 58.7771 52.0955 51.9373 47.9066 44.9555 39.9773 39.921 38.5461 33.8223 31.5031 30.9597 27.7839 28.1936 27.5259
threshold=0.83333334326744091 0.24533031880855563 1.8333333134651186 1.5000000000000002 1.5000000000000002 -2.5499999523162837 -2.2250000238418575 1.0000000180025095e-35 0.27228605747222906 461.50000000000006 36.41865539550782 0.58333334326744091 35.950172424316413 66.299850463867202 36.299341201782234 460.50000000000006 4.5000000000000009 -4.6333332061767569 -4.7750000953674308 59.333126068115241 413.50000000000006 68.376499176025405 3.5000000000000004
decision_type=2 2 2 2 2 2 2 2 2 2 2 2 2 2 2 2 2 2 2 2 2 2 2
left_child=1 3 8 14 9 7 17 18 12 20 -4 -7 -2 -13 -1 -10 -11 -5 -6 -17 -3 -22 -21
right_child=2 4 10 6 5 11 -8 -9 15 16 -12 13 -14 -15 -16 19 -18 -19 -20 22 21 -23 -24
leaf_value=0.0080748167687769868 0.015454552065777945 -0.040787397273311835 0.026914806791396788 -0.014080140052321666 -0.0030859867526412594 -0.026889925653493608 -0.042854814146977054 0.0015196970030548103 0.0025809397579418447 0.019493059877965974 0.014530184699760347 -0.028223685450096597 -0.0087594348601211861 -0.001962274594256414 -0.014501381109526916 -0.032669577301033342 0.0031581572907959732 -0.029032531861418721 -0.021933700204293693 0.017709997501501928 -0.014432963564418788 0.0053401763732717168 0.0087068034750677741
leaf_weight=105.35125717893243 95.510193131864071 19.853905061259866 811.58135119080544 215.76135768741369 129.14052707701921 394.5212133647874 297.05196107178926 634.08089144527912 539.18916286528111 234.26680040732026 490.39865753799677 84.294733010232449 319.6386100910604 192.96040407009423 213.95445163920522 13.594948485493658 292.15512225031853 369.00561168789864 208.95823522098362 566.4081510566175 122.6560737285763 137.82528433762491 663.80963286757469
leaf_count=298 266 121 1094 1211 548 2564 2867 2080 1451 481 767 381 1072 736 1091 49 1065 2486 1209 1190 513 487 1650
internal_value=0.000270002 -0.0116305 0.0126863 -0.0239219 -0.00560627 -0.0105748 -0.0300302 -0.00413313 0.00702155 0.00451831 0.0222501 -0.0198971 -0.0031887 -0.00994661 -0.00705262 0.00939888 0.0104275 -0.0235156 -0.0147346 0.0123544 -0.00657808 -0.00397065 0.012852
internal_weight=7151.97 3651.84 3500.13 1201.12 2450.71 1643.96 881.819 972.18 2198.15 806.757 1301.98 671.776 415.149 277.255 319.306 1783 526.422 584.767 338.099 1243.81 280.335 260.481 1230.22
internal_count=25677 18138 7539 7953 10185 7518 6564 3837 5678 2667 1861 3681 1338 1117 1389 4340 1546 3697 1757 2889 1121 1000 2840
is_linear=0
shrinkage=0.03


Tree=3
num_leaves=24
num_cat=0
split_feature=15 8 15 16 17 19 17 4 4 19 15 23 16 5 3 17 17 19 4 16 2 23 18
split_gain=970.246 302.872 274.605 126.441 104.856 76.8168 70.3756 64.1252 58.0089 42.5115 39.5673 35.0578 33.2991 33.1814 32.3999 31.9855 31.0012 29.7156 28.792 27.5818 25.7313 23.3409 23.0899
threshold=0.58333334326744091 1.5000000000000002 1.5833333134651186 -2.5499999523162837 35.988658905029304 428.50000000000006 36.34413146972657 0.23663619160652163 0.27579560875892645 458.50000000000006 1.0000000180025095e-35 -0.29854978621006006 -0.90000000596046437 2.838192462921143 0.12283629924058916 36.794536590576179 37.56183052062989 447.50000000000006 0.24434839934110644 -4.3666667938232413 65.144496917724624 -0.21132867038249967 53.500000000000007
decision_type=2 2 2 2 2 2 2 2 2 2 2 2 2 2 2 2 2 2 2 2 2 2 2
left_child=1 4 5 7 -1 -2 14 -3 15 13 -5 -6 20 -8 -4 -7 -14 -13 -17 -9 -10 22 -21
right_child=2 3 6 10 11 8 9 19 12 -11 -12 17 16 -15 -16 18 -18 -19 -20 21 -22 -23 -24
leaf_value=0.013549005756697419 -0.017686256563711443 -0.025999855581786035 0.018440613107884671 -0.037532213974391937 0.0041938276377475022 0.0039888656349288433 0.020597027889157588 -0.0037474282046338729 0.0024931096356172757 0.015581879697574861 -0.021313888466409438 -0.026477555619611334 0.0035514930197031776 -0.0076881077775489345 0.029518080871675928 -0.033267036865505549 -0.018793072629261456 -0.0078142235003146859 -0.006227613945462414 -0.010267831096560504 0.012158626539751522 -0.021371063006955501 0.028475575818209076
leaf_weight=323.94262098520994 156.13926415145397 342.50674579292536 495.50262459740043 425.91927537508309 159.03199146129191 305.95247458480299 50.208028316497803 324.33893901482224 342.00028515979648 628.05353366583586 198.47002892382443 101.53050568699837 267.03130211308599 145.49162220954895 456.61357090249658 39.578782945871353 70.67251081764698 314.96592471003532 339.10573926009238 130.5506899561733 900.80680744722486 239.93388528563082 15.486475128680466
leaf_count=726 741 2440 848 4277 635 1044 87 1463 955 1125 1332 622 791 340 611 196 254 1439 1208 680 2350 1453 60
internal_value=0.000341962 -0.0141488 0.00923801 -0.021681 -0.000103884 0.00266628 0.0181982 -0.0153376 0.0040692 0.0117776 -0.032377 -0.00778857 0.00722894 -0.000431371 0.0237531 -0.00322519 -0.00112464 -0.0123638 -0.00905368 -0.0101963 0.00949883 -0.0156155 -0.0061593
internal_weight=6773.83 2576.68 4197.16 1677.21 899.471 2421.29 1775.87 1052.82 2265.15 823.753 624.389 575.528 1580.51 195.7 952.116 684.637 337.704 416.496 378.685 710.31 1242.81 385.971 146.037
internal_count=25677 15127 10550 11705 3422 7539 3011 6096 6798 1552 5609 2696 4350 427 1459 2448 1045 2061 1404 3656 3305 2193 740
is_linear=0
shrinkage=0.03


Tree=4
num_leaves=24
num_cat=0
split_feature=15 8 15 16 17 4 8 4 16 15 5 17 15 23 16 25 25 14 18 16 23 19 18
split_gain=848.095 259.979 254.283 111.299 81.7311 68.8262 81.5047 53.7509 39.9146 36.2456 33.5924 32.6665 30.8223 27.5947 27.3611 27.2267 26.4524 29.2039 24.8079 23.4328 24.4839 22.7917 22.7852
threshold=0.58333334326744091 1.5000000000000002 1.8333333134651186 -2.5499999523162837 36.509460449218757 0.30467596650123602 4.5000000000000009 0.23687284439802173 0.77500000596046459 1.0000000180025095e-35 3.7880221605300908 37.56183052062989 2.5833333730697636 -0.342567428946495 1.5500000119209292 55.500000000000007 53.500000000000007 -0.27500000596046442 13.500000000000002 -4.3666667938232413 -0.21132867038249967 451.50000000000006 53.500000000000007
decision_type=2 2 2 2 2 2 2 2 2 2 2 2 2 2 2 2 2 2 2 2 2 2 2
left_child=1 4 5 7 15 6 10 -3 11 -5 16 -7 -4 -8 -14 -1 -2 -18 -6 -9 22 -12 -21
right_child=2 3 12 9 18 8 13 19 -10 -11 21 -13 14 -15 -16 -17 17 -19 -20 20 -22 -23 -24
leaf_value=0.00034126090938782586 -0.01597251152679759 -0.024921700707665233 0.017153616941381646 -0.036703311687979821 -0.028515937533196943 0.012445199154337491 -0.0010062971152607781 -0.0040953028184123105 -0.015211579878777122 -0.020514783901030946 -0.018544761168337559 0.00047899396491521288 0.028752683064856489 -0.014427696919585465 -0.021080049784574652 0.015920951148401221 0.022825717101164 0.0069857985082869981 -0.0066517920747495816 -0.01043893456199496 -0.021802454001373619 0.0012632399817602241 0.024719556589362077
leaf_weight=176.44227175042033 35.664830446243286 322.06480769626796 777.5545830950141 385.60350357368588 52.878026878461242 1032.5199289936572 225.89453842863441 317.46158880367875 58.787616062909365 183.81072849035263 66.067997926846147 256.28310967236757 382.82680562138557 353.81623572297394 10.17991319298744 235.96063241362572 136.07916188985109 455.09435837902129 400.10931554995477 124.14143429137766 211.46814849041402 250.5163739733398 19.148479931056499
leaf_count=553 138 2495 1320 4277 323 2521 790 1441 212 1332 308 707 520 1471 21 572 339 1332 1974 674 1426 871 60
internal_value=0.000409263 -0.0136001 0.00882982 -0.0209013 -0.000407192 0.0040245 -0.000344801 -0.0148444 0.00896298 -0.0314775 0.00509516 0.0100657 0.0206145 -0.00919781 0.0274619 0.00925534 0.00911821 0.0106319 -0.00920403 -0.0100164 -0.0153149 -0.00287049 -0.00574055
internal_weight=6470.37 2429.09 4041.29 1563.7 865.39 2870.72 1523.13 994.284 1347.59 569.414 943.423 1288.8 1170.56 579.711 393.007 412.403 626.838 591.174 452.987 672.22 354.758 316.584 143.29
internal_count=25677 15127 10550 11705 3422 8689 5249 6096 3440 5609 2988 3228 1861 2261 541 1125 1809 1671 2297 3601 2160 1179 734
is_linear=0
shrinkage=0.03


Tree=5
num_leaves=24
num_cat=0
split_feature=15 4 15 17 8 23 17 7 19 17 15 8 17 1 8 18 23 13 4 8 2 23 1
split_gain=694.918 191.513 166.327 97.7149 76.0015 65.355 50.2155 52.575 36.7651 36.579 34.5715 33.2959 26.6343 27.8263 25.0298 26.6665 24.9994 24.2561 23.1621 22.9755 24.6027 22.7817 24.7798
threshold=0.83333334326744091 0.24445217847824099 1.8333333134651186 35.734594345092781 1.0000000180025095e-35 -0.036386946216225617 36.82122993469239 4.5000000000000009 462.50000000000006 37.382574081420906 2.5833333730697636 1.5000000000000002 37.204509735107429 75.558502197265639 1.5000000000000002 109.50000000000001 0.41823232173919683 3.5000000000000004 0.32573646306991583 2.5000000000000004 59.574501037597663 0.13643579185009005 84.301502227783217
decision_type=2 2 2 2 2 2 2 2 2 2 2 2 2 2 2 2 2 2 2 2 2 2 2
left_child=1 4 6 -3 -1 9 7 -2 -7 -5 12 -10 -4 -14 18 21 -9 -6 -8 -11 -21 22 -16
right_child=2 3 10 5 17 8 14 16 11 19 -12 -13 13 -15 15 -17 -18 -19 -20 20 -22 -23 -24
leaf_value=-0.0021515164625436063 0.024701223857439975 0.0099699015436200428 0.017500759320462963 0.0035605605950236353 -0.021113248795346484 -0.021529877253291755 0.015513976487954816 0.0078547495746760076 0.0028018966534409931 -0.00019389721740735761 0.026450078472527956 -0.01431946641852758 -0.011691059962394484 0.023416512219841826 0.0021325442741794518 -0.032973026326107428 -0.0098663576867527181 -0.031922616758571436 -0.0054066274444712539 -0.032702250454785614 -0.0095116719551733807 -0.015513784450631628 -0.019263110378157245
leaf_weight=152.36892778240144 165.50336407497525 320.42269784584641 631.41586919128895 444.36106034182012 482.54049873165786 356.17415982298553 144.30441519245505 803.59181530959904 151.93626794405282 214.8216757401824 384.46128288656473 312.43772474676371 60.311412800103426 30.641836076974869 548.2792336884886 25.831219989806414 78.658817622810602 304.8879700768739 71.094264101237059 47.581915676593781 305.63191299699247 95.883638700470328 53.469036474823952
leaf_count=691 340 1004 1097 1885 4010 2350 404 2216 568 885 542 1841 139 60 1582 85 291 2972 181 288 1518 388 184
internal_value=-0.00019124 -0.0102462 0.00986283 -0.00531475 -0.0215458 -0.00798671 0.00467047 0.00918543 -0.014279 -0.0028868 0.0191824 -0.00871761 0.0153144 0.00013656 -0.000368155 -0.00304093 0.00627479 -0.0252986 0.00860894 -0.00793042 -0.0126357 -0.00193264 0.000231409
internal_weight=6186.61 3093.16 3093.45 2153.37 939.797 1832.94 1986.62 1047.75 820.548 1012.4 1106.83 464.374 722.369 90.9532 938.862 723.463 882.251 787.428 215.399 568.036 353.214 697.632 601.748
internal_count=25521 18012 7509 10339 7673 9335 5671 2847 4759 4576 1838 2409 1296 199 2824 2239 2507 6982 585 2691 1806 2154 1766
is_linear=0
shrinkage=0.03


Tree=6
num_leaves=24
num_cat=0
split_feature=15 8 15 15 16 19 7 7 3 16 19 17 17 3 8 17 19 19 17 17 3 18 24
split_gain=631.919 166.342 171.291 157.265 84.1317 56.6401 47.5426 46.1604 36.5995 36.9701 35.2706 29.3893 28.8108 28.7999 29.8335 25.1959 24.5132 24.1755 23.5277 23.0672 22.9755 22.8549 21.5968
threshold=0.83333334326744091 1.5000000000000002 1.0000000180025095e-35 1.8333333134651186 -2.8999999761581416 460.50000000000006 3.5000000000000004 4.5000000000000009 0.087416030466556563 -3.7749999761581416 427.50000000000006 37.382574081420906 37.772497177124031 0.10579311847686769 3.5000000000000004 36.834379196166999 471.50000000000006 491.50000000000006 38.058237075805671 37.650207519531257 0.11446750536561014 21.500000000000004 0.55783727765083324
decision_type=2 2 2 2 2 2 2 2 2 2 2 2 2 2 2 2 2 2 2 2 2 2 2
left_child=1 5 4 6 16 -1 19 18 9 -4 -8 -11 20 14 15 -12 -3 -10 22 -2 -5 -9 -7
right_child=3 2 8 12 -6 7 10 21 17 11 13 -13 -14 -15 -16 -17 -18 -19 -20 -21 -22 -23 -24
leaf_value=-0.010491458486322323 0.023934168479597916 -0.021869305266114254 0.00015712740250978217 0.013185048337291439 -0.033677367487692358 0.018963775772007207 -0.01575498449609682 -0.0086325554586921295 -0.0024011530384118124 -0.0077470679534640098 0.013140781163256125 -0.022455354522677908 -0.0079057155233990123 0.0090221245889922207 -0.0038121204193277197 -0.00054202804121183121 -0.0095231804021232297 0.017538413952934484 -0.01430883682713073 -0.0033578681921492752 0.022825036567416055 0.0054033617599010941 -0.038516840007229651
leaf_weight=308.63162469491363 152.0945094935596 311.81645115185529 243.90512371435761 325.56805633381009 426.59137841174379 236.22060997691005 85.90501169487834 197.38512176088989 178.36740275099874 283.19835593178868 244.14056580141187 215.15726287476718 34.995983436703682 629.81415222026408 560.50184505991638 240.37542683072388 270.12185343634337 78.94686583802104 22.856030344963074 34.125479198992252 702.95283330604434 221.65846017561853 6.0331160537898532
leaf_count=1622 313 2315 938 610 4892 492 415 940 805 1574 611 1236 89 1720 1809 694 1925 278 98 109 1139 868 29
internal_value=-0.000125809 -0.00986803 -0.0148343 0.0095854 -0.0235572 0.000177261 0.00451767 0.00499008 -0.00603331 -0.00941322 0.00299309 -0.0140971 0.0188628 0.00395471 0.000900661 0.00635254 -0.0161385 0.00371653 0.0147871 0.0189328 0.0197736 -0.00120808 0.0175323
internal_weight=6011.36 3000.89 2008.1 3010.47 1008.53 992.785 1946.96 684.153 999.575 742.261 1760.74 498.356 1063.52 1674.83 1045.02 484.516 581.938 257.314 265.11 186.22 1028.52 419.044 242.254
internal_count=25521 18012 13963 7509 9132 4049 5671 2427 4831 3748 5249 2810 1838 4834 3114 1305 4240 1083 619 422 1749 1808 521
is_linear=0
shrinkage=0.03


Tree=7
num_leaves=24
num_cat=0
split_feature=15 15 8 16 4 7 19 19 4 18 8 1 22 19 23 3 25 4 16 14 2 16 16
split_gain=544.903 197.301 187.087 92.9354 55.832 54.8235 53.2602 35.8126 32.6792 31.1629 28.7945 28.4006 27.9317 26.2227 25.9456 25.9342 23.6805 22.1234 21.7412 21.502 21.0961 24.8013 22.5047
threshold=0.58333334326744091 1.8333333134651186 1.0000000180025095e-35 -2.2250000238418575 0.27362750470638281 4.5000000000000009 486.50000000000006 425.50000000000006 0.24633751809597018 26.500000000000004 2.5000000000000004 71.30899810791017 1.0000000180025095e-35 427.50000000000006 0.64767315983772289 0.091548632830381407 56.750000000000007 0.28798036277294164 -5.2249999046325675 -1.6833333373069761 64.809497833251967 -3.5499999523162837 -0.22500000149011609
decision_type=2 2 2 2 2 2 2 2 2 2 2 2 2 2 2 2 2 2 2 2 2 2 2
left_child=2 5 7 8 -5 10 13 -1 16 15 -2 -12 -3 -7 -8 -9 -4 -15 -11 -14 21 -19 -22
right_child=1 12 3 4 -6 6 14 9 -10 18 11 -13 19 17 -16 -17 -18 20 -20 -21 22 -23 -24
leaf_value=-0.029016051546697938 0.018938889627086061 0.02093098735520435 -0.021364121959984952 -0.032539559423740615 -0.010134705389187136 -0.016110592395407294 0.0072935539783956062 -0.010410349596253768 -0.007381351256703951 0.022855117760594644 -0.043154394658531339 0.0059662063236058088 -0.046259745900705911 -0.0070774347216146774 -0.027338735148440558 0.016125518404520828 -0.0057209069364898835 0.013638704164369332 0.0058320417423864358 0.010961277815124449 0.0070237881655355197 -0.010469620944855594 -0.0095190002050356774
leaf_weight=28.373421417549253 253.29334066435695 765.06412694603205 378.10632299631834 413.89409572258592 132.03477153740823 123.2605675663799 867.15045524947345 139.54738805349916 614.45362948253751 101.96455360949039 11.635810505598782 118.27142196893692 6.0470628291368476 435.42773263156414 19.916125148534775 43.473824681714177 113.15729973092675 47.282009124755859 199.90133975446224 261.34242459759116 482.11602231673896 204.54581111297011 87.433656249195337
leaf_count=201 566 1326 3242 4704 969 677 2605 663 3391 233 56 332 17 1807 93 118 774 124 724 495 1377 698 329
internal_value=-0.000132798 0.00688854 -0.012077 -0.0169932 -0.0271209 0.0025546 0.000780706 0.00374325 -0.0119929 0.00566017 0.0130495 0.00156647 0.0180138 -0.00290578 0.006516 -0.00410717 -0.0177609 -0.00161072 0.0115821 0.00966721 0.00128729 -0.00594316 0.00448424
internal_weight=5847.69 3682.79 2164.91 1651.65 545.929 2650.33 2267.13 513.261 1105.72 484.887 383.201 129.907 1032.45 1380.07 887.067 183.021 491.264 1256.81 301.866 267.389 821.377 251.828 569.55
internal_count=25521 10502 15019 13080 5673 8664 7710 1939 7407 1738 954 388 1838 5012 2698 781 4016 4335 957 512 2528 822 1706
is_linear=0
shrinkage=0.03


Tree=8
num_leaves=24
num_cat=0
split_feature=15 4 8 8 15 4 16 17 16 17 23 19 5 23 17 0 23 0 16 0 19 0 19
split_gain=523.952 207.701 99.0431 81.5815 74.9157 63.3315 50.9922 43.6937 40.6292 38.5478 34.2731 31.3996 32.9806 29.3573 28.6311 25.9817 22.2467 21.1039 20.3992 19.7935 23.3012 21.8699 19.6794
threshold=1.1666666865348818 0.24633751809597018 2.5000000000000004 1.5000000000000002 2.1666666269302373 0.30284363031387335 -2.2250000238418575 35.39427566528321 -2.7083333730697627 36.202215194702156 0.55407649278640758 429.50000000000006 3.8332358598709111 0.38494949042797094 35.78840637207032 85.388599395751967 0.63955378532409679 77.471050262451186 -4.7750000953674308 78.68304824829103 480.50000000000006 59.333126068115241 455.50000000000006
decision_type=2 2 2 2 2 2 2 2 2 2 2 2 2 2 2 2 2 2 2 2 2 2 2
left_child=1 3 7 14 9 8 18 -3 -4 17 11 -9 19 -7 -1 -10 -11 -2 -5 20 21 -13 -6
right_child=4 2 5 6 22 13 -8 10 15 16 -12 12 -14 -15 -16 -17 -18 -19 -20 -21 -22 -23 -24
leaf_value=0.010954561370181984 0.019705993624131134 0.016317885931458744 -0.0068881871395401082 -0.010492795707665748 0.0068197603709101041 0.0032829051244342429 -0.036099825950300923 -0.016975501569819248 -0.020611814431640799 0.0053074839679394005 -0.017728107354209172 -0.045240448345683922 -0.0046111288136034684 -0.020517835140058976 -0.010856662410905538 0.013616998230292004 -0.04293303361750761 0.0066511203341352333 -0.023618483179562853 -0.0071361763940530603 0.017346108807243407 0.0060071291190834505 0.023470295128106198
leaf_weight=72.504279838874936 327.71168648451567 208.67674957215786 606.6028196066618 172.00884720217437 73.03862027078867 470.357616847381 225.10409665852785 66.737861849367619 409.1323829414323 883.20867802202702 79.040711980313063 7.6864917650818816 257.41235132701695 51.776268124580383 214.1441599028185 20.982017073780298 8.6882987543940526 168.87411815486848 280.0826794533059 67.24609421286732 230.21135177835822 300.06511701829731 509.74392727017403
leaf_count=217 709 486 2969 1246 151 1759 2996 425 3028 2332 456 52 1078 304 1304 92 43 435 2590 299 666 1074 810
internal_value=-0.000159483 -0.00675668 -0.0025907 -0.0187549 0.0123563 -0.0075978 -0.0244334 0.00382246 -0.0118891 0.0085674 0.00123668 0.00284961 0.00438341 0.000922757 -0.00533978 -0.0189421 0.00483756 0.0152664 -0.0186245 0.00820903 0.0101272 0.00472716 0.0213835
internal_weight=5711.04 3739.77 2775.93 963.844 1971.27 1558.85 677.196 1217.08 1036.72 1388.48 1008.4 929.359 862.621 522.134 286.648 430.114 891.897 496.586 452.092 605.209 537.963 307.752 582.783
internal_count=25521 21041 12688 8353 4480 8152 6832 4536 6089 3519 4050 3594 3169 2063 1521 3120 2375 1144 3836 2091 1792 1126 961
is_linear=0
shrinkage=0.03


Tree=9
num_leaves=24
num_cat=0
split_feature=15 15 8 16 4 25 8 4 17 16 18 17 17 8 15 19 19 3 23 1 3 0 18
split_gain=479.091 169.506 159.457 75.8173 51.3231 45.3941 42.9031 48.3717 39.8448 35.9074 34.1219 30.9263 30.1066 27.2628 26.3505 25.2757 24.5327 22.7056 22.6218 22.6075 21.7099 27.3208 20.4481
threshold=0.58333334326744091 1.5833333134651186 1.0000000180025095e-35 -2.5499999523162837 0.26515080034732824 55.500000000000007 1.5000000000000002 0.28588131070137029 36.043666839599616 -3.1000000238418575 90.500000000000014 37.614019393920906 37.057254791259773 1.0000000180025095e-35 1.0000000180025095e-35 444.50000000000006 468.50000000000006 0.12401842325925828 0.038672439754009254 75.917499542236342 0.087880622595548644 68.730552673339858 22.500000000000004
decision_type=2 2 2 2 2 2 2 2 2 2 2 2 2 2 2 2 2 2 2 2 2 2 2
left_child=2 6 8 14 -5 10 13 -8 -1 -9 17 18 -7 -2 16 -10 -4 -3 -11 -14 -15 -22 -17
right_child=1 5 3 4 -6 12 7 9 15 11 -12 -13 19 20 -16 22 -18 -19 -20 -21 21 -23 -24
leaf_value=0.012262780749647092 0.00060060960983454581 0.0045382203580587735 -0.01985944564043015 -0.032320385181154668 -0.013644893285107814 0.020940608241841435 -0.0085089428240734347 0.011861546516830284 -0.024997487509658432 0.0064974108448501737 -0.019465865698372629 -0.013086278238175009 -0.002712737790470778 0.003590863227918835 -0.0031526905268454684 -0.013686906658680369 -0.0089625385308131425 0.018246142763364885 -0.0061402128089978383 0.020218725493638755 0.0048090005123449676 0.028387277069866691 0.0055643844982913729
leaf_weight=230.55055389553308 226.88182847201824 295.8974307924509 361.59844200406224 345.52632927056402 214.7492811139673 768.59735179319978 553.24697342514992 271.45461371168494 45.800718950107694 378.4559131860733 39.482513424009085 149.53135084360838 94.830880187451839 108.89722315967083 259.40294309612364 72.933914777822793 382.77904511988163 171.94527224823833 192.23013106919825 65.3619927726686 67.344254106283188 128.86103622242808 155.58541685715318
leaf_count=565 769 723 2837 4463 1756 1475 2543 748 355 1207 108 616 245 346 1300 430 2724 328 769 132 215 278 589
internal_value=-0.000136776 0.00660803 -0.0115894 -0.0163213 -0.0251622 0.0145328 0.00112829 -0.00140191 0.00306967 0.00256306 0.00731607 -0.000941604 0.0184748 0.00847614 -0.0113866 -0.00465662 -0.014256 0.00957627 0.00224055 0.00664377 0.0143326 0.0202944 -0.000579831
internal_weight=5581.95 3513.02 2068.93 1564.06 560.276 1436.12 2076.9 1544.92 504.871 991.672 507.325 720.217 928.79 531.984 1003.78 274.32 744.377 467.843 570.686 160.193 305.103 196.205 228.519
internal_count=25521 10502 15019 13080 6219 3011 7491 5883 1939 3340 1159 2592 1852 1608 6861 1374 5561 1051 1976 377 839 493 1019
is_linear=0
shrinkage=0.03


Tree=10
num_leaves=24
num_cat=0
split_feature=15 15 8 16 1 19 4 16 25 8 23 4 16 17 16 17 19 17 14 16 1 14 2
split_gain=461.52 150.721 139.725 79.8597 57.6225 41.6589 40.1284 37.9243 36.609 38.398 36.0282 31.5831 30.8506 30.3154 27.1944 26.8156 26.4565 26.331 23.3528 22.2554 22.2357 21.876 25.9037
threshold=0.58333334326744091 1.8333333134651186 1.5000000000000002 -4.3666667938232413 73.871002197265639 448.50000000000006 0.257571890950203 -3.8999999761581416 55.500000000000007 4.5000000000000009 -0.19700855016708371 0.26430597901344305 0.77500000596046459 37.783384323120124 1.0000000180025095e-35 38.02472114562989 460.50000000000006 35.76330757141114 0.36666667461395269 -1.3666666746139524 64.101997375488295 -0.22500000149011609 72.731750488281264
decision_type=2 2 2 2 2 2 2 2 2 2 2 2 2 2 2 2 2 2 2 2 2 2 2
left_child=2 4 7 18 10 -3 19 15 11 17 20 -6 13 -7 21 -1 -9 -10 -4 -5 -2 -13 -23
right_child=1 5 3 6 8 12 -8 16 9 -11 -12 14 -14 -15 -16 -17 -18 -19 -20 -21 -22 22 -24
leaf_value=0.010222410032412463 -0.013413200550871864 -0.0015451039078402823 -0.010902396788933146 -0.024839522706009049 -0.017931670860718171 0.02116457236149984 -0.015418031738826081 -0.018175628544020574 0.025914104354271623 0.0018764877948030392 -0.0087931472548113607 0.014583238456756938 0.00022134979188200536 -0.014799533950812668 -0.024961066548430538 -0.011714356830884483 -0.0021622446614556578 0.010949097776704296 0.0057112239668364734 -0.039733030537875559 0.0047532647078606018 -0.0099401066186883841 0.0084134658022988369
leaf_weight=268.30443353578448 69.741484435275197 105.43351448327303 284.38623696379364 389.90768671780825 76.094486379995942 770.562170997262 382.25433084927499 138.98994353134185 140.93209278397262 336.24556575343013 505.01873075030744 140.36551516130567 76.425342530012131 21.688131991773844 29.322464667260647 61.680998736992478 279.74823020212352 424.69001579284668 103.99199019186199 117.51469575986266 464.6035671196878 126.970379287377 152.13481145165861
leaf_count=902 290 253 1923 4249 365 1389 3083 971 363 1237 2126 422 169 59 136 309 1251 1258 589 1829 1539 449 473
internal_value=-0.000418891 0.0062715 -0.0117751 -0.017804 0.002325 0.0162627 -0.0227588 -0.00148379 0.00623899 0.00990507 -0.0030478 -6.01187e-05 0.0184241 0.02018 0.00297007 0.00612198 -0.0074775 0.0146778 -0.00645394 -0.0282887 0.00238222 0.00492255 6.40688e-05
internal_weight=5467.01 3440.23 2026.78 1278.05 2466.12 974.109 889.677 748.724 1426.76 901.868 1039.36 524.888 868.676 792.25 448.793 329.985 418.738 565.622 388.378 507.422 534.345 419.471 279.105
internal_count=25634 10528 15106 11673 8658 1870 9161 3433 4703 2858 3955 1845 1617 1448 1480 1211 2222 1621 2512 6078 1829 1344 922
is_linear=0
shrinkage=0.03


Tree=11
num_leaves=24
num_cat=0
split_feature=15 15 18 16 1 4 19 8 19 25 8 4 17 23 8 0 4 23 19 16 16 17 25
split_gain=419.67 146.136 132.185 69.072 52.9399 49.6157 37.9438 33.6604 32.446 30.6743 33.2566 26.2142 25.7393 23.9148 23.5843 22.8307 25.6762 24.3942 21.9733 21.7944 21.4518 21.4191 21.212
threshold=0.58333334326744091 1.8333333134651186 25.500000000000004 -4.2249999046325675 73.871002197265639 0.27007912099361425 443.50000000000006 1.0000000180025095e-35 434.50000000000006 55.500000000000007 4.5000000000000009 0.26430597901344305 37.783384323120124 0.39917582273483282 1.5000000000000002 66.019100189208999 0.25612026453018194 0.29459415376186376 437.50000000000006 0.55000001192092907 0.77500000596046459 35.76330757141114 55.500000000000007
decision_type=2 2 2 2 2 2 2 2 2 2 2 2 2 2 2 2 2 2 2 2 2 2 2
left_child=2 4 3 15 8 14 -3 -4 -2 11 21 -6 20 -10 -5 16 -1 -18 -12 -13 -8 -11 -7
right_child=1 6 7 5 9 22 12 -9 13 10 18 19 -14 -15 -16 -17 17 -19 -20 -21 -22 -23 -24
leaf_value=-0.0255948333775993 -0.018964965824435933 -0.005176727982406865 0.0068744368001879119 -0.015881679009087858 -0.017018781589652376 -0.019541614561686137 0.020022267560643098 -0.0071422812479878797 0.00026494570226113622 0.023544868290515206 -0.036330734621622285 0.0039759833244244185 -0.012168853099495697 -0.016622649550427016 -0.028447500219168066 -0.00087062841187784056 -0.010763269396719042 0.034881906896534427 0.0032486224323338207 -0.033221835756616455 0.0027399693934754637 0.010221188029474774 -0.0022166771261260842
leaf_weight=90.818669265136123 103.56974780000746 70.383328892290592 322.15776958689094 182.11815270874649 69.969274204224348 112.73751262761652 783.60031953081489 295.74968174565583 838.48650740459561 145.80070632882416 13.144717248156665 427.66091236658394 25.196421597152948 82.934743229299784 513.32431012066081 259.53702791593969 45.602029358968139 13.704249877482651 318.74679686874151 14.661999451927839 70.451834216713905 425.5030180439353 145.93728069029748
leaf_count=726 580 187 1129 1179 365 853 1438 2400 2927 363 80 1395 74 448 6186 1475 228 41 1157 85 171 1258 889
internal_value=-0.000377773 0.00603323 -0.0113452 -0.0165606 0.00214785 -0.0209845 0.0160183 0.000165601 -0.00304455 0.0059078 0.00923381 4.38857e-05 0.017715 -0.00125506 -0.0251568 -0.00625698 -0.0155689 -0.000215771 0.00168106 0.00274296 0.0185966 0.0136215 -0.00976736
internal_weight=5371.8 3390.11 1981.69 1363.78 2440.48 954.117 949.632 617.907 1024.99 1415.49 903.195 512.292 879.249 921.421 695.442 409.662 150.125 59.3063 331.892 442.323 854.052 571.304 258.675
internal_count=25634 10528 15106 11577 8658 9107 1870 3529 3955 4703 2858 1845 1683 3375 7365 2470 995 269 1237 1480 1609 1621 1742
is_linear=0
shrinkage=0.03


Tree=12
num_leaves=24
num_cat=0
split_feature=15 15 8 16 19 16 17 17 7 19 4 15 1 8 23 16 17 8 16 6 4 16 2
split_gain=390.484 137.119 128.621 53.9147 50.9213 50.5566 36.7118 32.099 32.008 29.9479 28.9897 22.9098 26.5957 22.7932 26.3699 21.7673 20.411 20.3707 24.7696 24.7439 19.2147 19.6027 17.8911
threshold=0.58333334326744091 1.8333333134651186 2.5000000000000004 -4.3666667938232413 458.50000000000006 -3.7749999761581416 37.438066482543952 35.061296463012702 4.5000000000000009 443.50000000000006 0.27007912099361425 2.5833333730697636 62.914501190185554 4.5000000000000009 0.044372851029038436 -1.2916666865348814 36.109760284423835 1.5000000000000002 -0.45000000298023218 3.5000000000000004 0.26834683120250707 -1.1000000238418577 85.006000518798842
decision_type=2 2 2 2 2 2 2 2 2 2 2 2 2 2 2 2 2 2 2 2 2 2 2
left_child=2 4 5 22 8 16 13 -7 -2 -3 15 12 -11 -6 -15 -5 -1 19 -19 -8 21 -10 -4
right_child=1 9 3 10 6 7 17 -9 20 11 -12 -13 -14 14 -16 -17 -18 18 -20 -21 -22 -23 -24
leaf_value=0.014217248023025821 0.010071378729813884 -0.0038705375676495821 -0.0094515992639262868 -0.022963571881444222 0.010702325180561599 0.0067649198954364189 0.022920275496897156 -0.013292179942344851 -0.013173078704695237 -0.048559549825095347 -0.012923838330624897 0.023976515365020792 0.014345622545196744 0.0069947948231264406 -0.007457121124283963 -0.037321844768986645 0.00023288843784401004 -0.0036153338320214809 -0.02975194326034801 -0.0047734839698691861 -0.0050713328043552565 -0.046630676844909465 0.02429877920974851
leaf_weight=139.36066252924502 108.23737150803208 65.260127849876881 305.51375768426806 404.45540950726718 762.6355212200433 88.630669454112649 53.866169817745686 378.4361061770469 87.195591077208519 6.1153008118271819 199.83525859378278 295.45388099551201 557.58139960467815 377.84543622285128 162.50200927816331 124.20884763263166 288.16963885445148 279.93635958991945 36.939728573895991 62.993139896541834 458.48123669438064 19.237621692940593 14.821670847013591
leaf_count=412 327 187 2085 4534 2262 223 141 2826 494 16 1602 497 1170 1218 740 1969 1384 1011 186 216 1895 168 71
internal_value=-0.00033106 0.00589888 -0.0110196 -0.0181473 0.00213093 -0.0026629 0.0048459 -0.00948614 -0.00487365 0.0157216 -0.0226576 0.0172098 0.0136632 0.00736244 0.00264858 -0.026337 0.00479132 -0.00271401 -0.0066622 0.00799192 -0.00773712 -0.0192205 -0.00789
internal_weight=5277.71 3334.28 1943.43 1048.83 2409.87 894.597 1736.72 467.067 673.152 924.411 728.5 859.151 563.697 1302.98 540.347 528.664 427.53 433.735 316.876 116.859 564.914 106.433 320.335
internal_count=25634 10528 15106 10261 8658 4845 5774 3049 2884 1870 8105 1683 1186 4220 1958 6503 1796 1554 1197 357 2557 662 2156
is_linear=0
shrinkage=0.03


Tree=13
num_leaves=24
num_cat=0
split_feature=15 8 15 3 17 16 23 17 19 5 23 7 25 25 19 2 17 20 0 8 5 15 2
split_gain=376.193 130.047 114.074 58.775 48.3862 42.6795 40.6148 39.3422 36.8973 37.5168 34.7749 25.4029 23.6923 20.5032 20.1625 18.8731 18.672 19.1723 17.948 18.1879 17.8723 17.82 17.252
threshold=1.1666666865348818 2.5000000000000004 1.0000000180025095e-35 0.12283629924058916 36.043666839599616 -2.5499999523162837 0.14225108176469806 36.849388122558601 458.50000000000006 3.6486467123031621 0.63113996386528026 4.5000000000000009 56.750000000000007 54.750000000000007 484.50000000000006 63.847249984741218 36.287395477294929 14.500000000000002 81.370750427246108 1.0000000180025095e-35 1.0178632736206057 2.4166666269302373 74.082000732421889
decision_type=2 2 2 2 2 2 2 2 2 2 2 2 2 2 2 2 2 2 2 2 2 2 2
left_child=1 4 5 8 13 12 7 -4 9 -2 11 -6 -3 -1 20 -9 17 18 -10 -20 -13 -5 -8
right_child=3 2 6 21 10 -7 22 15 16 -11 -12 14 -14 -15 -16 -17 -18 -19 19 -21 -22 -23 -24
leaf_value=-0.0032407045566699615 0.0087430000629271903 -0.019129532751976527 0.0058608163784973988 0.014578503148149223 0.0069490070377721449 -0.030749681277901217 -0.0187114855583153 -0.015769660026606274 0.018547050235556355 -0.013848258406372589 -0.022761425994712675 -0.037580150991137248 -0.0035340114585902128 0.012692497978889491 0.0024060642944534992 -0.0035822128990094541 0.0061266326190732865 -0.045585303533474855 0.03082061769483738 -0.0076755954929538213 -0.0067967333051685451 0.025265919519186792 -0.0031745358997877916
leaf_weight=93.332816277630627 128.62610992603004 368.63783361203969 334.7831901377067 383.25653736665845 246.99509908817708 246.91898479964584 242.07292397320271 162.40160521306098 315.35256060026586 136.22692896053195 73.509557763114572 17.648692497983575 115.02544864360243 328.59738375339657 265.16673315502703 386.54515585675836 513.19732000492513 4.6623231247067443 14.270831201225517 48.873907940462232 444.11559590604156 221.59854301810265 87.595429901964962
leaf_count=367 377 3455 1481 889 921 3782 1637 863 723 518 591 145 810 963 1263 1825 1398 16 32 148 2549 379 502
internal_value=-0.000329212 -0.00614488 -0.0112358 0.010911 0.000590512 -0.0206014 -0.00559686 -0.00224458 0.00696107 -0.00287679 -0.00286469 -0.00136293 -0.0154206 0.009168 -0.00418715 -0.00718777 0.00986794 0.014879 0.0156238 0.00102462 -0.00797328 0.018494 -0.0145832
internal_weight=5179.41 3413.35 1943.98 1766.07 1469.37 730.582 1213.4 883.73 1161.21 264.853 1047.44 973.926 483.663 421.93 726.931 548.947 896.357 383.16 378.497 63.1447 461.764 604.855 329.668
internal_count=25634 21154 14355 4480 6799 8047 6308 4169 3212 895 5469 4878 4265 1330 3957 2688 2317 919 903 180 2694 1268 2139
is_linear=0
shrinkage=0.03


Tree=14
num_leaves=24
num_cat=0
split_feature=15 4 15 16 4 8 25 4 17 5 19 8 16 4 16 17 16 1 2 25 17 16 16
split_gain=358.276 108.683 89.7504 65.7523 48.5478 39.5376 31.6881 30.5468 28.78 26.0628 25.5405 22.5637 21.6223 21.4159 21.2974 20.9006 26.7477 20.7909 19.4713 17.665 16.8741 18.1427 16.8206
threshold=0.83333334326744091 0.23747143149375918 1.8333333134651186 -3.7083333730697627 0.27228605747222906 2.5000000000000004 55.500000000000007 0.31406076252460485 35.988658905029304 4.6550149917602548 448.50000000000006 2.5000000000000004 -1.7749999761581419 0.30284363031387335 -3.1000000238418575 35.950172424316413 -1.3666666746139524 77.482501983642592 76.802501678466811 54.750000000000007 35.599689483642585 0.55000001192092907 1.2916666865348818
decision_type=2 2 2 2 2 2 2 2 2 2 2 2 2 2 2 2 2 2 2 2 2 2 2
left_child=1 8 5 11 15 9 -6 12 -1 -2 17 -3 19 18 -10 -5 -17 -4 -13 -7 -8 -22 -12
right_child=2 3 10 4 6 7 20 -9 14 -11 22 13 -14 -15 -16 16 -18 -19 -20 -21 21 -23 -24
leaf_value=-0.0010761243674230732 0.012153369330917142 0.0064350183536511186 -0.012202581598342225 -0.0035514924128649474 -0.011089839405059067 -0.014081544618537885 0.018167749201088705 0.0051803919973642228 -0.016448117704747415 -0.0051392891700422659 0.017997455485102211 -0.0095757575188461855 -0.014315747860992392 0.01300260274055403 -0.029131774103096447 -0.013895855803582456 -0.029769174239462372 0.017313170947940958 0.010413655698594973 0.0024199601217594299 0.0011313409074676926 -0.04649729473207783 -0.0056422527577267359
leaf_weight=63.037371896207333 528.27250931970775 420.7344365362078 51.313532762229443 110.33635897282511 263.35670776572078 73.822675480507314 54.170449253171682 511.21319645270705 243.8621280696243 92.11874195933342 767.12275495007634 284.00335338059813 160.32995080016553 59.759189436212182 232.97074958868325 371.62883631791919 128.60476752649993 36.941707953810692 51.866106500849128 279.21985506825149 269.31302574276924 7.3956091310828915 28.08109624683857
leaf_count=507 1530 1509 161 611 1642 328 154 1623 2165 353 1539 1750 804 226 3228 3057 1504 92 260 1028 1421 64 78
internal_value=-0.000260039 -0.00816886 0.00775076 -0.00497485 -0.00942894 0.0036086 -0.00332464 -1.05358e-05 -0.0201266 0.00958567 0.0154634 0.00159859 -0.00517963 -0.00354475 -0.0226451 -0.0153699 -0.0179767 0.000152065 -0.00648892 -0.00103057 0.00285592 -0.000141633 0.0171627
internal_weight=5089.48 2561.04 2528.44 2021.17 1204.81 1644.98 594.236 1024.59 539.87 620.391 883.459 816.363 513.372 395.629 476.833 610.57 500.234 88.2552 335.869 353.043 330.879 276.709 795.204
internal_count=25634 18098 7536 12198 8453 5666 3281 3783 5900 1883 1870 3745 2160 2236 5393 5172 4561 253 2010 1356 1639 1485 1617
is_linear=0
shrinkage=0.03


Tree=15
num_leaves=24
num_cat=0
split_feature=4 8 3 17 4 19 17 23 17 8 19 16 17 1 5 24 19 1 3 23 24 2 1
split_gain=355.74 121.07 88.6587 69.8762 41.4762 37.7914 36.2849 29.7729 29.7688 28.6148 23.058 18.1971 17.0569 19.8601 15.516 15.3551 17.5266 15.1226 15.0749 14.9637 18.1755 14.9592 14.7155
threshold=0.28148484230041509 4.5000000000000009 0.11446750536561014 35.988658905029304 0.23747143149375918 460.50000000000006 38.178886413574226 1.0000000180025095e-35 37.69909858703614 3.5000000000000004 473.50000000000006 -4.7750000953674308 35.66026687622071 92.701000213623061 4.8950982093811044 0.4764296710491181 444.50000000000006 77.983501434326186 0.076735492795705809 0.048970473930239684 -0.021767676807940003 88.273998260498061 81.742000579833999
decision_type=2 2 2 2 2 2 2 2 2 2 2 2 2 2 2 2 2 2 2 2 2 2 2
left_child=1 3 5 22 -3 -2 7 18 12 14 11 -6 13 -4 -7 16 -9 -10 -5 20 -11 -12 -1
right_child=2 4 8 6 10 9 -8 15 17 19 21 -13 -14 -15 -16 -17 -18 -19 -20 -21 -22 -23 -24
leaf_value=0.013780252196746882 -0.0026461969600704589 -0.026709994570779026 0.027950468885601324 -0.01487730239533272 -0.0038728487631881857 0.013683691489517553 -0.015474452994308524 -0.020683496004444312 -0.014949146585689455 -2.7607649622128939e-05 -0.0077155940053818131 -0.021518544386081979 0.014405211028023529 0.0038134192828920394 -0.00047354550581932189 -0.0259768234000964 -0.0036994755030705048 0.015965975878919507 0.0041041443121090241 -0.005567102904463263 0.012475000170559228 0.031098415172407391 0.0021215697310774128
leaf_weight=207.5939161805436 530.54083260055631 257.06800508964807 185.86221677064896 41.711234093643725 65.802269894629717 501.67550783418119 293.94233989901841 68.309084425680339 42.055926609784365 248.53990177996457 300.17741487827152 262.11230712011456 683.73653170932084 36.74557101354003 80.909841723740101 43.668651137501001 274.15267435554415 21.531267261598259 387.36166147794574 157.79096380528063 180.75294128991663 9.2108288081362826 183.61826717015356
leaf_count=643 2367 3340 367 347 336 1403 2194 615 188 925 2017 2374 1739 97 300 524 1798 71 1779 760 570 39 786
internal_value=0.000594301 -0.00780112 0.00812378 -0.00259309 -0.0165379 0.00399488 -0.00643813 -0.00317985 0.0153614 0.00700715 -0.0124348 -0.0179776 0.0167535 0.0239662 0.0117175 -0.00922348 -0.00708719 -0.00448097 0.00225891 0.00233287 0.00523659 -0.00656006 0.00830817
internal_weight=5064.87 2394.73 2670.14 1500.36 894.371 1700.21 1109.15 815.203 969.932 1169.67 637.303 327.915 906.344 222.608 582.585 386.13 342.462 63.5872 429.073 587.084 429.293 309.388 391.212
internal_count=25579 16792 8787 8686 8106 6325 7257 5063 2462 3958 4766 2710 2203 464 1703 2937 2413 259 2126 2255 1495 2056 1429
is_linear=0
shrinkage=0.03


Tree=16
num_leaves=24
num_cat=0
split_feature=15 4 15 17 16 17 4 7 16 1 18 16 14 16 4 16 23 17 18 5 11 19 5
split_gain=357.464 108.03 77.1463 56.1395 53.5339 42.9382 32.3709 31.2454 26.8194 24.711 23.5511 22.9349 21.7278 19.6147 19.2378 20.3913 18.3657 16.3091 15.4985 21.4036 17.9026 15.3618 14.7631
threshold=0.83333334326744091 0.23747143149375918 2.1666666269302373 37.009420394897468 -1.1000000238418577 35.76330757141114 0.28588131070137029 4.5000000000000009 1.5500000119209292 62.522500991821296 22.500000000000004 -3.7083333730697627 0.72499999403953563 -3.1000000238418575 0.28588131070137029 -5.3666667938232413 -0.29313130676746363 37.614019393920906 17.500000000000004 0.36937093734741216 0.62500000000000011 463.50000000000006 2.0184756517410283
decision_type=2 2 2 2 2 2 2 2 2 2 2 2 2 2 2 2 2 2 2 2 2 2 2
left_child=1 10 5 7 16 18 -7 12 -4 -8 11 -1 -3 -11 15 -9 -5 -6 -2 -20 22 -12 -21
right_child=2 3 8 4 17 6 9 14 -10 13 21 -13 -14 -15 -16 -17 -18 -19 19 20 -22 -23 -24
leaf_value=-0.014579982557867069 0.024001786086271768 0.0044118145018131084 0.02032940883181987 -0.0012291346721072379 -0.012917711298067186 -0.0036089239286699283 -0.028527345686109287 0.0075105836994911147 -0.027889379068045506 0.014212566355590863 -0.022349655862514653 -0.029621268622277035 0.023345179735843959 0.004923442697698302 0.0043453417617181096 -0.0092963763777529837 -0.0099675681837422918 -0.033570957818409845 -0.044518926301608863 0.031248321792114203 -0.0065429961304475457 -0.001242267974935979 0.011334507135537438
leaf_weight=153.66625073831528 126.48290709033608 204.48079121485353 481.62857510149479 373.22055557928979 54.980542623437941 384.08198114298284 18.045769009739161 79.465159917250276 10.610160328447817 257.42232932150364 48.656541913747787 224.57243719976395 74.399034850299358 996.73253155313432 240.12858763244003 356.15938119217753 515.37149428389966 91.976779789663851 6.1140034794807425 44.853282235562801 37.103963155299425 85.674710737541318 132.42882001958787
leaf_count=1406 320 610 929 2052 470 1664 101 401 35 706 509 3266 204 3146 1204 2796 3466 995 20 104 124 632 419
internal_value=0.000614602 -0.00739662 0.00864909 -0.0042335 -0.00907123 0.00603441 0.00402411 0.00101428 0.0192901 0.00632855 -0.0196782 -0.0235105 0.00946282 0.00683009 -0.00247238 -0.00623051 -0.00629731 -0.025844 0.0156303 0.0108283 0.0124067 -0.00888764 0.0163728
internal_weight=4998.26 2502.75 2495.5 1990.18 1035.55 2003.27 1656.28 954.633 492.239 1272.2 512.57 378.239 278.88 1254.15 675.753 435.625 888.592 146.957 346.983 220.5 214.386 134.331 177.282
internal_count=25579 18011 7568 12198 6983 6604 5617 5215 964 3953 5813 4672 814 3852 4401 3197 5518 1465 987 667 647 1141 523
is_linear=0
shrinkage=0.03


Tree=17
num_leaves=24
num_cat=0
split_feature=15 4 15 17 8 8 4 23 17 18 19 22 17 23 19 18 17 0 1 14 23 25 1
split_gain=333.68 99.2144 70.9476 48.5546 33.309 32.0832 29.7474 28.5669 23.458 23.2707 22.92 22.2004 21.8249 20.2097 18.3011 17.5521 17.0528 21.7305 15.3677 18.8006 18.0076 15.2903 15.2317
threshold=0.83333334326744091 0.23747143149375918 1.8333333134651186 37.009420394897468 3.5000000000000004 3.5000000000000004 0.30198520421981817 0.048970473930239684 38.210105895996101 22.500000000000004 461.50000000000006 1.0000000180025095e-35 35.66026687622071 0.095194805413484587 466.50000000000006 19.500000000000004 35.76330757141114 82.95444488525392 81.742000579833999 0.72499999403953563 0.72664502263069164 53.500000000000007 92.701000213623061
decision_type=2 2 2 2 2 2 2 2 2 2 2 2 2 2 2 2 2 2 2 2 2 2 2
left_child=1 9 4 5 8 18 14 15 16 -1 -9 12 22 -7 -6 -5 21 -18 19 20 -3 -2 -4
right_child=2 3 11 7 6 13 -8 10 -10 -11 -12 -13 -14 -15 -16 -17 17 -19 -20 -21 -22 -23 -24
leaf_value=-0.023094499204366035 -0.01873523364410537 0.0064777721135789376 0.030661880718385513 -0.0095631463943764948 -0.018182607696578479 0.00045805445755229434 0.00445869263184283 -0.024690918238008869 -0.0078890254636062376 -0.0083969718860137516 -0.0089864736488847706 0.0069129121396525528 0.014691753414564811 -0.013293525688196101 -0.0019014534196070347 0.00015425658278513156 0.0094558340213118496 -0.019725413569437859 -0.0017371356693457773 0.020353628777810148 -0.030810270909101076 0.02189784589942393 0.0063289775560677504
leaf_weight=365.92037684284151 8.8495266791433078 268.30010768771172 153.73561500012875 372.61761453934014 96.445726171135902 205.01572225801647 547.27998563181609 148.78378985030577 67.490812669508159 131.90228419005871 191.02515424415469 208.93724008277059 457.8503476716578 181.18563346285373 174.67229605466127 303.59108530823141 558.0842873416841 23.952713057398796 189.27015404868871 94.110394494608045 12.185682060196994 143.31167733296752 27.257889315485954
leaf_count=4672 37 1023 288 2410 563 1226 1843 1442 286 1141 1392 505 1004 1630 757 1739 1747 112 944 317 75 368 58
internal_value=0.000572975 -0.00723671 0.00837013 -0.00420748 0.00469052 0.000667905 0.000433025 -0.0087664 0.00903674 -0.0192003 -0.0158626 0.0154018 0.0181781 -0.00599347 -0.0076932 -0.00520042 0.0105926 0.00825493 0.00523039 0.00875084 0.0048578 0.0195347 0.0269973
internal_weight=4931.78 2463.91 2467.87 1966.09 1620.09 950.068 818.398 1016.02 801.689 497.823 339.809 847.781 638.844 386.201 271.118 676.209 734.198 582.037 563.866 374.596 280.486 152.161 180.994
internal_count=25579 18011 7568 12198 5713 5215 3163 6983 2550 5813 2834 1855 1350 2856 1320 4149 2264 1859 2359 1415 1098 405 346
is_linear=0
shrinkage=0.03


Tree=18
num_leaves=24
num_cat=0
split_feature=15 15 8 16 8 4 4 16 5 1 4 16 19 4 19 19 0 18 2 19 25 0 23
split_gain=309.423 96.3091 93.5493 60.2679 40.1525 32.382 24.9976 28.8639 23.6153 23.3755 22.1291 20.0008 19.4116 22.2192 19.1881 16.0244 15.6649 20.3653 15.6102 15.5007 15.1666 15.103 15.0444
threshold=0.58333334326744091 1.8333333134651186 1.0000000180025095e-35 -2.2250000238418575 3.5000000000000004 0.30159845948219305 0.257571890950203 -4.7083332538604727 4.8950982093811044 64.251499176025405 0.27189156413078314 -2.2916666269302364 508.50000000000006 0.29162013530731207 411.50000000000006 487.50000000000006 70.504100799560561 31.500000000000004 67.54850006103517 442.50000000000006 51.250000000000007 87.889450073242202 0.79585468769073497
decision_type=2 2 2 2 2 2 2 2 2 2 2 2 2 2 2 2 2 2 2 2 2 2 2
left_child=2 4 14 6 8 19 7 -4 15 -7 -5 -11 13 -3 -1 16 17 -2 -19 -6 -16 -21 -22
right_child=1 12 3 10 5 9 -8 -9 -10 11 -12 -13 -14 -15 20 -17 -18 18 -20 21 22 -23 -24
leaf_value=-0.04729401308689922 0.0044415959814362999 -0.001929662991803604 -0.0052233057188095615 -0.027222845353419768 -0.019358203478013099 -0.023300584117823483 -0.003229383681080064 -0.019139697488721175 -0.0057485209634812072 0.011153958251787581 -0.011752671509134869 0.00035803303883672296 0.022859263474464764 0.014578486230978342 -0.03971362025142694 0.013752639803178585 0.010458063708561734 -0.0082422857728076289 -0.05031039338803836 -0.005564820013738518 0.005071579511302042 0.029983781323643998 -0.025437158625049278
leaf_weight=6.8558423486538222 256.85719727724791 84.947756070643663 233.42897650506347 297.068414256908 76.100203486159444 28.531667172908783 382.50111623294652 315.34013546165079 114.20101171545684 248.23340714909136 115.60132537223399 408.76743527781218 210.86769877374172 538.83034070953727 7.2608596719801417 355.49182935245335 317.54865409806371 42.41999614611268 9.766304746270178 377.18698383402079 417.03423902671784 11.071992030367253 15.072624595835803
leaf_count=74 956 225 1674 4565 550 143 2387 3359 491 786 1026 1556 417 1213 57 1049 1053 172 61 1891 1741 37 96
internal_value=0.000525246 0.00628895 -0.00939393 -0.0133456 0.00305562 -0.000860801 -0.00911661 -0.0132201 0.00716354 0.00328261 -0.0228892 0.00443704 0.0149904 0.0123304 0.00250776 0.00866501 0.00577858 0.000970321 -0.016115 -0.0069777 0.00328486 -0.00455108 0.00400738
internal_weight=4870.99 3080.82 1790.16 1343.94 2246.18 1149.89 931.27 548.769 1096.28 685.533 412.67 657.001 834.646 623.778 446.224 982.084 626.592 309.043 52.1863 464.359 439.368 388.259 432.107
internal_count=25579 10600 14979 13011 8745 4963 7420 5033 3782 2485 5591 2342 1855 1438 1968 3291 2242 1189 233 2478 1894 1928 1837
is_linear=0
shrinkage=0.03


Tree=19
num_leaves=24
num_cat=0
split_feature=15 4 15 16 17 17 18 15 4 16 7 4 18 16 19 16 20 1 18 19 19 20 18
split_gain=289.334 90.5389 62.6238 49.4355 37.9228 35.0604 34.0625 34.0101 23.6691 29.6453 25.6038 22.3992 21.9244 19.2786 19.1761 19.558 19.0964 25.9854 18.7793 16.4524 16.1678 17.8703 15.1171
threshold=0.83333334326744091 0.23747143149375918 2.1666666269302373 -2.8999999761581416 35.734594345092781 35.734594345092781 55.500000000000007 1.0000000180025095e-35 0.31160603463649755 -1.4499999880790708 1.5000000000000002 0.27101588249206549 22.500000000000004 -3.7083333730697627 452.50000000000006 0.77500000596046459 -7.4999999999999991 74.110000610351577 175.50000000000003 522.50000000000011 457.50000000000006 -11.499999999999998 56.500000000000007
decision_type=2 2 2 2 2 2 2 2 2 2 2 2 2 2 2 2 2 2 2 2 2 2 2
left_child=1 12 5 6 19 -2 11 -6 9 16 -11 -3 13 -1 15 -4 -7 -18 -19 -5 -9 -22 -12
right_child=2 3 14 4 7 8 -8 20 -10 10 22 -13 -14 -15 -16 -17 17 18 -20 -21 21 -23 -24
leaf_value=-0.013904269937910616 0.014457114045524917 -0.0058910947302433705 0.0067014998149905166 0.007814174041193547 -0.021580436177351853 0.02159223450440647 0.012091686196092794 -0.014612468455052879 0.0071885019049315177 0.028775476806552198 -0.0099290900974427533 0.0039070521392513494 -0.0078907777885103489 -0.028227167927758093 0.019818932970993176 -0.05378899073306375 -0.0060695836121183499 0.0084580954478878662 -0.056387017815668766 -0.027135984914045393 0.039148767684904488 -0.0045089277274328226 -0.039306800766619569
leaf_weight=142.90569788683206 328.18420122563839 537.07939532212913 45.095106370747089 132.73441586457193 232.07911213347688 48.078449014574289 185.21737608872354 181.19194231647998 840.1922700740397 14.515638723969458 179.21666777040809 344.78825723286718 128.45146999880672 207.21822619019076 419.82701002433896 5.3849656805396071 217.21169495023787 294.13732648827136 4.0751519203186026 13.340240000747142 8.696018595248459 284.67874595709145 17.284744396805763
leaf_count=1406 957 3263 120 586 2786 138 692 1434 2549 29 896 1560 1141 3266 823 21 936 990 20 50 27 1800 89
internal_value=0.000561766 -0.00681753 0.00789574 -0.00390731 -0.00929259 0.00551802 0.000396136 -0.012169 0.00370118 -8.18307e-05 -0.00967302 -0.00206026 -0.0184919 -0.0223812 0.0177184 0.000248672 0.00350982 0.0018231 0.00757197 0.00462236 -0.00756652 -0.00321486 -0.0125132
internal_weight=4811.58 2398.38 2413.2 1919.81 852.72 1942.9 1067.09 706.646 1614.71 774.52 211.017 881.868 478.575 350.124 470.307 50.4801 563.503 515.424 298.212 146.075 474.567 293.375 196.501
internal_count=25579 18011 7568 12198 6683 6604 5515 6047 5647 3098 1014 4823 5813 4672 964 141 2084 1946 1010 636 3261 1827 985
is_linear=0
shrinkage=0.03


Tree=20
num_leaves=24
num_cat=0
split_feature=15 8 15 16 17 15 16 4 2 17 19 25 1 5 24 18 4 0 14 8 23 19 4
split_gain=250.369 119.811 101.874 41.6339 34.8341 34.3205 29.4865 23.7687 22.9263 22.4197 21.254 18.259 18.1213 20.7603 19.8498 18.1261 20.5917 17.3599 16.9872 16.8398 29.2083 17.322 22.2037
threshold=1.1666666865348818 2.5000000000000004 1.0000000180025095e-35 -1.1000000238418577 36.009059906005866 2.1666666269302373 -4.3666667938232413 0.24633751809597018 74.266998291015639 35.709428787231452 429.50000000000006 54.750000000000007 92.094997406005874 3.5853539705276494 0.55783727765083324 16.500000000000004 0.27579560875892645 90.894500732421889 1.2749999761581423 4.5000000000000009 -0.46248917281627649 490.50000000000006 0.26064975559711462
decision_type=2 2 2 2 2 2 2 2 2 2 2 2 2 2 2 2 2 2 2 2 2 2 2
left_child=1 4 6 7 11 9 -3 -4 -9 17 -6 -1 13 14 -12 -15 -17 -2 -14 21 -21 22 -11
right_child=5 2 3 -5 10 -7 -8 8 -10 19 12 -13 18 15 -16 16 -18 -19 -20 20 -22 -23 -24
leaf_value=-0.0030278200955104308 0.018278122613486866 -0.010883106891785555 -0.01974212933252871 -0.017081649172001053 -0.015849710020606804 0.016580261771263587 -0.024495569935524496 -0.0036183106762747619 0.0076664917681237973 -0.028593968747633869 0.0056770367224752115 0.012952010910993067 -0.026125359609717874 -0.014422628081752461 -0.033475627364684797 -0.0086551699400534057 0.0096915882821005644 -0.014303181544365507 0.030715869694452294 0.0094450225177848905 -0.0069037019727342906 0.015336814419554388 0.0059973983103096149
leaf_weight=82.612584393471479 190.88087226077914 217.70106272213161 62.912605913355947 200.83962148102 83.229170569218695 448.2017232440412 418.58663086453453 609.03559827338904 220.75773367565125 17.565162591636181 500.63716499600559 291.17696259310469 37.655559875071049 116.03039819467813 11.931769415736197 113.73120875377208 106.72103398665786 15.947783667594193 5.4120086114853612 173.60128193348646 226.89705203101039 199.25230203941464 339.31395957991481
leaf_count=330 492 1807 499 1476 705 947 6134 3237 988 78 2345 903 270 797 139 817 423 59 27 533 806 514 1020
internal_value=-5.30892e-05 -0.00506762 -0.0102939 -0.00474049 0.0016334 0.00952683 -0.0198382 -0.001964 -0.000616108 0.00680963 -0.00135081 0.00942025 1.85145e-06 0.00096482 0.00476563 -0.004825 0.000226504 0.0157659 -0.0189825 0.00487323 0.000182868 0.008251 0.00429485
internal_weight=4690.63 3078.97 1729.83 1093.55 1349.14 1611.66 636.288 892.706 829.793 1163.46 975.348 373.79 892.119 849.052 512.569 336.483 220.452 206.829 43.0676 956.63 400.498 556.131 356.879
internal_count=25346 20897 14141 6200 6756 4449 7941 4724 4225 3502 5523 1233 4818 4521 2484 2037 1240 551 297 2951 1339 1612 1098
is_linear=0
shrinkage=0.03


Tree=21
num_leaves=24
num_cat=0
split_feature=15 8 15 17 17 16 18 4 23 17 25 16 23 3 4 14 19 18 23 22 4 19 14
split_gain=237.361 120.477 79.3423 39.2615 36.2225 33.0798 30.3313 27.7689 24.1135 27.2775 22.4787 19.8306 18.0142 17.3683 17.2603 16.9434 16.8213 16.3334 15.8538 15.5964 14.6936 14.2435 18.2537
threshold=0.41666667163372045 2.5000000000000004 1.5833333134651186 37.10112380981446 37.574377059936531 -4.3666667938232413 18.500000000000004 0.24613335728645327 0.4889665842056275 35.76330757141114 56.750000000000007 -1.1000000238418577 0.54859125614166271 0.11446750536561014 0.27362750470638281 0.72499999403953563 467.50000000000006 30.500000000000004 -0.15594405680894849 1.0000000180025095e-35 0.25790233910083776 448.50000000000006 -0.45000000298023218
decision_type=2 2 2 2 2 2 2 2 2 2 2 2 2 2 2 2 2 2 2 2 2 2 2
left_child=1 4 7 13 12 -3 -6 -2 9 -9 -7 -11 17 -4 -12 16 -13 -1 21 -5 -8 22 -15
right_child=2 5 3 19 6 10 20 8 -10 11 14 15 -14 18 -16 -17 -18 -19 -20 -21 -22 -23 -24
leaf_value=0.0011815596982001771 -0.016302265515689727 -0.0081330235707880224 0.009108670337360722 0.0042797013960722578 -0.02216757416224736 -0.023979278756056301 -0.010422753381266832 0.012645392084578124 -0.012363242386272372 0.0030827714734702272 -0.017448941029678502 -0.018699908333794583 -0.0095967583970492376 -0.059826115102404702 0.003747213440169048 0.010040048639524719 -0.0024626293887064108 0.01263550354514492 0.00794194038857453 -0.01432191750978537 0.0074636348072034502 0.021807547526893744 0.0094507882963568331
leaf_weight=251.99963648244739 78.964746665209532 285.26846886798739 414.5616461802274 154.45590297877789 104.1903375890106 447.66549629252404 82.8710394972004 218.37868634983897 100.39399007707834 1089.3045630902052 112.96915819868445 97.390283242799342 75.001428850926459 3.819739267230033 49.826421683654189 50.311633849516511 139.91820731759071 201.76052163541317 126.08583120256662 55.01555834710598 82.472558934241533 380.08528009802103 32.962901521474123
leaf_count=1370 504 2157 1124 431 955 6146 652 709 617 4211 1471 580 569 17 353 209 630 764 319 201 451 818 88
internal_value=-6.83942e-05 -0.00901391 0.00508311 0.0111589 -0.000539297 -0.0165667 -0.00948989 0.00108778 0.00189759 0.00279504 -0.0205077 0.00123279 0.00402323 0.0137326 -0.0109615 -0.00577367 -0.00912633 0.00627446 0.0172632 -0.000605825 -0.00150111 0.0200825 0.00225664
internal_weight=4635.67 1694.03 2941.65 1166.99 798.296 895.73 269.534 1774.66 1695.7 1595.3 610.461 1376.92 528.762 957.515 162.796 287.62 237.308 453.76 542.954 209.471 165.344 416.868 36.7826
internal_count=25346 14888 10458 2998 4761 10127 2058 7460 6956 6339 7970 5630 2703 2366 1824 1419 1210 2134 1242 632 1103 923 105
is_linear=0
shrinkage=0.03


Tree=22
num_leaves=24
num_cat=0
split_feature=15 8 15 17 16 17 8 18 23 25 2 4 23 15 18 4 23 19 1 4 5 17 24
split_gain=222.44 113.266 73.2334 36.6007 31.8098 29.3136 29.0832 28.4882 25.4484 21.0709 19.2575 16.8254 16.1249 15.9346 15.3243 13.8902 13.7411 13.717 13.6991 13.6507 13.4326 15.0396 15.2609
threshold=0.41666667163372045 2.5000000000000004 1.5833333134651186 37.419437408447273 -4.3666667938232413 37.574377059936531 3.5000000000000004 18.500000000000004 0.42592073976993566 56.750000000000007 74.266998291015639 0.27362750470638281 0.62210014462471019 2.5833333730697636 29.500000000000004 0.24613335728645327 0.089488845318555846 473.50000000000006 62.333000183105476 0.25790233910083776 4.8950982093811044 38.236991882324226 -0.50021755695343006
decision_type=2 2 2 2 2 2 2 2 2 2 2 2 2 2 2 2 2 2 2 2 2 2 2
left_child=1 5 6 13 -3 12 20 -7 10 -6 18 -11 14 -4 -1 -12 17 -5 -8 -9 -2 22 -22
right_child=2 4 3 16 9 7 8 19 -10 11 15 -13 -14 -15 -16 -17 -18 -19 -20 -21 21 -23 -24
leaf_value=0.00026718359152655343 0.0061960334716800814 -0.0079167588184220952 0.01056653644162433 -0.01318570673936342 -0.023579028720886696 -0.021571946761054957 -0.029851647431181638 -0.0098818190648942619 -0.020149647910900535 -0.017476739734258281 -0.032636177423403703 0.0033467612647996585 -0.012517704290592254 0.019377122046448644 0.011060626196585394 0.0074463280433590025 -0.034156369307563779 0.0085305190213950735 -0.0033382407103094221 0.0073476473196210333 -0.03590489282163456 -0.030402848298714574 0.0061163051587860406
leaf_weight=257.84006589185447 785.17844747006893 281.94428920559585 792.60907096974552 48.266056261956692 435.16744047310203 97.921116886660457 18.097945809364319 81.745606168173254 69.656700774095953 110.40065313177183 8.0611049327999336 51.079629338346422 51.047753253020346 240.89506683126092 218.89035085402429 223.99596423655748 12.946669746190308 57.202011171728373 567.82856802269816 83.824573433957994 9.0266788937151414 18.401220332831144 56.243271928280592
leaf_count=1452 2820 2157 2111 174 6146 955 112 652 517 1471 72 353 415 496 836 902 51 166 2630 451 64 110 233
internal_value=-7.89422e-05 -0.00880593 0.00493165 0.0108101 -0.0162207 -0.000572847 0.00107655 -0.008745 -0.00274266 -0.0201447 -0.00126034 -0.0108898 0.00350707 0.0126202 0.00522298 0.00605396 -0.00498815 -0.00140762 -0.00415718 -0.00115892 0.00497835 -0.00644846 0.000304873
internal_weight=4578.27 1669.86 2908.41 1151.92 878.592 791.269 1756.49 263.491 887.64 596.648 817.984 161.48 527.778 1033.5 476.73 232.057 118.415 105.468 585.927 165.57 868.85 83.6712 65.27
internal_count=25346 14888 10458 2998 10127 4761 7460 2058 4233 7970 3716 1824 2703 2607 2288 974 391 340 2742 1103 3227 407 297
is_linear=0
shrinkage=0.03


Tree=23
num_leaves=24
num_cat=0
split_feature=15 4 8 8 23 3 25 15 17 17 16 16 17 15 19 25 19 1 23 16 19 16 1
split_gain=205.728 102.144 45.1217 44.6597 34.9642 33.5595 24.4322 23.7595 23.1872 22.5595 20.0293 19.1321 17.8967 16.9423 16.5718 16.4645 15.7824 16.4807 15.8505 15.6538 15.3558 15.133 14.6271
threshold=1.1666666865348818 0.24533031880855563 2.5000000000000004 2.5000000000000004 0.41823232173919683 0.11446750536561014 51.250000000000007 0.58333334326744091 37.462249755859382 35.709428787231452 -1.5500000119209287 -1.1000000238418577 36.025167465209968 2.5833333730697636 458.50000000000006 55.500000000000007 502.50000000000006 91.852500915527358 -0.063564214855432496 0.70833334326744091 481.50000000000006 -1.3666666746139524 77.482501983642592
decision_type=2 2 2 2 2 2 2 2 2 2 2 2 2 2 2 2 2 2 2 2 2 2 2
left_child=1 3 6 8 7 9 -3 15 -1 -2 -5 22 -8 -7 -11 -4 17 18 -14 -15 -21 -16 -9
right_child=5 2 4 10 -6 13 12 11 -10 14 -12 -13 16 19 21 -17 -18 -19 -20 20 -22 -23 -24
leaf_value=0.0018157954457725545 0.014910556384198831 -0.037063945173563255 -0.015725174954665778 -0.017713043428697294 -0.019120937810461064 0.010579578099746573 0.0095885038027339747 -0.0018508206870415894 -0.015944099894962174 -0.0055856503714048992 -0.034434554917738773 -0.011462566865015896 0.0043293461953810754 0.023236048490490421 0.0096895604235508696 -0.003361391014589649 0.0099623975916256075 -0.022236774395388573 -0.0059548819720198704 -0.047944660855686161 0.013989526397998045 -0.00065448702384076816 0.0080297388261054148
leaf_weight=164.78822906222194 157.80591186881065 13.55825801193714 195.37451886944473 348.6768252234906 150.03378354385495 508.74238489940763 303.3923893077299 349.76527003012598 110.54643592564389 176.75258680619299 79.094544809311628 114.88957130815834 316.78623707592487 187.64206854626536 284.46612980216742 192.39444637252018 139.76694048941135 31.871182378381491 234.88450799416751 5.569821096956729 10.202596306800841 230.37031726911664 219.45123902522027
leaf_count=1081 433 108 1914 4317 1485 1381 935 1628 1077 686 1633 716 1379 378 802 1571 533 227 1416 16 23 730 877
internal_value=-0.000110601 -0.00475166 -0.0016475 -0.014739 -0.00555683 0.00870243 0.00294448 -0.00365822 -0.00531477 0.00467541 -0.0208048 -0.000295489 0.00347282 0.0135055 0.00233997 -0.00959079 0.000907592 -0.00126117 -4.93632e-05 0.0208232 -0.00788171 0.00506098 0.00195845
internal_weight=4526.83 2965.27 2262.17 703.106 1221.91 1561.55 1040.26 1071.88 275.335 849.395 427.771 684.106 1026.7 712.157 691.589 387.769 723.309 583.542 551.671 203.414 15.7724 514.836 569.217
internal_count=25346 20897 12789 8108 8191 4449 4598 6706 2158 2651 5950 3221 4490 1798 2218 3485 3555 3022 2795 417 39 1532 2505
is_linear=0
shrinkage=0.03


Tree=24
num_leaves=24
num_cat=0
split_feature=15 4 8 8 15 23 2 16 17 4 16 4 16 17 16 8 0 18 17 1 1 5 18
split_gain=195.231 90.4183 43.7504 42.6186 32.4984 30.0483 26.7419 25.4291 21.0956 19.7397 19.0256 18.8411 18.2892 18.1184 17.5567 15.8639 18.1054 14.7631 15.5936 13.7878 13.4083 12.8167 12.6905
threshold=1.1666666865348818 0.24533031880855563 2.5000000000000004 2.5000000000000004 2.1666666269302373 0.41823232173919683 63.416250228881843 -2.3666666746139522 35.685825347900398 0.3002504855394364 -1.5500000119209287 0.31481635570526129 -6.9000000953674308 35.172527313232429 -3.7749999761581416 3.5000000000000004 61.699499130249031 11.500000000000002 37.614019393920906 94.398300170898452 93.458000183105483 0.22010862082242968 26.500000000000004
decision_type=2 2 2 2 2 2 2 2 2 2 2 2 2 2 2 2 2 2 2 2 2 2 2
left_child=1 3 12 8 15 6 11 9 20 -8 -5 -4 -3 -14 -10 19 -17 -9 -19 -2 -1 -6 -16
right_child=4 2 5 10 21 -7 7 17 14 -11 -12 -13 13 -15 22 16 -18 18 -20 -21 -22 -23 -24
leaf_value=0.016203211537563302 0.010546337362056065 0.017035186479350376 -0.016817953419369269 -0.017194666613963943 -0.048916338499560209 -0.018447093440350251 -0.0013211093211116809 -0.027844986687643104 -0.00034227838321473415 0.011250849706157686 -0.033835243081786523 0.005067359280187725 0.011683133734318471 -4.618053175858015e-05 -0.02437812914669343 -0.021760062831745596 0.0035106366463020376 -0.0013667437420867281 -0.016819865678148589 -0.011874769819889568 -0.037835014119566426 0.015988198503788773 -0.0032080578555111349
leaf_weight=49.93767515104264 518.67840220779181 74.974381968379021 192.69703189469874 342.54291539965197 2.7561567798256865 145.16047227103263 345.13533573318273 30.683976683299989 106.28055184613913 166.69025789666921 75.458379515912384 43.371634736657143 138.55805898830295 819.86793925240636 76.000227692071348 26.761912148445845 548.14988564513624 198.84634319227189 83.427707998082042 25.917867802083492 4.5053605102002612 420.8295410014689 38.341189565137029
leaf_count=183 1484 202 1467 4317 8 1485 2132 214 700 679 1633 187 373 4023 963 113 1812 1324 703 93 39 939 273
internal_value=-0.000149527 -0.0046947 -0.00176413 -0.0141639 0.00848807 -0.00564566 -0.003894 -0.00134576 -0.00499312 0.0027733 -0.0201987 -0.0127971 0.00276576 0.00164951 -0.00912022 0.00581005 0.0023343 -0.00808227 -0.005934 0.00947929 0.0117314 0.0155659 -0.0172793
internal_weight=4475.57 2932.48 2239.41 693.066 1543.09 1206.01 1060.85 824.784 275.065 511.826 418.001 236.069 1033.4 958.426 220.622 1119.51 574.912 312.958 282.274 544.596 54.443 423.586 114.341
internal_count=25346 20897 12789 8108 4449 8191 6706 5052 2158 2811 5950 1654 4598 4396 1936 3502 1925 2241 2027 1577 222 947 1236
is_linear=0
shrinkage=0.03


Tree=25
num_leaves=24
num_cat=0
split_feature=15 8 15 0 15 17 8 19 19 12 17 19 11 3 4 17 0 19 16 25 20 5 17
split_gain=196.394 81.9312 68.1613 47.6139 35.2688 25.9781 21.0463 25.215 20.9019 19.309 16.9743 16.9056 16.6276 15.7733 15.7513 14.9586 15.1528 17.2904 14.7624 14.1901 13.7952 13.7627 13.4405
threshold=1.1666666865348818 4.5000000000000009 1.0000000180025095e-35 69.457729339599624 2.5833333730697636 37.657924652099616 4.5000000000000009 453.50000000000006 450.50000000000006 55.049999237060554 37.56183052062989 435.50000000000006 0.62500000000000011 0.080151993781328215 0.25549800693988806 34.585739135742195 78.090759277343764 430.50000000000006 -1.5500000119209287 54.750000000000007 -9.4999999999999982 0.31135207414627081 38.593204498291023
decision_type=2 2 2 2 2 2 2 2 2 2 2 2 2 2 2 2 2 2 2 2 2 2 2
left_child=1 3 18 8 6 13 7 -2 -1 12 21 -4 -6 -5 -7 -15 17 -17 -3 -18 -12 -9 -10
right_child=4 2 11 5 9 14 -8 10 22 -11 20 -13 -14 15 -16 16 19 -19 -20 -21 -22 -23 -24
leaf_value=-0.013371252887640269 -0.0019817065033750025 -0.017581918820292475 -0.016883442009875977 -0.00056842324561855531 0.013243094162503062 -0.02285867893429798 0.0019961630992040421 -0.033476339178788991 -0.00078700680583879763 0.023048020887744623 0.049935463540152845 -0.0032780557345212088 -0.023380061955677555 0.025052044970197418 -0.0010696450370945544 -0.012584150216823485 -0.022411586317487301 0.012323942220665289 -0.03182641561325919 0.003201742396281937 -0.0022547142105258486 0.01486769743465634 -0.012447129601814965
leaf_weight=231.69626841228455 134.12750784680247 348.00420407019556 94.930713897570968 227.18835172476247 40.475282583385706 43.549925583880395 518.2558731008321 5.3531535044312468 512.58416730677709 204.38073055073619 4.808572255074977 612.74519179202616 15.40338711440563 46.605863187462091 94.984534895978868 26.995204832404852 22.79862077627331 353.95152577711269 80.655239177402109 133.2061128411442 87.539297476410866 532.00245277583599 107.65855327434838
leaf_count=1970 481 4247 754 1528 93 484 1744 24 2983 427 8 3687 41 130 536 166 159 1495 1673 654 275 1396 803
internal_value=3.77637e-05 -0.00451368 -0.0108216 -0.000534234 0.00870646 0.00408651 0.00666251 0.0098286 -0.00568294 0.0187753 0.0123442 -0.00510314 0.00314764 0.00613798 -0.00791928 0.00874889 0.00733382 0.0105589 -0.0202621 -0.000541404 0.000462839 0.0143861 -0.00281091
internal_weight=4479.9 2937.55 1136.34 1801.22 1542.35 949.28 1282.09 763.831 851.939 260.259 629.703 707.676 55.8787 810.746 138.534 583.557 536.951 380.947 428.659 156.005 92.3479 537.356 620.243
internal_count=25758 21269 10361 10908 4489 5152 3928 2184 5756 561 1703 4441 134 4132 1020 2604 2474 1661 5920 813 283 1420 3786
is_linear=0
shrinkage=0.03


Tree=26
num_leaves=24
num_cat=0
split_feature=15 8 15 17 23 15 8 19 17 18 25 23 20 16 19 19 23 1 2 19 17 17 2
split_gain=186.24 74.9481 64.8134 46.8052 35.4115 33.2565 19.8227 25.1987 19.4104 18.779 18.4529 17.7748 17.2067 15.8482 17.7163 15.7608 15.8767 16.6333 14.6003 14.1707 13.653 13.459 13.2244
threshold=1.1666666865348818 4.5000000000000009 1.0000000180025095e-35 35.950172424316413 -0.21695046126842496 2.5833333730697636 3.5000000000000004 497.50000000000006 38.568719863891609 21.500000000000004 54.750000000000007 -0.2000610530376434 7.5000000000000009 -2.8999999761581416 475.50000000000006 433.50000000000006 0.79585468769073497 87.485000610351577 63.847249984741218 466.50000000000006 37.419437408447273 37.24317932128907 57.563001632690437
decision_type=2 2 2 2 2 2 2 2 2 2 2 2 2 2 2 2 2 2 2 2 2 2 2
left_child=1 3 11 10 8 6 7 9 -5 21 12 -3 -1 22 -15 -6 17 -17 -9 -7 -8 -2 -4
right_child=5 2 13 4 15 19 20 18 -10 -11 -12 -13 -14 14 -16 16 -18 -19 -20 -21 -22 -23 -24
leaf_value=-0.010422897345042946 0.017487147201689448 -0.010351239082184757 -0.03000483379909983 0.0051384412499988555 -0.018066330219994021 0.0038304930047464731 0.004586724727795072 -0.0036447055814284503 -0.0094419560232351495 0.0003297064959545497 0.011608782867379163 -0.023831765366450739 0.020600226457079259 -0.014764326581215495 -0.0021907419327597713 -0.0032771193653152002 -0.028782111941955086 -0.019476990054041268 0.023239620958002288 0.0218210093588549 -0.0083669694264536243 0.0011600045555716237 0.001656504306227575
leaf_weight=72.533737596124411 156.73468357510865 125.59658868191764 12.387251958250998 460.87149701733142 105.7008184059523 48.641836866736412 571.48975489661098 20.613124616444111 100.00602332409471 217.28148331493139 323.47600531158969 294.3169458815828 20.677469430491328 211.65324556920677 192.65963655756786 618.1705894744955 25.722699353471398 62.841253633610904 154.05849565565586 207.49563812464476 83.991479007527232 63.991966033354402 285.98654078412801
leaf_count=431 395 1372 81 2343 1093 129 1849 63 719 715 1202 4548 69 1696 1166 4204 297 550 375 432 321 210 1498
internal_value=4.83692e-05 -0.00439807 -0.0104749 -0.000587004 -0.00325916 0.00854455 0.00655308 0.0104326 0.00253872 0.00659055 0.00821986 -0.0197997 -0.0035409 -0.0049025 -0.00877287 -0.00726182 -0.00564587 -0.00477198 0.020067 0.0184045 0.00292688 0.0127537 0.000342056
internal_weight=4436.9 2912.6 1122.6 1790 1373.31 1524.3 1268.16 612.68 560.878 438.008 416.687 419.914 93.2112 702.687 404.313 812.435 706.735 681.012 174.672 256.137 655.481 220.727 298.374
internal_count=25758 21269 10361 10908 9206 4489 3928 1758 3062 1320 1702 5920 500 4441 2862 6144 5051 4754 438 561 2170 605 1579
is_linear=0
shrinkage=0.03


Tree=27
num_leaves=24
num_cat=0
split_feature=15 17 4 3 16 2 8 19 16 18 15 3 4 2 15 8 18 2 5 20 5 17 16
split_gain=177.585 67.3381 53.6906 46.9795 37.9235 27.7791 25.4404 19.9943 17.848 15.9953 15.7718 15.8735 22.8713 15.6124 15.4198 17.8514 14.8488 18.4611 14.682 17.9867 16.9155 14.0986 14.0472
threshold=0.83333334326744091 35.734594345092781 0.23825323581695559 0.12283629924058916 -3.2250000238418575 65.86100006103517 4.5000000000000009 498.50000000000006 -3.4500000476837154 32.500000000000007 2.1666666269302373 0.11718864738941194 0.30467596650123602 61.775125503540046 1.0000000180025095e-35 4.5000000000000009 31.500000000000004 66.101997375488295 3.6486467123031621 15.500000000000002 0.22010862082242968 36.455524444580085 0.45000000298023229
decision_type=2 2 2 2 2 2 2 2 2 2 2 2 2 2 2 2 2 2 2 2 2 2 2
left_child=1 16 8 6 9 -6 7 18 -3 -4 11 12 -8 -11 -7 -16 -1 -18 19 20 -2 -9 -23
right_child=3 2 4 -5 5 14 10 21 -10 13 -12 -13 -14 -15 15 -17 17 -19 -20 -21 -22 22 -24
leaf_value=0.0011407593823316528 -0.029566319299248991 -0.010974377201418422 -0.0030163513907114099 0.013527644374779595 -0.017441662756914587 -0.013721498231426143 -0.0085510890332389216 0.02091725254823798 -0.023527734155046345 -0.016197492860682623 0.012358361439774338 -0.018679472410495345 0.0043978868214010983 0.011050680804744582 0.0050919938591825675 -0.0091252652522522872 -0.029976426078896466 0.016965278824771942 -0.0010289242632555283 -0.033319014037657788 0.0094236111061300858 0.008584282148852266 -0.048729058498730347
leaf_weight=180.10616958606988 10.266259070485829 189.51425440236926 560.40011021308601 566.24616889841855 290.99447828903794 144.98028439329937 220.00686186831445 124.19541089236736 220.56714037898928 21.732164297252893 67.76990457996726 52.435601143166423 277.73444211296737 146.51815818529576 161.2454824289307 156.75659458711743 8.0063490718603116 129.50385346636176 310.51059714052826 9.4813388176262361 408.09167666174471 130.14296394959092 3.9660530537366858
leaf_count=982 50 1968 3358 1545 2793 1749 1182 348 3792 144 166 215 1046 660 968 1224 52 501 1224 34 1317 420 20
internal_value=1.88023e-05 -0.00597384 -0.00811887 0.00609244 -0.00546152 -0.0101782 0.00348489 0.00645009 -0.0177263 -0.000580861 -0.00129752 -0.00297963 -0.0013257 0.00753115 -0.00561302 -0.00191629 0.00680861 0.0142322 0.00393683 0.00754081 0.00846682 0.0136341 0.00688933
internal_weight=4391.17 2210.33 1892.71 2180.85 1482.63 753.977 1614.6 996.654 410.081 728.65 617.947 550.177 497.741 168.25 462.982 318.002 317.616 137.51 738.35 427.839 418.358 258.304 134.109
internal_count=25758 18191 16656 7567 10896 6734 6022 3413 5760 4162 2609 2443 2228 804 3941 2192 1535 553 2625 1401 1367 788 440
is_linear=0
shrinkage=0.03


Tree=28
num_leaves=24
num_cat=0
split_feature=15 8 15 15 17 7 19 19 16 2 11 16 19 23 17 24 19 3 1 22 23 17 0
split_gain=170.204 61.4593 43.4671 41.7728 38.8001 24.9229 26.3893 22.3599 19.991 20.2255 24.0762 17.4453 16.1928 15.6292 15.1671 14.2392 13.9872 13.5928 13.8254 13.5216 13.2036 12.8332 12.5957
threshold=0.83333334326744091 4.5000000000000009 2.1666666269302373 1.0000000180025095e-35 36.788961410522468 4.5000000000000009 433.50000000000006 494.50000000000006 -3.2250000238418575 65.86100006103517 1.0000000180025095e-35 -3.1000000238418575 460.50000000000006 -0.2000610530376434 38.924791336059577 0.33594794571399694 466.50000000000006 0.10579311847686769 64.450000762939467 1.0000000180025095e-35 -0.83322510123252858 36.229322433471687 65.792949676513686
decision_type=2 2 2 2 2 2 2 2 2 2 2 2 2 2 2 2 2 2 2 2 2 2 2
left_child=1 4 5 13 12 21 -7 11 -6 -10 -11 -5 -1 22 17 19 -4 -8 -19 20 -14 -2 -3
right_child=2 3 16 7 8 6 14 -9 9 10 -12 -13 15 -15 -16 -17 -18 18 -20 -21 -22 -23 -24
leaf_value=-0.004074185464288148 0.021314857371631336 -0.021978983614967085 0.0043117688963122515 -0.0014458164258625515 -0.0017929304474372874 -0.012412797476539927 0.0011548160892831359 0.0052764721301079521 -0.018526314609370036 -0.02121738192449887 0.0029046420862339703 -0.01581284921473004 0.048801291966099038 -0.023042470355785473 -0.025435307878935016 -0.0079807303623302198 0.017634346587576243 -0.020477640973203478 0.0079584756443610259 0.014234612605287704 0.001134443834910543 0.007545321363650024 -0.0023857861291539991
leaf_weight=164.57350981980562 92.948474939912558 49.270322751253843 90.838520605117083 128.14717216603458 404.74793134536594 101.19255267176777 763.23518962971866 119.255271862261 182.4282409385778 53.117345185019076 124.58004073612392 187.15878896554932 5.4066954674199215 283.4958502589725 16.155501194298267 50.086595200467855 323.52604004368186 15.807745985686777 579.36160964891315 203.94607975007966 160.03539064014331 176.7693853629753 73.701344500295818
leaf_count=1074 234 586 259 718 2478 589 3076 701 1947 762 868 1675 13 4548 85 402 715 72 1956 855 778 581 786
internal_value=3.28915e-06 -0.0058901 0.00597885 -0.0122549 -0.00192175 0.00390524 0.0023727 -0.0057887 -0.0063678 -0.0115095 -0.00430592 -0.00997378 0.00390082 -0.0191681 0.00346118 0.00702967 0.0147137 0.00380485 0.00720321 0.00906499 0.00269221 0.0122905 -0.0102361
internal_weight=4349.79 2189.95 2159.84 841.029 1348.92 1745.47 1475.75 434.561 764.874 360.126 177.697 315.306 584.048 406.468 1374.56 419.475 414.365 1358.4 595.169 369.388 165.442 269.718 122.972
internal_count=25758 18191 7567 9014 9177 6593 5778 3094 6055 3577 1630 2393 3122 5920 5189 2048 974 5104 2028 1646 791 815 1372
is_linear=0
shrinkage=0.03


Tree=29
num_leaves=24
num_cat=0
split_feature=15 17 15 16 19 23 15 24 1 18 0 25 1 16 12 17 20 2 23 24 16 18 5
split_gain=158.128 59.9594 62.9427 59.0652 30.0377 26.464 25.2855 19.8839 21.7392 19.5064 19.472 17.1004 16.9952 15.146 13.1484 18.5749 17.6804 12.7578 12.3619 12.2224 13.4374 11.2901 12.7931
threshold=1.1666666865348818 35.734594345092781 1.0000000180025095e-35 -3.7083333730697627 452.50000000000006 -0.21695046126842496 2.4166666269302373 -0.26022921502590174 63.040998458862312 22.500000000000004 65.792949676513686 56.750000000000007 69.983001708984389 0.63333335518836986 55.049999237060554 36.54426574707032 13.500000000000002 66.024002075195327 0.58193472027778637 0.30333334207534796 -8.0999999046325666 42.500000000000007 0.13198039680719378
decision_type=2 2 2 2 2 2 2 2 2 2 2 2 2 2 2 2 2 2 2 2 2 2 2
left_child=1 11 3 10 -2 7 12 8 -4 -5 -3 19 -6 -14 15 -8 -16 -7 -11 -1 -21 22 -12
right_child=4 2 5 9 6 17 14 -9 -10 18 21 -13 13 -15 16 -17 -18 -19 -20 20 -22 -23 -24
leaf_value=0.0049631572145203478 -0.0015811678553032272 -0.012401810314724095 -0.036929662096152553 -0.0230206656492285 -2.2719379281158784e-05 -0.010674795389605737 0.014602086715210965 0.0082533408441347357 -0.0006633503456159825 -0.0059213771215814144 -0.048979104919225649 0.016008793101498275 0.010711027960820281 -0.0082214022533231446 0.024468025983207572 -0.030700504560294509 -0.03374850731981463 -0.0027547340305631141 -0.028767938779466869 0.059268090746232995 -0.017648908396466101 0.010988822794677734 -0.0017997210433805554
leaf_weight=248.06159082427621 247.25438174232841 170.8968414478004 15.484419144690035 346.16680131386966 198.52579587697983 296.94246737658978 40.661061007529497 290.82441023923457 378.45145337004215 120.57475168211386 5.2919357288628808 120.38275953847915 768.21256810240448 40.010857295244932 169.94889592379332 10.18618520349264 4.8284603431820861 477.22271470166743 25.892277111764997 2.1673030257225028 35.974032403435558 68.379874438978732 229.48779352009296
leaf_count=1075 932 1531 122 5732 656 1954 96 1244 2091 1232 37 488 2228 172 365 26 14 2944 351 2 334 336 1796
internal_value=1.32513e-05 -0.00413925 -0.00592636 -0.0118632 0.00796167 -0.00199258 0.00987628 0.00230357 -0.00208887 -0.0191376 -0.00430376 0.00652237 0.00784196 0.00977378 0.0189535 0.00552666 0.0228597 -0.00579259 -0.00996017 0.00253218 -0.0132783 0.000261268 -0.00286314
internal_weight=4311.83 2832.2 2425.62 966.69 1479.63 1458.93 1232.37 684.76 393.936 492.634 474.056 406.586 1006.75 808.223 225.625 50.8472 174.777 774.165 146.467 286.203 38.1413 303.16 234.78
internal_count=25758 21269 19370 11015 4489 8355 3557 3457 2213 7315 3700 1899 3056 2400 501 122 379 4898 1583 1411 336 2169 1833
is_linear=0
shrinkage=0.03


Tree=30
num_leaves=24
num_cat=0
split_feature=15 4 16 17 17 4 16 1 13 19 2 16 18 14 8 3 17 3 1 24 19 15 5
split_gain=177.7 86.4656 37.2375 34.8347 32.1382 26.9681 22.351 21.3842 17.9794 17.3952 14.454 14.8391 14.0828 13.9874 14.034 13.7371 13.3692 13.3572 15.1184 13.4486 14.1706 13.0769 13.5458
threshold=1.5833333134651186 0.24533031880855563 -4.6333332061767569 35.734594345092781 36.34413146972657 0.28178620338439947 -4.6333332061767569 62.914501190185554 3.5000000000000004 489.50000000000006 62.79118728637696 0.77500000596046459 110.50000000000001 -1.0500000119209287 3.5000000000000004 0.079223770648241057 35.988658905029304 0.11324258148670198 93.100997924804702 -0.87549340724945057 512.50000000000011 0.83333334326744091 4.4142935276031503
decision_type=2 2 2 2 2 2 2 2 2 2 2 2 2 2 2 2 2 2 2 2 2 2 2
left_child=1 2 16 -3 17 6 12 -7 -4 15 -6 13 -5 -12 -15 -9 -1 -2 -19 -20 -21 -8 -23
right_child=4 3 8 5 10 7 21 9 -10 -11 11 -13 -14 14 -16 -17 -18 18 19 20 -22 22 -24
leaf_value=0.012941426879254279 0.0099434938692922886 0.0076115961914200699 -0.013680961649009333 -0.0006130612019746535 -0.0066466575877844065 -0.024045301219954938 -0.010556660032572624 -0.01039182266039947 -0.026549318379926381 0.0068890296349971066 -0.026692257465225747 -0.013107844330897202 0.02169128489215421 0.015909351807793556 0.0044565988204837269 0.00079905317234124607 -0.0060982292541236589 0.021211642182256404 0.035967244601261307 -0.035034584350408231 0.026725963728304606 0.0023445585408323772 -0.017976100508144931
leaf_weight=41.735815698280931 208.736164201051 382.50749715417624 321.33346867933869 239.91618206351995 75.620817635208368 29.824945509433746 576.81491975579411 118.47741455025971 140.41853132797405 379.39857674017549 9.5821443386375886 29.039416339248419 28.504182452335954 186.66472838819027 198.90281240642071 592.03237942792475 162.134959500283 322.22354927286506 5.5745923370122936 12.026699531823398 4.6310364902019492 155.42341950163245 36.447006436996162
leaf_count=232 616 1487 4048 1272 255 211 5111 684 2631 1596 37 118 103 514 616 2924 1370 757 14 44 12 734 256
internal_value=0.000258056 -0.00325485 -0.0128793 -0.000732041 0.0109501 -0.00221175 -0.0056974 0.00101668 -0.0175942 0.00170249 0.00543628 0.00759032 0.00175549 0.00911142 0.0100012 -0.00106702 -0.00220049 0.0159319 0.0195607 -0.00436656 -0.0178645 -0.0082999 -0.00151548
internal_weight=4257.97 3204.97 665.623 2539.35 1053 2156.84 1037.11 1119.73 461.752 1089.91 499.81 424.189 268.42 395.15 385.568 710.51 203.871 553.192 344.456 22.2323 16.6577 768.685 191.87
internal_count=25642 22659 8281 14378 2983 12891 7476 5415 6679 5204 1540 1285 1375 1167 1130 3608 1602 1443 827 70 56 6101 990
is_linear=0
shrinkage=0.03


Tree=31
num_leaves=24
num_cat=0
split_feature=15 18 17 4 3 23 7 3 19 19 16 24 23 8 1 8 20 18 20 3 17 4 24
split_gain=168.626 60.6776 55.4591 37.6652 24.6826 24.2729 25.5531 24.5823 23.9014 19.6301 19.3408 16.2115 15.1367 25.3008 15.0374 14.5642 14.3004 13.8 12.6202 12.0724 11.7076 12.0014 12.498
threshold=0.83333334326744091 25.500000000000004 36.327630996704109 0.24354213476181033 0.12283629924058916 0.43249028921127325 4.5000000000000009 0.10429508239030839 462.50000000000006 513.50000000000011 -3.1000000238418575 0.13791245967149737 -0.19156843423843381 1.5000000000000002 76.684497833251967 3.5000000000000004 32.500000000000007 12.500000000000002 -13.499999999999998 0.078678663820028319 37.800798416137702 0.30467596650123602 0.25461760163307195
decision_type=2 2 2 2 2 2 2 2 2 2 2 2 2 2 2 2 2 2 2 2 2 2 2
left_child=1 3 5 10 15 6 -2 -8 -3 12 -1 -11 -5 -14 -6 18 19 -7 -4 -10 21 -17 -23
right_child=2 8 4 9 14 17 7 -9 16 11 -12 -13 13 -15 -16 20 -18 -19 -20 -21 -22 22 -24
leaf_value=-0.010890974547359409 0.025110445659469492 -0.005876226509500068 -0.050392769177271125 -0.0028357515648788681 0.0038146714418816974 0.028376938787846959 0.0031661835331427434 0.015262087234482679 -0.002323311605473216 0.010634604694908602 -0.024009427899417082 -0.020549812827308573 -0.0013708724397318629 -0.014860725198104212 0.018528637215616782 -0.007990017640814126 -0.053743026964874985 -0.014527337773917185 0.0042095156474966835 0.0095037452060976711 -0.014043974690766063 0.00016960821000911271 0.021233257828124595
leaf_weight=224.53457877924666 139.98699040710926 230.1885675014928 3.8397722244262686 379.14745904598385 134.73050634935498 7.9944792836904517 233.34505680389702 429.60829043202102 102.62663523573428 95.317981324158609 184.06050246534869 17.806178533472121 183.79192643146962 392.04354114551097 116.61835557594895 158.66005126480013 3.5610568039119235 43.243604328483343 485.98963592480868 319.48007814306766 79.701032617129385 229.92302638292313 28.493983168154955
leaf_count=2431 342 1802 22 2434 442 29 901 1212 836 508 3611 142 1000 3728 328 833 14 222 1784 1627 447 845 102
internal_value=0.000254959 -0.00568153 0.00630616 -0.00905396 0.00224888 0.0121863 0.0134638 0.0110046 0.0019117 -0.00609061 -0.0168005 0.00572606 -0.00749037 -0.0105551 0.0106415 0.000110769 0.00612318 -0.00783315 0.00378149 0.00662824 -0.00350861 -0.00149536 0.00249216
internal_weight=4224.69 2132.56 2092.13 1476.7 1237.96 854.178 802.94 662.953 655.856 1068.11 408.595 113.124 954.983 575.835 251.349 986.608 425.668 51.2381 489.829 422.107 496.778 417.077 258.417
internal_count=25642 18133 7509 13854 4803 2706 2455 2113 4279 7812 6042 650 7162 4728 770 4033 2477 251 1806 2463 2227 1780 947
is_linear=0
shrinkage=0.03


Tree=32
num_leaves=24
num_cat=0
split_feature=4 8 17 17 4 19 23 16 13 17 19 23 23 16 1 14 16 19 1 12 3 17 4
split_gain=161.925 74.4444 36.7436 35.1626 33.4303 23.5431 22.0857 21.7661 19.2933 17.3734 16.5033 15.5462 14.877 14.1668 13.9738 13.9118 13.3728 13.3212 13.1637 12.6037 12.6016 12.5371 14.5547
threshold=0.31160603463649755 4.5000000000000009 38.02472114562989 36.327630996704109 0.24633751809597018 460.50000000000006 -0.090028014034032808 -3.1000000238418575 2.5000000000000004 35.685825347900398 475.50000000000006 0.048970473930239684 -0.38881674408912653 1.5500000119209292 75.493999481201186 1.1500000357627871 -2.2250000238418575 490.50000000000006 63.276998519897468 104.14999771118165 0.11367845535278322 37.955375671386726 0.26720833778381353
decision_type=2 2 2 2 2 2 2 2 2 2 2 2 2 2 2 2 2 2 2 2 2 2 2
left_child=1 2 5 6 16 15 -2 12 -8 -7 -5 -4 18 -12 -10 20 -3 -9 -6 -20 -1 -11 -23
right_child=3 4 11 10 7 9 8 17 14 21 13 -13 -14 -15 -16 -17 -18 -19 19 -21 -22 22 -24
leaf_value=-0.0071591719491494515 0.018707359498217141 -0.014162925742642135 -0.0045768283786452183 -4.2676197304297509e-05 -0.034704942004352195 0.011016979647787454 0.01471646842991659 -0.015061471477390105 0.008356916489116014 0.0013840153940948912 0.0092939756692912937 -0.018063687590277502 -0.0062992030885866065 -0.044327089481245058 -0.016763622722464622 0.010410181361706952 -0.027582014496686069 -0.0035342265613490156 0.005777501189076063 0.036505868204935094 0.014364395960569282 -0.0097809160354467416 0.037902019433017284
leaf_weight=368.45359469391406 379.15167207829654 196.52358732651919 249.46526782587171 354.30981956236064 6.484466264024376 269.20113382488489 100.40249842777848 278.76478427648544 37.405181441456079 720.19418838992715 419.90408652089536 111.21273092133924 185.5862524760887 4.4818282760679713 42.658223269507289 54.734384092502296 101.283471792005 133.40556267462671 109.38797683641315 13.4953599832952 26.223932852968574 8.519226189702751 17.796638131141663
leaf_count=2578 1047 2539 1757 1462 60 943 318 2558 147 4063 1401 1169 1239 30 183 323 2147 860 548 46 101 74 49
internal_value=0.000251138 -0.00379016 -0.000157883 0.00885949 -0.0102607 0.0019537 0.0145957 -0.00679324 0.00595711 0.00448331 0.00473714 -0.00873541 -0.000855488 0.0087277 -0.00502745 -0.00376344 -0.0187267 -0.0113305 0.00695386 0.00915217 -0.00572906 0.00212718 0.0224656
internal_weight=4189.05 2850.73 1825.8 1338.31 1024.93 1465.12 559.618 727.124 180.466 1015.71 778.696 360.678 314.954 424.386 80.0634 449.412 297.807 412.17 129.368 122.883 394.678 746.51 26.3159
internal_count=25642 21054 11057 4588 9997 8131 1695 5311 648 5129 2893 2926 1893 1431 330 3002 4686 3418 654 594 2679 4186 123
is_linear=0
shrinkage=0.03


Tree=33
num_leaves=24
num_cat=0
split_feature=15 18 3 25 8 16 4 19 16 1 25 18 0 23 4 4 3 5 16 4 19 14 4
split_gain=153.537 55.477 48.2186 33.8052 25.6758 25.6586 22.3993 18.8023 18.4271 18.1047 22.9189 14.8204 25.0859 15.1605 12.8039 12.7446 12.5584 12.4053 12.0092 11.7129 11.4204 12.9066 11.1653
threshold=0.83333334326744091 25.500000000000004 0.12336268648505212 55.500000000000007 4.5000000000000009 -3.3666666746139522 0.28095175325870519 462.50000000000006 -4.9000000953674308 74.93900299072267 55.500000000000007 27.500000000000004 80.673000335693374 -0.64020201563835133 0.25612026453018194 0.24354213476181033 0.078678663820028319 1.0178632736206057 1.0000000180025095e-35 0.24434839934110644 491.50000000000006 1.2250000238418581 0.23747143149375918
decision_type=2 2 2 2 2 2 2 2 2 2 2 2 2 2 2 2 2 2 2 2 2 2 2
left_child=1 3 4 5 9 14 8 22 -5 -2 11 12 -11 -14 -1 -7 -9 -13 20 -6 21 -8 -3
right_child=2 7 -4 6 19 15 18 16 -10 10 -12 17 13 -15 -16 -17 -18 -19 -20 -21 -22 -23 -24
leaf_value=-0.013501746168839257 0.0017251142904138614 -0.021437578053429395 0.014090250267487375 0.0022590391889675959 -0.034062838542408012 -0.027920083738363816 -0.0041115218397915158 -0.0035471283260287184 -0.010896540155147117 0.013088731607141744 0.014234834609680834 -0.052499370949059578 0.011139357304960157 -0.043511764688327119 -0.0016507313524367251 -0.015470331734669794 0.0084935066371533766 -0.0067278731749122319 -0.029914447899735724 -0.00096543715363834942 0.012752067955042926 0.030552755272136044 -0.0024349967589087957
leaf_weight=159.55644585657865 417.37585055455565 32.563020758330822 506.97569017950445 126.17662911210209 9.786499582231043 102.63213266106322 111.38945909962058 103.13769188709557 398.36269885115325 101.35442053992301 372.85347299091518 5.9586419295519581 7.1423887852579382 12.67606984823942 168.90604109317064 265.28787634847686 319.37060192786157 50.444472005590796 9.2550968136638385 576.6560435872525 95.433146975934505 10.58562404848635 191.39698063116521
leaf_count=1622 1633 433 1443 860 83 2190 652 841 4383 344 1135 32 24 74 980 2598 1636 206 99 2535 428 42 1369
internal_value=0.000243782 -0.00547755 0.00605624 -0.00874069 0.00343564 -0.0135022 -0.00432665 0.00182934 -0.007732 0.00643717 0.0100102 0.00113977 0.00705277 -0.023816 -0.00740757 -0.0189432 0.00555429 -0.0115634 0.00355394 -0.00151776 0.0049787 -0.00110318 -0.00519791
internal_weight=4155.28 2094.05 2061.22 1447.59 1554.25 696.382 751.203 646.468 524.539 967.805 550.429 177.576 121.173 19.8185 328.462 367.92 422.508 56.4031 226.663 586.443 217.408 121.975 223.96
internal_count=25642 18133 7509 13854 6066 7390 6464 4279 5243 3448 1815 680 442 98 2602 4788 2477 238 1221 2618 1122 694 1802
is_linear=0
shrinkage=0.03


Tree=34
num_leaves=24
num_cat=0
split_feature=15 18 17 4 16 3 3 16 19 25 16 5 3 4 1 1 17 19 4 24 20 2 3
split_gain=145.022 51.8786 48.5921 33.4835 18.5281 18.483 17.5711 16.7433 16.419 15.9754 16.4634 15.5325 15.0167 21.2289 13.4939 13.3805 14.2738 12.8489 13.3833 12.6312 12.4739 11.7194 11.2978
threshold=0.83333334326744091 25.500000000000004 36.327630996704109 0.24354213476181033 1.0000000180025095e-35 0.12283629924058916 0.11446750536561014 -3.7749999761581416 463.50000000000006 55.500000000000007 -4.0999999046325675 3.7440593242645268 0.087342415004968657 0.26475505530834204 92.701000213623061 86.385498046875014 36.140472412109382 442.50000000000006 0.27060922980308538 0.37137085199356085 32.500000000000007 76.943000793457045 0.081754408776760115
decision_type=2 2 2 2 2 2 2 2 2 2 2 2 2 2 2 2 2 2 2 2 2 2 2
left_child=1 3 6 7 9 17 11 -1 -3 10 -5 -2 -11 -14 19 -15 -17 18 -4 -8 22 -7 -10
right_child=2 8 5 4 -6 21 14 -9 20 12 -12 -13 13 15 -16 16 -18 -19 -20 -21 -22 -23 -24
leaf_value=-0.0090203241177111461 0.011944240964175032 -0.0045951423203957377 -0.029905105618254955 -0.00089861759221787066 -0.028513780969361312 0.0063487904185780307 0.019168335774642067 -0.021492293185274822 -0.00092331678315442855 -0.0053068950328289018 -0.012873587886680821 0.00054523964102998505 -0.014007982720865314 0.013248799890066052 -0.0033440125854826645 0.01769245928250485 -0.033413983588289176 0.0017297803047644392 -0.0041690720669777586 -0.0097324379898966699 -0.054524639990254982 0.023122340256501707 0.0095037504229136087
leaf_weight=175.12707685725763 282.81255054101348 231.50430329330266 21.362602422013879 153.37161081749946 30.891235964372754 200.94713795278221 334.22726017609239 216.80761753441766 144.23898016428575 334.05900305788964 316.66271686507389 173.63845610618591 41.857526869513094 141.14381874538958 28.891726210713387 8.2611924689263123 12.155588666908441 820.3879852425307 122.27058236859739 14.188025463372467 3.1045115850865832 46.086425993591547 265.97305100224912
leaf_count=1811 937 1850 182 879 367 643 881 4231 1076 2345 2974 729 423 680 102 44 100 3245 606 57 14 127 1339
internal_value=0.000323816 -0.00526336 0.00599391 -0.00844822 -0.00562827 0.0021567 0.0115676 -0.0159195 0.00180127 -0.00492658 -0.00896617 0.00760795 -0.00139387 0.0050322 0.0163577 0.00996518 -0.0127349 0.00028058 -0.0079968 0.0179915 0.00538399 0.00947805 0.00583738
internal_weight=4119.97 2075.16 2044.81 1430.34 1038.4 1211.05 833.758 391.935 644.821 1007.51 470.034 456.451 537.477 203.418 377.307 161.561 20.4168 964.021 143.633 348.415 413.317 247.034 410.212
internal_count=25642 18133 7509 13854 7812 4803 2706 6042 4279 7445 3853 1666 3592 1247 1040 824 144 4033 788 938 2429 770 2415
is_linear=0
shrinkage=0.03


Tree=35
num_leaves=24
num_cat=0
split_feature=17 15 7 4 16 19 14 4 16 15 16 1 20 24 17 19 4 8 19 16 2 12 18
split_gain=126.898 75.5101 41.957 41.8964 24.4686 24.3786 23.3689 19.9018 19.7615 19.4264 17.0022 14.8729 14.8364 14.6583 14.8233 13.8729 13.7372 20.6638 12.6147 12.5909 12.0083 11.8304 13.2735
threshold=37.419437408447273 1.5833333134651186 4.5000000000000009 0.25549800693988806 -1.1000000238418577 486.50000000000006 -1.6833333373069761 0.24583917856216433 -4.6333332061767569 2.5833333730697636 -6.7750000953674308 64.450000762939467 22.500000000000004 0.48406927287578588 34.729457855224616 443.50000000000006 0.30695120990276342 4.5000000000000009 430.50000000000006 1.2916666865348818 63.847249984741218 85.549999237060561 175.50000000000003
decision_type=2 2 2 2 2 2 2 2 2 2 2 2 2 2 2 2 2 2 2 2 2 2 2
left_child=1 2 18 8 21 6 -4 -8 -2 11 -9 -3 13 14 -7 -10 17 -12 -1 -11 -18 22 -5
right_child=3 9 5 4 -6 12 7 10 15 19 16 -13 -14 -15 -16 -17 20 -19 -20 -21 -22 -23 -24
leaf_value=-0.0090204701645991061 -0.0051803869883751633 -0.020277492527417985 -0.033799716844768776 0.0049945047610140923 -0.013798670450974816 0.029183181958056362 -0.013243766199200124 0.030931841693125746 -0.030176871143739625 0.020196934917701432 -0.0002725817846689259 0.0091747354773909807 -0.0482875423652658 -0.015347033711768678 0.0036291779046287533 -0.015659773159873054 -0.010992957496703305 -0.012802625577050503 0.010759089892288111 -0.022301919597088417 0.0060392859962275962 -0.004210949540500112 -0.056471664498798702
leaf_weight=31.545819176360965 116.07073831837624 15.793101094663141 24.305374391842633 231.38121863361448 177.66523940395564 21.244265682995319 171.13302230741829 13.91945345699787 83.154953669756651 204.9140575863421 284.09207017626613 673.64038303121924 5.0376497097313395 35.234025101643056 533.09895585197955 206.04310128232464 45.147709332406521 203.16360060498118 362.32246968336403 6.4721800610423079 213.09250708436593 432.93053010571748 3.2057648692280045
leaf_count=202 882 65 282 1235 1297 77 2467 52 1458 494 1755 2002 29 441 3208 2873 224 1834 1233 27 977 2494 20
internal_value=0.000258006 0.00375987 0.000431805 -0.007707 -0.00390447 -0.00179065 -0.00476016 -0.00400166 -0.0156371 0.0109395 -0.00191897 0.00850006 0.00297788 0.00341592 0.00460849 -0.019834 -0.00253234 -0.00549704 0.0091749 0.0188957 0.00306157 -0.00127105 0.00415453
internal_weight=4094.61 2844.16 1943.34 1250.45 845.183 1549.47 954.854 930.548 405.269 900.82 759.415 689.433 594.615 589.577 554.343 289.198 745.496 487.256 393.868 211.386 258.24 667.518 234.587
internal_count=25628 15369 12781 10259 5046 11346 7591 7309 5213 2588 4842 2067 3755 3726 3285 4331 4790 3589 1435 521 1201 3749 1255
is_linear=0
shrinkage=0.03


Tree=36
num_leaves=24
num_cat=0
split_feature=15 17 8 23 16 17 22 19 15 0 12 16 7 17 15 17 14 14 0 1 0 19 25
split_gain=122.142 66.8787 46.4117 53.0377 24.842 23.8998 17.5825 17.5467 16.5667 15.963 15.3628 15.3573 14.6946 16.3292 13.8051 12.0023 12.6508 13.261 11.7195 11.3591 12.253 11.3565 11.3545
